// Neural Network File Format by Kyle Julian, Stanford 2016
4,15,7,20,
15,20,20,10,7,
0,
0.0,0.0,0.0,0.0,0.0,0.0,0.0,0.0,0.0,0.0,0.0,0.0,0.0,0.0,0.0,
0.0,3.4505977630615234,10.898078918457031,0.0,0.0,0.0,0.0,4.489497184753418,5.523132801055908,5.309302806854248,0.0,12.175125122070312,0.0,0.0,0.0,
0,0,0,0,0,0,0,0,0,0,0,0,0,0,0,0,
1,1,1,1,1,1,1,1,1,1,1,1,1,1,1,1,
-4.68844e-02,-2.50467e-01,3.83807e-01,-2.77461e-01,-2.43746e-01,-9.64771e-02,9.06831e-03,6.07930e-02,1.98836e-01,-2.27509e-01,-3.84350e-01,-1.88201e-01,-2.84573e-01,-7.94378e-02,-1.20437e-02,
-2.65137e-01,7.74199e-02,-5.08847e-01,6.09142e-01,3.11132e-01,8.69266e-02,-5.80292e-02,5.02534e-01,-3.41744e-01,6.59537e-02,1.19069e-02,2.75833e-02,-4.26295e-01,-3.41844e-01,-1.56251e-01,
1.10120e+00,1.93797e-01,3.66810e-01,-1.53429e-01,6.38121e-02,-8.63364e-01,1.82927e-01,1.02241e-01,5.27895e-02,-6.72743e-02,-7.58547e-03,-1.51302e-01,-1.38110e-01,5.14236e-01,-6.02168e-02,
-2.99885e-02,-2.48439e-01,2.43200e-01,1.84438e-03,3.76320e-01,-3.40052e-01,-1.17735e-02,3.06560e-01,-2.54316e-01,3.17413e-01,-3.11968e-01,1.56765e-01,8.49064e-02,-2.17686e-01,-2.15334e-01,
3.16195e-01,-2.36466e-01,9.70657e-02,-1.88233e-01,-1.88916e-01,-2.60228e-01,2.97692e-01,3.86409e-02,-1.55873e-01,1.02607e-01,3.61146e-01,-3.46651e-02,5.88457e-02,2.40604e-01,-3.83622e-02,
3.92610e-01,-3.48548e-01,-6.69162e-02,-3.78993e-01,1.39151e-02,-4.11233e-01,-3.70386e-01,3.81411e-01,2.99585e-01,9.94609e-02,3.92524e-02,3.73412e-01,2.72590e-01,-3.69378e-01,2.41723e-01,
-2.27020e-01,-2.65762e-01,-4.07675e-01,3.12408e-01,-1.17633e-01,-6.77852e-02,2.01301e-01,-4.10059e-01,4.05788e-01,3.63501e-01,1.11370e-01,2.45247e-01,-3.68219e-01,2.63267e-01,2.17134e-03,
7.85532e-01,3.11101e-02,2.02068e-01,8.33435e-01,3.66274e-01,3.14016e-02,1.45022e-01,-1.50151e-02,3.81757e-01,-1.66654e-01,-3.88245e-02,-2.65025e-01,-4.52193e-02,2.03541e-01,-2.16100e-01,
6.98513e-01,8.49318e-02,-2.60817e-01,9.53684e-01,-1.27619e-01,1.57768e-01,-4.70229e-01,6.48307e-01,-2.99333e-01,-9.81181e-02,-3.83786e-01,-1.46313e-01,5.67989e-01,-7.02840e-02,-2.61856e-01,
3.61030e-01,3.24242e-02,2.81295e-01,-3.45304e-01,4.22035e-01,5.53469e-01,7.22218e-01,-2.80557e-01,-5.49168e-02,-2.55614e-01,-5.58555e-01,-1.89057e-01,-8.40220e-02,-9.70340e-02,-1.41276e-01,
2.81688e-01,-2.99394e-01,-1.46696e-01,3.06555e-01,9.40219e-02,2.30440e-01,3.82492e-01,-3.56610e-01,-2.45566e-01,3.09090e-01,2.33490e-01,2.68508e-01,-3.24595e-01,-3.18968e-01,-3.31829e-01,
-7.32743e-01,3.24606e-01,2.40601e-01,-8.17979e-01,-3.04368e-01,1.64913e-01,3.34800e-02,-4.48612e-01,-3.55044e-01,-1.18767e-01,-8.38278e-01,-1.42535e-01,2.65269e-01,-4.05061e-01,-1.01972e+00,
4.01742e-01,-1.61742e-01,-3.41913e-01,-6.68274e-02,-2.49162e-01,-2.62736e-01,4.00982e-02,-3.36502e-01,7.05259e-02,-3.08549e-02,9.62337e-02,-3.87484e-01,2.08799e-01,-4.61345e-02,2.12999e-01,
-3.23268e-01,-1.93941e-01,-3.71828e-01,6.33903e-02,-2.84544e-01,1.47918e-01,2.59235e-01,-8.02414e-02,2.15714e-01,3.41479e-01,-2.96046e-01,-2.14256e-01,-1.64009e-01,1.82404e-01,-8.86959e-02,
-1.12555e-01,-3.74954e-01,-1.71160e-01,-2.50327e-01,-2.67858e-01,1.45615e-01,1.38860e-01,1.82177e-01,2.30764e-01,2.49978e-01,-3.75497e-01,-3.48698e-01,-1.91687e-01,2.65831e-01,1.09898e-01,
3.87416e-01,1.77074e-01,2.68542e-01,4.16399e-01,-2.87393e-01,8.86722e-02,1.60172e-02,4.46445e-01,4.01742e-01,1.45907e-01,6.96471e-01,8.64826e-03,-1.05464e-01,2.41672e-01,5.00463e-01,
-1.18194e+00,3.04914e-01,-8.95789e-02,6.34947e-01,2.58677e-01,-7.73786e-02,-7.71653e-01,6.12616e-01,-1.76476e-02,1.62672e-01,-2.04718e-01,4.71862e-01,-3.47271e-01,-2.60421e-01,-1.02488e-01,
-2.58276e-01,-1.01006e-03,-3.56938e-02,-8.07755e-01,4.34875e-01,3.22845e-01,2.26832e-01,-1.69321e-01,-1.67265e-01,4.65087e-01,1.98902e-01,3.97529e-02,3.05197e-01,4.82928e-01,-2.16480e-01,
1.39344e-02,-2.98151e-01,3.90679e-01,3.32699e-01,2.11153e-01,-3.92668e-01,-5.21848e-02,2.82093e-01,3.17763e-01,-2.10510e-01,-3.48431e-01,-1.19055e-01,-2.00294e-01,3.18688e-01,1.64851e-01,
3.07462e-01,-3.57856e-01,-4.03673e-01,-1.04944e-01,3.66729e-01,3.69358e-01,1.61935e-01,-3.78352e-01,-1.12495e-01,-1.48744e-01,7.60171e-03,3.34050e-01,-1.31367e-01,-2.90809e-01,-3.50357e-01,
0.00000e+00,
-3.05264e-01,
1.90552e-02,
0.00000e+00,
0.00000e+00,
0.00000e+00,
0.00000e+00,
-1.53301e-01,
-2.22210e-01,
1.89889e-02,
0.00000e+00,
-1.00295e-01,
0.00000e+00,
0.00000e+00,
0.00000e+00,
-1.05602e-01,
-1.73108e-01,
3.46704e-01,
0.00000e+00,
0.00000e+00,
7.14754e-02,2.45077e-01,-1.35593e-01,1.95140e-01,1.90555e-01,3.79961e-01,-1.47354e-01,1.36898e-01,2.23127e-01,-5.01117e-02,-7.42743e-02,-3.56185e-01,-3.20875e-01,3.33727e-01,-7.17025e-02,-3.06195e-01,1.42238e-01,1.76056e-01,3.72788e-01,-3.12857e-01,
-2.04366e-02,-1.31122e-02,-1.75937e-02,-1.51004e-01,1.88163e-01,1.67767e-01,-1.91472e-02,9.91914e-02,3.32268e-01,-6.88496e-02,-1.01771e-01,2.17674e-01,1.76408e-01,1.32381e-01,3.08990e-01,8.87463e-02,3.15514e-01,-4.12773e-01,-1.68670e-01,-3.62116e-01,
3.45781e-01,-1.67715e-01,-2.21032e-01,1.68306e-01,-2.67922e-02,1.43685e-01,-2.19558e-01,6.10268e-02,-5.66188e-01,4.76912e-01,6.80183e-02,1.85397e-01,1.36323e-01,1.36307e-01,7.68060e-02,1.90724e-01,-4.02173e-01,2.52888e-01,-3.72800e-01,-3.86072e-01,
-2.87720e-01,7.29790e-02,1.34796e-01,-8.82767e-02,4.72216e-02,4.32746e-02,-1.75124e-01,-2.07320e-01,-9.17053e-02,2.41934e-01,-2.07807e-01,3.34364e-02,-3.22168e-01,1.48931e-01,2.25289e-02,-2.66240e-01,-2.12917e-01,3.82784e-02,6.98219e-02,3.03963e-01,
2.52660e-01,3.75906e-01,-2.53171e-01,8.62612e-02,2.12146e-01,-5.78307e-02,1.93333e-01,-3.17795e-01,1.34417e-01,-2.10415e-01,3.42915e-01,-7.13802e-02,1.45858e-01,-8.97461e-03,-2.43745e-01,-4.76750e-02,6.68868e-02,-3.52419e-01,-6.52948e-02,2.52129e-02,
-2.02771e-01,1.96214e-01,2.38346e-01,-1.38338e-01,2.72974e-01,2.13407e-01,2.69694e-01,4.65383e-02,2.39725e-02,2.88318e-01,-3.20376e-01,2.97533e-01,-6.63367e-02,-3.39546e-01,-2.61335e-01,2.76670e-01,-1.46819e-02,2.46011e-01,3.08065e-01,3.03662e-01,
2.58454e-01,-7.92270e-02,4.70346e-01,2.74369e-01,-2.40134e-01,1.65236e-01,1.58099e-01,-1.98850e-01,-5.53121e-01,3.15154e-01,-9.00110e-02,2.34370e-01,-1.90469e-01,2.62554e-01,6.74999e-02,-2.75161e-02,-4.67348e-01,1.87869e-01,-1.11858e-01,2.68257e-01,
-3.75254e-01,5.42609e-01,-2.51073e-01,-1.02042e-02,3.54010e-01,-3.44564e-01,3.06295e-01,-1.75886e-01,4.80621e-01,-4.03895e-01,2.50758e-01,1.00866e-01,-7.84549e-03,5.69932e-02,-2.49206e-01,1.83537e-01,4.80004e-01,-3.47368e-01,-2.57406e-01,3.74274e-01,
-1.32162e-01,-3.01862e-01,1.53640e-01,-3.24856e-01,-5.13706e-02,-2.98654e-02,-9.50316e-02,8.83845e-02,-3.45864e-01,6.78062e-01,-8.11087e-02,-1.26237e-01,1.84039e-01,1.26058e-01,-7.89713e-02,3.43821e-01,-2.80231e-01,3.67743e-01,-5.57426e-02,1.35012e-01,
1.51464e-01,-1.40998e-01,9.51108e-02,-2.89687e-01,3.46391e-01,-4.12177e-02,2.70109e-01,-2.10297e-01,2.30385e-01,3.05690e-01,1.28769e-01,1.99088e-01,1.49748e-01,1.88687e-01,2.27151e-01,8.02587e-02,7.29883e-02,-1.09518e-01,3.68076e-01,8.90356e-02,
-1.42076e-01,4.50177e-02,4.43416e-01,-2.21739e-01,1.67563e-01,-6.98475e-02,-1.59418e-01,3.01353e-01,-5.63789e-02,4.02869e-01,1.45545e-01,-1.74791e-01,1.68961e-01,2.87060e-01,3.19424e-01,1.89514e-01,-1.64794e-01,2.38221e-01,-1.57133e-01,2.05846e-02,
-3.18056e-01,-3.99231e-01,3.34785e-02,2.35707e-01,-7.38927e-02,2.93718e-01,-2.89365e-01,5.89493e-02,-2.68068e-01,1.11006e-02,-1.73643e-01,-8.47057e-02,3.70441e-01,3.11357e-01,-2.56494e-01,2.73834e-01,-3.78106e-01,-5.57278e-01,-1.28587e-01,-5.38028e-02,
-3.55530e-01,1.52110e-01,2.18198e-01,2.23324e-01,3.00020e-01,-3.54855e-01,-2.00144e-01,-2.33032e-01,9.08571e-02,3.54072e-03,3.35900e-01,6.06275e-01,-1.12381e-01,-1.85403e-01,3.72415e-01,-3.54977e-01,6.98713e-02,-1.21569e-01,1.75325e-01,2.26086e-01,
-3.54431e-02,1.32549e-01,-4.23677e-01,-3.45109e-01,-3.24331e-01,-2.36463e-01,-3.09880e-01,-1.57059e-01,-6.18199e-01,4.17695e-01,-1.22032e-01,2.44022e-01,-3.84956e-01,-1.46076e-01,2.16598e-01,-1.39353e-01,3.11237e-01,4.86030e-01,3.21486e-01,3.14340e-01,
3.40784e-01,-4.11734e-01,1.09394e-01,-2.41301e-01,-2.52510e-01,-2.69198e-01,2.02740e-01,-6.14296e-01,-1.32233e-01,-5.97047e-01,-7.76878e-03,7.82967e-02,2.93576e-01,3.76160e-01,-2.22967e-01,3.51226e-02,4.56322e-01,-5.56099e-02,1.20909e-01,3.27378e-01,
-1.62071e-01,-3.88202e-01,5.64042e-01,2.18171e-01,-2.17403e-01,3.29046e-01,-2.61997e-02,2.94684e-01,1.55475e-02,-2.55215e-02,1.62163e-01,-8.22734e-02,2.43488e-02,3.25905e-01,-4.02129e-03,2.69958e-01,-4.76386e-02,-1.02029e-01,3.25912e-02,-1.71042e-01,
-1.75651e-01,1.63587e-01,-3.81617e-01,2.22902e-01,-1.68966e-01,3.01984e-01,3.80513e-01,5.75617e-03,2.32293e-01,3.09808e-01,-1.67502e-01,-3.88629e-01,-3.31394e-01,-3.56417e-01,-2.48634e-01,-2.26852e-01,3.16481e-01,-2.77004e-01,-2.15597e-01,-2.79722e-01,
-5.31864e-03,-7.37487e-02,-1.95426e-01,1.06257e-01,2.04489e-01,-5.09455e-02,-2.07815e-01,-1.40273e-01,2.58503e-01,-1.21107e-01,2.92660e-02,-2.96841e-01,8.21829e-03,2.57375e-02,-2.59410e-01,-2.46702e-01,-5.85594e-02,-3.61566e-01,-2.18631e-01,3.36927e-01,
-3.25130e-01,3.99440e-01,-4.91013e-02,-1.93261e-01,-4.96351e-02,3.71174e-01,2.71212e-01,5.45934e-02,6.91858e-02,-4.47883e-01,-6.43555e-02,-5.54961e-01,-4.83773e-02,3.51606e-01,-2.60260e-01,2.68624e-01,3.33104e-01,-9.91101e-02,1.88870e-01,2.33539e-01,
1.39209e-01,7.11355e-01,-2.76515e-01,2.42132e-02,3.24707e-01,-2.07757e-01,-2.14753e-03,-5.52001e-03,2.29577e-01,4.28638e-01,-2.06894e-01,1.02835e-01,-3.52934e-01,-1.36422e-01,1.24959e-01,1.51093e-02,3.24702e-01,-4.42671e-01,-3.05678e-01,-3.11396e-01,
-4.45845e-02,
-1.87894e-01,
-2.23783e-02,
0.00000e+00,
0.00000e+00,
1.83130e-01,
-2.52967e-02,
-1.95108e-01,
2.77407e-01,
-3.19964e-02,
-2.14402e-01,
-7.24575e-02,
3.86118e-02,
2.73306e-01,
2.60935e-01,
4.85279e-02,
-6.14723e-02,
0.00000e+00,
-6.68293e-02,
-2.78375e-01,
2.20135e-01,2.65317e-01,-2.96691e-01,2.11330e-01,-4.46135e-01,3.91694e-01,3.32895e-01,-3.14441e-01,-3.94133e-01,-4.18005e-01,-4.28203e-01,-1.89623e-01,4.00383e-01,-5.44794e-02,-3.10786e-01,-2.31912e-01,-1.08192e-01,2.31473e-01,4.34120e-01,-4.23820e-01,
-3.01969e-01,-2.37709e-02,-1.98133e-01,-3.14320e-01,3.43206e-01,2.87702e-02,7.64027e-01,-1.01686e-01,3.43563e-01,-1.13890e-01,-3.56891e-02,-1.87438e-01,-1.84378e-01,8.04044e-01,5.34804e-01,-1.17935e-01,6.37322e-02,2.41628e-01,5.51728e-01,1.40502e-01,
-1.02959e-01,-2.57167e-01,7.79148e-02,2.85028e-01,-6.72455e-02,-2.18937e-01,6.00337e-02,3.00264e-02,-1.01526e-01,-6.19266e-02,-2.94209e-01,2.67692e-01,2.05854e-02,-1.81012e-01,-2.29340e-01,-2.86744e-02,-1.41539e-02,-3.66100e-01,-2.36158e-01,-2.23874e-01,
-1.94090e-01,-4.89863e-01,-1.56791e-01,1.76971e-01,8.49092e-02,3.11261e-01,-1.39983e-01,4.59305e-01,-5.18650e-01,-1.39377e-02,-2.01159e-01,1.28501e-01,-2.29948e-01,1.22165e+00,3.88611e-01,-1.94449e-01,4.73004e-01,-3.07291e-01,7.12570e-01,1.36807e-01,
-1.00814e-01,-1.15462e-01,-2.72509e-01,8.67833e-02,1.53893e-01,-1.73506e-01,4.21501e-02,2.43712e-01,-1.27828e-01,-2.99944e-01,-1.60080e-01,3.66920e-01,2.21361e-01,-3.36662e-02,-3.79488e-01,-3.68010e-01,-4.19860e-01,-1.74265e-01,4.13424e-01,-7.85117e-02,
-4.36355e-01,1.08416e-01,-2.04690e-01,-9.23535e-03,-2.70017e-01,-3.48515e-02,-3.38161e-01,-5.19553e-02,-3.22842e-01,-3.54238e-01,-4.08204e-02,3.38588e-02,-1.39004e-01,-3.37104e-01,3.78840e-01,-4.44573e-01,-3.75307e-02,2.86617e-01,-1.60635e-01,-4.26451e-01,
6.40692e-02,2.59934e-01,-4.55359e-01,1.94443e-02,-2.90656e-01,2.14182e-01,-5.38621e-01,-1.30500e-01,2.39474e-02,-1.74063e-01,3.51186e-01,-3.84848e-02,-1.37988e-02,-7.94078e-01,-7.59080e-01,8.90068e-02,3.20975e-01,1.74469e-01,5.87596e-01,4.36993e-01,
9.80308e-02,4.53895e-01,8.51181e-01,2.92980e-01,-7.06362e-02,-1.33688e-01,8.13276e-01,3.53511e-01,-3.20195e-01,-1.92162e-01,-2.37301e-02,-4.25888e-01,1.24715e+00,-6.67436e-01,6.91099e-01,4.61298e-01,-1.92655e-01,2.33031e-01,9.10572e-01,-6.63546e-01,
2.81206e-01,-3.50515e-01,2.91257e-02,2.27730e-01,-3.51677e-01,-8.65458e-02,3.09207e-01,1.84881e-01,-1.32435e-01,-5.98864e-02,2.80046e-01,1.12376e-01,-7.80587e-02,2.42076e-02,-1.33029e-01,-2.25971e-01,-2.74893e-01,-1.55194e-01,6.53732e-01,4.72073e-02,
2.94393e-01,-1.52129e-01,-9.63112e-01,4.33196e-01,-1.10156e-01,2.47097e-01,-8.51622e-01,-1.04646e+00,6.26450e-01,-9.03014e-02,2.71933e-01,2.60670e-01,-2.83836e-01,1.25280e-01,1.43812e+00,2.36941e-01,2.08079e-01,2.48095e-01,-9.20690e-01,-8.79179e-01,
0.00000e+00,
2.56392e-01,
0.00000e+00,
2.29553e-01,
0.00000e+00,
0.00000e+00,
-2.82234e-01,
5.53081e-02,
2.62973e-04,
3.75379e-01,
-1.66366e-02,-7.81639e-02,1.16865e-01,5.88286e-01,2.65236e-01,-4.91559e-01,-8.01394e-01,-6.42790e-01,3.42909e-01,9.32255e-01,
4.95564e-01,3.14872e-01,-1.31811e-01,6.42084e-02,1.04842e-01,3.54560e-01,-6.06985e-01,3.67193e-01,4.63969e-01,9.53179e-02,
3.92516e-01,-5.42296e-01,-6.78356e-02,4.28550e-01,-1.15928e-01,-4.12588e-01,6.77111e-02,3.97890e-01,2.93331e-01,1.39623e-01,
2.32231e-01,-8.24354e-01,2.15113e-01,-9.26347e-01,5.84273e-01,-4.12008e-01,8.23780e-01,-2.92084e-02,-2.75197e-01,-1.53880e+00,
2.48227e-01,7.24445e-01,-8.58229e-02,3.58801e-01,-6.28753e-02,-2.20045e-01,1.32317e-01,-2.87932e+00,3.67322e-01,-2.26939e+00,
-1.50443e-01,1.06713e-01,-1.73518e-01,2.46861e-01,-4.72009e-01,-3.93173e-01,-1.63493e-01,2.55114e-01,8.11530e-01,-1.51624e-01,
4.96255e-01,-3.58480e-01,1.32105e-01,-2.00822e-03,4.96890e-01,2.51288e-02,-1.44123e-02,4.55040e-01,-7.10794e-01,-3.33529e-01,
-1.25550e-01,
-2.25196e-01,
-4.41246e-01,
1.52813e-02,
6.14159e-01,
-3.12246e-01,
4.62728e-01,
