// Neural Network File Format by Kyle Julian, Stanford 2016
4,15,7,20,
15,10,20,10,7,
0,
0.0,16.0,1.456346,0.0,0.0,1.0,1.0,0.0,0.0,1.0,0.0,0.0,0.0,1.0,0.0,
1.0,47.7061,1.93,1.0,1.0,3.0,4.0,3.0,1.0,3.0,1.0,3.0,2.0,3.0,4.0,
0,0,0,0,0,0,0,0,0,0,0,0,0,0,0,0,
1,1,1,1,1,1,1,1,1,1,1,1,1,1,1,1,
-2.03541e-01,1.92728e-02,2.81507e-01,-5.80780e-01,-6.01652e-02,6.49245e-02,-4.46705e-02,-7.44274e-01,7.49350e-02,5.89615e-05,-4.45354e-01,6.84722e-02,-7.92290e-02,1.09341e-01,2.07180e-01,
-9.79460e-02,-1.57643e-01,1.76702e-01,1.11304e-01,5.03910e-02,1.64231e-01,-2.29575e-01,-1.88483e-01,-2.33429e-01,8.28541e-02,-6.81816e-02,3.66307e-02,-1.91991e-01,4.35011e-02,-2.36449e-01,
2.56834e-01,-1.13290e-01,-1.83590e-01,-6.57990e-02,-1.86306e-01,-2.14283e-01,1.39809e-01,-7.05498e-02,2.43566e-01,-6.28731e-02,-1.98517e-01,-2.18860e-01,2.00810e-01,-9.84495e-03,-1.00767e-01,
6.41235e-01,2.17833e-01,1.90784e-01,6.09884e-01,2.00492e-01,-1.78744e-01,-6.66808e-01,2.37219e-01,4.97175e-01,1.75953e-01,2.48490e-02,9.86189e-02,-5.75110e-02,1.38226e-01,-3.71844e-02,
-1.54071e-01,-1.98644e-01,1.55369e-01,-6.63968e-02,2.46654e-01,-1.47915e-01,-1.44402e-01,-1.87989e-01,1.13233e-01,-1.92749e-01,6.28563e-02,1.92698e-01,6.49397e-02,-2.47405e-01,-8.61299e-02,
-1.50904e+00,1.69284e-01,-1.63883e-01,-6.47723e-01,2.81618e-01,4.35779e-01,-3.34713e-02,1.88944e-01,-2.85019e-01,-6.87390e-02,6.25848e-01,-1.00009e-01,-1.46610e-01,-5.32892e-01,1.73449e-01,
-5.74849e-02,2.55065e-01,-4.36440e-01,6.76207e-01,-9.31381e-02,-1.74314e-01,-2.28029e-01,-2.03243e-01,3.03670e-01,-1.81328e-01,-3.58613e-01,-2.07442e-01,-2.36816e-01,-2.49567e-01,2.26304e-01,
1.88300e+00,6.99403e-02,3.49411e-01,-1.85738e-01,-3.89942e-01,-4.56746e-01,-2.82665e-02,-9.50639e-02,5.16258e-01,-9.17037e-02,6.05027e-01,-3.56479e-02,1.01688e-01,2.48334e-01,-1.12466e-01,
-1.84490e-01,-4.25589e-02,-9.56734e-02,-1.39866e-01,-2.34458e-01,-8.12959e-02,-2.32419e-01,-1.71875e-01,1.92895e-01,3.66869e-03,-2.28039e-01,-1.21105e-01,2.36256e-01,-2.10192e-01,-9.43733e-03,
4.25099e-03,-6.93075e-02,2.02195e-01,-1.36131e-01,2.23199e-01,-1.77911e-01,-1.24492e-01,9.59888e-02,-5.08366e-02,9.18230e-02,1.47068e-01,-1.18074e-01,-1.09205e-01,-2.11188e-01,-2.49094e-01,
2.80578e-01,
-1.31596e-01,
4.35312e-02,
2.94876e-01,
2.64290e-02,
-3.43315e-02,
-3.76579e-01,
3.78515e-01,
8.38211e-02,
-2.52149e-01,
-6.63038e-01,2.95215e-01,-3.92696e-03,2.50823e-01,-1.64512e-01,-4.98720e-01,3.98500e-02,6.08350e-01,2.52641e-01,1.20030e-01,
-9.67302e-01,-2.77130e-01,-1.73370e-01,4.58138e-01,2.05258e-01,-2.64094e-01,6.79516e-02,4.59069e-01,-1.66114e-01,1.57339e-01,
3.57284e-01,2.49126e-01,-1.37907e-01,-1.63755e-01,1.84585e-01,-1.46561e-02,1.47429e-01,-1.67169e-01,1.05270e-01,-1.51007e-01,
1.10638e+00,2.15360e-01,-2.79359e-01,-2.54762e-04,-2.49292e-01,1.85658e-01,2.97941e-03,3.34757e-01,-1.20003e-01,-1.73401e-01,
-1.55290e+00,2.97469e-02,1.80310e-02,-7.67440e-02,1.41209e-01,4.14753e-01,1.67036e-01,-7.85975e-01,1.28780e-01,1.79324e-01,
-9.09074e-02,2.64842e-01,-1.37537e-01,2.78975e-01,2.49987e-01,6.05759e-01,2.41563e-01,3.36027e-01,-2.65492e-01,2.21591e-01,
1.66878e-01,-1.26599e-01,-2.77701e-01,-6.80888e-02,-8.21658e-03,5.21942e-01,2.96865e-01,-8.03584e-01,-1.73873e-02,-1.15261e-01,
1.08051e-02,-8.65332e-02,-2.82342e-01,5.84061e-02,6.89707e-02,-2.05012e-01,-5.57605e-02,-1.80285e-01,-1.54923e-02,-3.54389e-02,
-4.76964e-01,1.93673e-01,1.16476e-01,2.86478e-01,-2.16118e-01,4.65312e-01,-2.57061e-01,-7.58674e-01,3.57720e-02,1.32070e-01,
1.23048e+00,2.19205e-01,-3.03743e-01,-2.28713e-01,-6.81494e-02,2.80595e-01,-2.06143e-01,4.17507e-01,-1.72419e-01,1.58988e-01,
-2.23554e-01,1.68493e-01,-6.58956e-02,-2.77024e-01,2.36463e-01,-7.32889e-02,2.29542e-02,1.55000e-01,-2.65244e-01,3.00573e-01,
1.71802e-01,-1.86823e-01,8.22105e-02,-2.68781e-01,2.28708e-01,-4.04691e-02,1.75426e-01,-1.26967e-01,2.39753e-01,3.07378e-01,
-2.97805e-01,1.72564e-01,7.56182e-02,-3.07183e-01,2.83064e-01,-8.04738e-02,6.90717e-02,7.06207e-02,7.25022e-02,7.61805e-02,
3.03151e-01,-1.14213e-01,2.52243e-01,-2.60058e-01,-1.41378e-01,-2.62160e-01,3.21465e-02,-1.04890e-01,1.19292e-02,-1.98916e-02,
-1.03906e+00,8.84436e-02,1.00352e-01,2.01853e-01,-3.16416e-02,3.25115e-01,6.37631e-01,1.34600e-01,-1.71118e-01,6.11205e-02,
-5.97327e-01,3.08900e-01,9.20358e-02,2.62206e-01,-4.38653e-03,8.14405e-02,3.38686e-01,-3.95417e-01,-3.73531e-02,1.18458e-01,
1.36803e+00,-1.01267e-02,1.19230e-01,1.48135e-01,2.28677e-01,-7.45565e-02,-2.31554e-01,4.20557e-01,1.13805e-01,2.82311e-01,
5.24106e-01,-1.22353e-01,-6.01279e-02,-3.36054e-02,-2.53547e-02,-4.19467e-01,-1.28850e-01,1.89610e-01,1.83763e-01,1.35961e-01,
2.94614e-01,-1.14394e-01,2.68440e-01,-2.21707e-01,2.95765e-01,-3.15550e-01,2.05879e-01,-2.82668e-01,2.81361e-01,2.25405e-01,
8.21899e-01,9.96674e-02,-3.10659e-01,6.20678e-02,8.39191e-03,-3.57682e-02,-4.79497e-01,3.05552e-01,9.78192e-02,-1.58346e-01,
3.58665e-01,
-2.16367e-01,
1.47391e-02,
6.79599e-02,
1.84066e-02,
-4.31357e-02,
-1.88042e-01,
1.58388e-01,
5.99699e-02,
4.67526e-01,
2.72346e-01,
-1.38558e-01,
-7.49325e-02,
-3.37520e-02,
6.38250e-02,
-3.04099e-01,
5.29780e-01,
-3.66828e-01,
-8.38994e-02,
6.67481e-01,
1.16221e-01,3.25900e-01,1.48695e-01,-2.94225e-01,8.48185e-01,1.09374e-02,2.32535e-01,1.87652e-01,5.71158e-01,-3.95123e-01,1.17298e-01,1.92897e-01,1.68245e-01,1.41071e-01,-5.10651e-02,2.08589e-01,-3.98572e-01,-1.35621e-01,1.90295e-01,3.02179e-01,
6.91368e-03,-6.92551e-02,1.14462e-01,-1.07728e-01,-2.04522e-01,8.39902e-02,-1.74715e-01,1.38092e-01,1.94115e-01,8.51575e-02,-9.82463e-02,2.07651e-01,-1.15231e-01,1.15718e-01,-2.22324e-01,7.49006e-02,-1.54478e-01,2.81626e-02,-1.35250e-02,8.25714e-02,
7.99804e-01,6.88570e-01,6.01947e-02,-1.78677e-01,-4.60906e-01,2.65283e-02,-4.61768e-01,-7.20235e-02,-3.78607e-01,-1.31762e+00,-2.11263e-01,9.57739e-02,1.14701e-02,2.02790e-01,3.26628e-01,7.13589e-02,-2.21467e-03,-4.65017e-01,-1.69505e-02,-1.21478e+00,
1.13584e+00,5.59189e-01,-6.35700e-02,3.96417e-01,-5.77469e-01,3.03144e-01,-6.04165e-01,1.87115e-01,-4.01999e-01,1.13295e+00,-9.68045e-02,-1.39113e-01,-8.32305e-02,-1.75398e-01,1.19145e-01,-2.21992e-01,8.74906e-01,6.41494e-01,-1.44698e-01,8.15372e-01,
-7.85711e-01,-4.15585e-01,-2.94533e-01,-2.23577e-02,5.05544e-01,2.84805e-01,8.14974e-01,-3.51107e-02,5.24459e-01,1.22846e-01,9.84699e-02,1.36003e-01,-3.08403e-02,7.50399e-02,2.65749e-01,4.62444e-01,-5.00639e-01,-1.29648e-01,-1.31982e-01,-2.03580e-01,
1.54656e-02,-3.05617e-02,2.00899e-01,7.04307e-02,-1.43930e-01,9.88100e-02,9.92767e-02,-4.85274e-02,9.28995e-02,-1.15278e-01,-1.63241e-01,1.55733e-01,1.44679e-01,1.62918e-01,-2.00315e-01,-1.65981e-01,-7.97250e-02,1.10259e-01,3.07792e-02,-3.09927e-02,
1.45202e-01,1.01176e-01,6.50926e-02,-2.18495e-01,-2.37959e-02,-1.29695e-01,-1.00322e-01,5.35736e-02,4.52307e-02,7.90318e-02,4.17440e-02,2.21655e-01,-1.18328e-01,2.17238e-01,-2.44224e-01,-2.19415e-01,-2.13372e-01,-2.12288e-01,-1.93803e-01,1.16083e-02,
2.26562e-02,9.96780e-02,1.37454e-01,-2.32826e-01,7.99502e-01,-1.98462e-02,3.57082e-01,-1.66906e-01,2.15258e-01,-5.93265e-01,1.15892e-01,-2.18200e-01,1.97046e-01,1.23214e-01,3.57441e-01,3.99226e-01,-6.47670e-01,1.71243e-01,-6.08912e-02,-7.99808e-01,
-6.01457e-02,-1.89472e-02,2.15655e-01,4.26286e-01,-2.34665e-01,1.90859e-01,3.85708e-01,-6.38319e-02,2.92487e-01,7.88988e-01,-1.02570e-01,-1.98001e-02,-8.87276e-02,1.22343e-01,8.34749e-02,-1.38121e-01,3.90927e-01,7.20170e-01,6.34288e-02,6.65321e-01,
4.75382e-02,3.61743e-01,-1.78834e-01,1.03701e-01,6.50049e-02,3.16803e-01,-7.12879e-01,7.83862e-02,-1.48706e-01,-2.19822e-01,1.70590e-02,-1.21924e-01,8.16615e-03,1.00401e-01,2.59468e-01,3.32154e-01,-3.40939e-01,2.82126e-01,6.60011e-03,-9.75933e-01,
-1.27647e-01,
-2.52404e-01,
1.52077e-01,
1.43512e-01,
6.62845e-02,
-9.17343e-02,
9.49585e-03,
-2.69611e-01,
1.50758e-01,
-1.70567e-01,
-7.21876e-01,2.58348e-01,3.09225e-01,9.97772e-02,6.08172e-01,2.29325e-01,-8.94967e-02,-1.10870e+00,2.75216e-01,-1.07719e+00,
-4.72582e-01,-1.23861e-01,-1.02923e-01,9.09329e-02,-2.92959e-02,1.12560e-01,-2.88084e-02,1.97158e-01,4.33266e-01,-2.11467e-01,
3.97509e-01,-1.44248e-01,3.00746e-01,7.49418e-02,-5.29044e-02,-2.03019e-01,-2.46188e-01,1.00004e-01,-2.67788e-01,6.97347e-02,
-4.27709e-01,6.27592e-02,6.63766e-01,-1.22968e-01,-8.75646e-01,5.31115e-02,2.54291e-01,1.63280e-01,-6.11145e-01,6.13957e-01,
3.15872e-01,2.49362e-01,-1.56173e+00,-1.91214e+00,6.67657e-01,-2.59782e-01,4.45283e-02,5.58192e-01,-7.92373e-01,-5.27590e-02,
2.73636e-01,-3.12084e-01,2.98876e-02,7.59658e-02,2.03790e-01,6.92663e-02,9.83679e-02,-3.53579e-01,7.29401e-02,2.27751e-01,
-2.90360e-01,-2.61469e-01,3.56028e-01,-4.63901e-02,-3.97803e-02,9.53385e-02,-6.16129e-02,1.58502e-01,-4.28138e-02,2.76692e-01,
5.18073e-01,
3.50359e-01,
4.59400e-02,
-6.09967e-01,
-2.81740e-01,
-5.36101e-02,
1.66437e-02,
