// Neural Network File Format by Kyle Julian, Stanford 2016
2,13,1,20,
13,20,1,
0,
-1000000,-1000000,-1000000,-1000000,-1000000,-1000000,-1000000,-1000000,-1000000,-1000000,-1000000,-1000000,-1000000,
1000000,1000000,1000000,1000000,1000000,1000000,1000000,1000000,1000000,1000000,1000000,1000000,1000000,
0,0,0,0,0,0,0,0,0,0,0,0,0,0,
1,1,1,1,1,1,1,1,1,1,1,1,1,1,
-1.70946e-01,-1.29064e-01,1.66326e-01,-2.98690e-01,-3.88197e-01,2.30226e-01,-3.66403e-01,2.16960e-01,2.25025e-01,2.17448e-01,3.73408e-01,-3.45081e-01,4.36634e-04,
8.67558e-02,-4.13282e-01,1.75297e-01,4.62080e-01,3.21457e-01,3.95215e-01,-8.98916e-02,-1.73183e-01,-5.75659e-01,1.66712e-01,-1.22271e-01,-5.89136e-02,-3.46336e-01,
2.90477e-01,-9.40062e-02,1.34168e-01,6.12086e-02,-2.25153e-01,1.28648e-01,-3.84278e-02,2.94917e-01,5.97568e-02,-1.52744e-01,3.73579e-01,-4.57657e-01,-1.12295e-01,
3.83997e-02,2.07603e-01,-1.21686e-01,2.44428e-01,1.68045e-02,-1.50353e-01,-1.32182e-01,8.29756e-02,-1.09983e-01,2.10586e-01,-4.94944e-01,6.03688e-01,2.84503e-01,
-1.44323e-01,3.10221e-02,3.94623e-01,-1.80054e-01,-1.58761e-02,2.70647e-01,2.13708e-02,8.18622e-02,-2.48053e-01,5.34816e-02,1.14644e-01,-2.61255e-01,-2.70407e-01,
-3.97530e-01,-1.25766e-03,-3.66709e-01,-1.65275e-01,-1.61362e-01,3.91273e-01,1.69554e-01,1.36856e-01,3.03017e-01,-4.06512e-01,2.85388e-01,2.75708e-02,-1.10038e-01,
3.38215e-01,3.72518e-01,4.20671e-01,-2.74694e-01,-4.03632e-01,-2.19513e-01,1.19944e-01,3.91489e-01,3.01105e-01,9.36679e-02,2.53273e-01,3.00203e-01,8.95688e-02,
2.19458e-01,1.17742e-01,-5.29174e-01,-3.08835e-01,1.45345e-01,1.57630e-03,1.55065e-01,-1.94756e-01,1.58420e-01,2.13723e-01,-3.31860e-01,-1.62975e-01,2.40009e-01,
3.53230e-01,5.23444e-02,2.09160e-01,-2.12354e-01,1.04151e-01,1.21795e-01,1.38238e-01,-1.26211e-01,-2.21589e-01,2.00471e-01,-2.78315e-01,4.53051e-02,4.47665e-01,
8.81481e-03,-3.08960e-01,3.35288e-01,-3.10794e-01,-2.79302e-01,3.27632e-02,-3.94027e-01,1.20344e-01,4.09834e-01,-2.11641e-01,3.43441e-01,-3.98916e-01,2.96899e-01,
-2.78456e-01,1.36844e-01,-3.52508e-01,-8.12085e-02,1.20011e-01,1.95674e-01,2.81744e-01,4.15815e-01,1.83711e-01,3.42663e-01,-2.15134e-01,5.21842e-01,-1.27009e-01,
4.43817e-01,-1.20489e-01,4.62221e-01,-2.69337e-01,3.94340e-01,3.07929e-01,3.88581e-02,2.82996e-01,9.06235e-03,2.03840e-01,3.01978e-01,-1.91065e-01,1.11654e-01,
-3.53679e-01,-1.07700e-01,4.52415e-01,3.22957e-02,1.78666e-01,-1.80531e-01,3.55483e-01,2.53580e-01,-5.41924e-01,-4.37817e-01,4.34757e-01,-3.63340e-01,2.97497e-01,
2.87779e-01,4.37929e-04,-2.44602e-01,2.24161e-01,1.45035e-01,5.16357e-02,-2.32482e-01,-3.63752e-01,-1.17711e-02,3.59153e-01,1.71361e-01,-9.73777e-02,-6.75624e-02,
1.91369e-01,2.06630e-01,-9.65050e-02,2.56528e-01,2.27253e-01,-3.84216e-01,7.10574e-02,-3.50525e-01,6.64032e-01,-1.83078e-01,7.74677e-02,-5.88387e-02,4.05529e-01,
-1.65701e-01,1.91239e-01,1.79201e-01,-1.20131e-01,-5.26124e-02,-2.20383e-01,8.39618e-02,4.31122e-02,3.61940e-01,2.85025e-01,-3.21224e-01,3.20050e-02,1.05594e-01,
2.17505e-01,3.44590e-01,-1.30502e-01,-3.86421e-01,-3.41674e-02,-2.23132e-01,-3.99465e-01,-6.52900e-02,-3.22047e-01,3.07275e-01,3.35568e-01,1.48954e-01,3.13634e-01,
1.12262e-01,1.28926e-01,7.13560e-02,-1.33668e-01,-9.77607e-02,-1.19005e-01,-1.86182e-01,3.92021e-01,5.61205e-01,2.77127e-01,4.14501e-02,8.01416e-03,-2.75973e-01,
2.88982e-01,2.88781e-01,-1.53301e-02,2.92146e-03,-3.16246e-01,-3.75051e-02,-2.36043e-01,-8.02506e-02,-2.06431e-01,3.92392e-01,-1.97989e-01,2.83959e-01,1.43347e-01,
-7.92912e-02,1.49811e-01,-3.81637e-01,1.03372e-01,2.16603e-01,-2.35634e-01,-4.43496e-01,-2.00651e-01,1.09869e-01,2.60905e-01,1.90267e-01,6.41773e-02,4.77642e-01,
0.00000e+00,
7.70721e-03,
2.64965e-02,
-8.79507e-03,
0.00000e+00,
0.00000e+00,
0.00000e+00,
-5.29378e-03,
-1.96419e-02,
0.00000e+00,
-8.99363e-03,
6.99323e-03,
7.69643e-03,
1.23845e-02,
-8.96794e-03,
0.00000e+00,
0.00000e+00,
-1.05664e-02,
0.00000e+00,
-8.82468e-03,
3.02494e-01,2.56423e-01,1.89103e-01,-3.02656e-01,3.64790e-01,-2.78787e-01,3.11094e-01,-3.51971e-02,-1.27823e-01,-1.06672e-01,-4.57678e-01,1.62889e-01,3.80690e-01,-2.55038e-01,-1.19923e-01,-4.14178e-01,1.68430e-01,-3.23330e-01,1.20839e-01,-3.81757e-01,
8.36531e-03,
