// Neural Network File Format by Kyle Julian, Stanford 2016
2,13,1,50,
13,50,1,
0,
29,0,0,94,126,0,0,71,0,0,0,0,0,
77,1,3,200,594,1,2,202,1,6.2,2,4,3,
0,0,0,0,0,0,0,0,0,0,0,0,0,0,
1,1,1,1,1,1,1,1,1,1,1,1,1,1,
2.52455e-01,-5.95021e-03,1.51469e-01,-2.78080e-01,-2.63966e-01,-3.07804e-01,3.98173e-02,8.49652e-03,-2.79098e-01,3.98808e-02,-8.94819e-02,6.20665e-02,-2.96301e-01,
-1.65932e-01,-1.71061e-01,1.74184e-01,2.02308e-01,-3.08539e-01,1.46891e-01,2.08590e-01,-5.00019e-02,-4.14652e-02,-2.39092e-01,-1.55253e-01,1.01768e-01,3.03532e-01,
-1.49915e-01,-2.61427e-01,-1.78262e-01,2.36115e-02,-8.19838e-02,-1.40658e-01,8.94068e-02,-2.60566e-01,-2.39598e-01,-2.45773e-01,-1.12795e-01,-3.55336e-03,-1.47157e-02,
-1.62611e-01,8.10844e-02,-5.14270e-02,-2.44771e-01,-3.03116e-01,-4.46158e-02,-2.42593e-01,6.85893e-02,-3.07260e-01,2.35110e-01,-8.60914e-02,1.48949e-01,-3.35848e-02,
2.76950e-01,-3.41206e-01,3.79620e-01,-3.03952e-01,1.91633e-01,4.09996e-03,2.45710e-01,1.09270e-01,-1.36165e-01,-3.92364e-01,9.96667e-02,-1.70375e-01,-2.93592e-01,
-2.54858e-01,-7.43322e-02,-3.80479e-01,3.02386e-01,7.42449e-02,2.63679e-01,-8.94008e-02,-7.90636e-02,3.46372e-01,1.85688e-02,-3.11890e-02,2.10868e-01,2.23268e-01,
1.36194e-01,1.35264e-01,1.88409e-01,1.26755e-01,-1.69526e-02,-4.50710e-02,3.48303e-02,2.73301e-01,4.49609e-01,3.29936e-01,1.00104e-01,5.54750e-02,-3.54689e-02,
-8.88414e-02,1.94265e-01,-3.05908e-01,-2.62060e-01,1.95957e-02,3.06929e-01,8.82584e-02,-1.62210e-01,1.89944e-01,-7.01643e-02,2.92434e-01,-1.53056e-01,-1.08856e-01,
2.37688e-01,-2.44244e-01,-1.88153e-01,-1.45248e-01,-8.02006e-02,1.21787e-01,6.65162e-02,-7.70308e-02,1.96536e-01,-1.69519e-01,3.06596e-01,-1.92224e-01,4.61743e-02,
9.27204e-02,-1.87450e-01,-2.56614e-01,-2.77880e-01,-2.94316e-02,-2.02261e-01,1.76495e-02,-7.38992e-02,-1.64130e-03,-1.90171e-01,-1.00173e-01,2.28738e-01,-1.37079e-01,
4.68843e-03,2.23231e-01,-8.85372e-03,-2.08743e-01,3.10306e-01,2.63703e-01,-1.89705e-01,7.82361e-02,3.84342e-01,1.17810e-01,-2.68545e-01,3.07482e-01,2.03515e-01,
4.50719e-02,-2.19729e-01,1.10353e-01,6.73617e-02,-1.15587e-01,5.12969e-02,3.63979e-02,-3.86095e-02,-2.31749e-02,2.68760e-01,2.18150e-03,-4.91818e-02,-9.21472e-02,
1.40674e-01,-4.02730e-01,-5.37028e-02,-2.13146e-01,1.36420e-01,2.60529e-03,-2.21965e-02,-2.53170e-01,2.33754e-01,2.18702e-01,5.93416e-02,4.79200e-02,4.50107e-02,
-2.62386e-01,2.72620e-01,2.64032e-01,1.87325e-01,-1.29940e-01,-2.85153e-01,2.13864e-01,-1.72594e-01,2.87431e-01,-1.46511e-01,-1.26493e-01,2.53381e-01,2.57375e-01,
-2.38590e-01,3.84692e-01,-2.68905e-01,-7.14010e-02,1.61661e-01,3.45276e-01,1.37678e-01,-1.47404e-01,-8.12756e-02,2.48846e-01,2.70469e-01,3.06657e-01,3.42961e-01,
3.25451e-02,8.63197e-02,1.16363e-01,3.76468e-02,4.69975e-02,-2.37933e-01,2.76919e-01,-2.56868e-01,2.37495e-01,-3.10723e-02,-2.48783e-01,2.43341e-01,1.41328e-01,
2.80921e-01,-1.21814e-02,6.72595e-03,-1.46650e-01,-7.18031e-02,-6.04065e-02,-3.46511e-01,1.98260e-01,2.75299e-01,-5.58373e-02,7.42871e-02,2.24874e-01,-1.82099e-01,
-2.48580e-01,1.71480e-02,2.33769e-01,-8.76181e-02,-2.17284e-01,-2.00383e-01,-5.09278e-02,4.25807e-02,-8.63629e-02,6.88746e-02,1.87744e-01,1.93858e-01,-1.81695e-01,
-2.94733e-01,-1.15056e-01,1.07099e-01,-6.79278e-02,2.45201e-01,2.85470e-01,-4.48236e-02,2.85133e-01,1.67904e-01,9.87658e-02,2.45928e-01,6.85042e-02,2.34571e-01,
6.72676e-02,-6.01875e-02,1.98773e-01,-1.60438e-01,5.65010e-02,2.96935e-01,-2.84308e-01,-1.24340e-01,-2.12649e-01,1.43367e-01,-9.26838e-02,-1.73390e-01,3.11471e-02,
1.99780e-01,-4.20288e-02,5.29076e-02,5.51083e-02,1.24496e-01,-2.34397e-01,-5.42622e-02,2.75392e-01,3.77095e-01,4.08662e-01,-9.01537e-02,1.20772e-01,-1.85761e-01,
1.50297e-01,-4.34916e-01,3.07971e-01,1.69371e-01,2.80952e-01,-2.47342e-01,-1.49466e-01,1.39172e-01,-3.30338e-01,-6.48544e-02,2.63435e-01,-3.41439e-01,-1.00055e-01,
-7.48515e-04,4.94161e-02,2.74435e-01,1.95704e-01,-1.83468e-01,-1.27153e-01,1.34502e-01,-4.47176e-02,2.55912e-01,9.40810e-02,3.02348e-01,1.26104e-01,-1.32204e-01,
-1.34401e-01,-2.96323e-03,3.60015e-01,-2.15935e-01,1.48016e-01,2.65846e-01,1.83746e-01,2.12518e-01,6.99360e-02,-4.55806e-01,2.88942e-01,-2.26116e-01,-1.08753e-01,
9.12243e-02,-3.92138e-01,3.82206e-01,-2.58977e-01,1.78097e-02,2.41733e-01,6.39351e-02,3.03720e-01,2.07618e-04,-2.09459e-01,7.37199e-02,-4.26558e-02,2.34468e-01,
2.56503e-01,9.30346e-02,4.85396e-02,-1.54342e-01,1.75093e-01,2.24729e-01,1.65200e-01,-1.88317e-01,2.11025e-02,-8.97227e-02,1.50907e-01,2.83750e-01,2.44476e-01,
2.77114e-01,3.61702e-02,2.04800e-01,1.58763e-01,-3.94089e-02,-2.38974e-01,-8.26275e-03,1.12937e-01,-4.61892e-01,-4.26615e-01,-3.10744e-02,-2.77964e-01,-3.22320e-01,
1.78899e-01,2.02052e-01,1.82155e-01,1.72637e-01,-2.39891e-01,-2.82266e-02,-1.06043e-02,4.77857e-02,4.08381e-01,-2.39437e-01,9.86396e-02,3.06712e-02,-2.29711e-01,
-2.25475e-01,6.70631e-02,-3.27942e-01,2.31397e-01,2.17883e-01,-2.31048e-01,5.12450e-02,-3.35958e-01,1.94316e-01,-1.67059e-01,-1.78365e-01,-8.10128e-02,-1.91405e-01,
-1.62030e-01,4.65163e-01,-3.41865e-02,-2.44854e-01,3.00642e-01,-2.50419e-02,1.08165e-01,5.38635e-02,2.46067e-01,-1.02819e-01,-2.14286e-01,4.27799e-01,1.76886e-01,
-1.27706e-01,6.56553e-02,2.06537e-01,-6.46303e-02,-1.32054e-01,-1.92166e-01,1.26523e-01,2.66874e-01,1.49004e-01,-8.65253e-02,1.66569e-01,8.00637e-02,-3.06129e-01,
1.82223e-01,3.05688e-01,-3.74460e-01,4.15462e-02,2.21636e-01,-5.91157e-03,-3.96194e-01,-1.52915e-01,-3.40814e-02,1.37103e-01,-3.13932e-01,3.53924e-02,3.10605e-01,
-5.56901e-02,-2.45008e-01,2.38039e-01,-3.61169e-02,-4.86111e-02,-8.28645e-02,2.06602e-01,-2.31545e-01,-1.09067e-01,2.67083e-01,9.88481e-02,-1.82245e-01,1.83655e-01,
-2.11155e-01,2.25674e-02,1.47184e-01,-5.99037e-03,2.96268e-01,3.20526e-01,8.47163e-02,-9.64006e-02,-3.67146e-03,-4.06113e-02,2.21801e-01,-2.60813e-02,-1.31050e-01,
1.88140e-01,-3.47903e-01,2.94325e-01,3.96645e-02,2.59684e-01,-1.97999e-01,4.27960e-02,-2.49930e-01,2.54528e-02,-4.08082e-02,2.80524e-01,-3.01928e-01,-3.29027e-01,
3.21965e-02,1.90668e-01,1.64780e-01,2.77013e-01,-2.35928e-01,8.64807e-02,-1.77083e-01,2.11890e-01,2.08508e-01,-6.09702e-02,-2.27313e-01,4.13757e-01,-2.89751e-02,
2.33191e-01,2.34827e-01,-2.22529e-01,-7.60314e-02,-1.14914e-02,4.12961e-02,-1.53971e-01,2.76811e-02,4.54694e-02,-3.19222e-02,-1.69558e-02,-1.02453e-01,-2.18874e-01,
-2.11322e-01,-2.08166e-01,-7.98742e-02,-8.47593e-02,9.44860e-02,-1.19601e-01,-4.13898e-02,-3.91428e-02,1.93049e-02,1.55214e-01,1.79677e-01,-2.61662e-01,-1.90323e-02,
-1.99195e-01,-1.38126e-01,-1.34956e-01,-3.05424e-01,2.07817e-01,1.29783e-01,-2.62550e-01,-5.13494e-02,-3.82077e-01,8.72604e-02,-1.50407e-01,2.03427e-01,1.45015e-01,
1.31003e-01,8.90682e-02,1.10195e-02,-2.06114e-01,1.21057e-01,2.76636e-01,2.22925e-01,-6.06574e-02,4.35406e-02,-5.61400e-02,1.32001e-01,-1.24600e-01,1.56528e-01,
9.99939e-02,-2.49362e-03,-2.74247e-01,6.55830e-02,-1.99212e-01,-1.81879e-01,-3.03909e-01,-2.50213e-01,-1.32190e-01,4.21662e-02,-1.22008e-01,1.38887e-01,-3.04443e-01,
-7.43078e-02,-8.24357e-02,-8.45740e-02,-3.06542e-01,-1.05674e-01,2.54528e-01,7.39473e-02,-2.68968e-01,2.05018e-01,-2.39583e-02,-1.13738e-01,1.15250e-01,-2.53059e-01,
2.05054e-01,9.51954e-02,-8.02833e-02,-1.66643e-01,-1.43472e-01,1.94640e-01,-2.86211e-01,1.70901e-01,-1.81698e-01,6.29562e-02,7.74425e-02,-1.89066e-01,-3.15604e-01,
-2.43631e-02,-2.97537e-01,-2.00893e-02,2.35455e-01,1.65549e-01,1.94205e-01,3.57062e-01,2.46484e-01,-3.51129e-01,-2.04638e-01,3.61668e-01,-3.25712e-01,1.15083e-01,
-1.92830e-01,2.53600e-01,-3.69990e-01,1.55699e-01,-7.51581e-02,7.61695e-02,-2.63380e-01,1.19193e-01,3.52856e-01,3.03139e-01,2.50782e-01,2.55753e-01,2.63372e-01,
-6.11248e-02,7.79956e-02,-7.93185e-02,-8.78161e-03,1.90362e-01,-1.03323e-01,1.56155e-01,5.63180e-02,-5.81314e-02,-3.55166e-01,-1.13452e-01,-3.16530e-01,-2.65159e-01,
1.07680e-02,-9.90861e-02,2.02551e-01,6.40700e-02,-6.59245e-02,2.78580e-01,-2.02624e-01,-5.09008e-02,1.94359e-01,-3.98716e-02,1.42235e-01,2.91937e-01,-1.47774e-01,
4.36536e-02,3.87064e-01,-3.20099e-01,-9.16251e-02,-3.31715e-02,-2.84816e-02,3.81172e-02,1.54727e-01,4.57645e-01,3.65788e-01,-2.77354e-01,2.08427e-01,1.99811e-01,
-1.98651e-02,-3.44911e-01,2.79012e-01,2.18267e-02,-1.26524e-01,-1.19745e-01,-8.32804e-02,2.25647e-01,-4.98016e-01,-2.64228e-01,3.23041e-01,5.47521e-02,2.09267e-01,
1.86883e-01,1.65830e-01,8.28478e-02,8.10232e-02,-3.76418e-02,-2.65952e-01,-8.29282e-02,-2.54906e-01,8.95677e-02,5.20824e-02,1.54135e-01,-1.24292e-01,-1.34743e-01,
0.00000e+00,
0.00000e+00,
0.00000e+00,
0.00000e+00,
-3.10225e-03,
1.72018e-03,
1.88214e-04,
0.00000e+00,
0.00000e+00,
0.00000e+00,
2.21851e-03,
0.00000e+00,
-3.20060e-03,
0.00000e+00,
2.77826e-02,
0.00000e+00,
-6.89750e-03,
0.00000e+00,
2.22726e-03,
-6.82059e-03,
1.96799e-03,
-3.09203e-03,
0.00000e+00,
-3.19960e-03,
2.47613e-03,
1.01135e-02,
-6.15995e-03,
-2.23884e-02,
-3.14046e-02,
1.65811e-03,
2.40387e-04,
2.25840e-03,
0.00000e+00,
-3.06445e-03,
-3.03656e-03,
-3.52585e-03,
1.57014e-03,
-2.42766e-02,
-3.46779e-02,
-3.77958e-03,
0.00000e+00,
0.00000e+00,
-2.01490e-02,
-3.75515e-03,
4.24745e-03,
-1.65537e-02,
0.00000e+00,
-3.86163e-03,
1.62379e-02,
0.00000e+00,
2.08050e-01,-2.50424e-02,1.19654e-01,-1.68294e-01,2.50213e-01,-1.30886e-01,-5.02856e-02,1.32612e-01,1.54285e-01,-1.58202e-01,-2.95895e-01,2.88343e-01,7.90062e-02,3.25615e-01,-2.81539e-01,3.26300e-01,-1.55777e-01,-1.93114e-01,-2.98478e-01,-3.00431e-02,-1.88662e-01,2.73154e-01,3.29510e-01,2.06549e-01,3.16071e-01,-2.59605e-01,3.82892e-02,-2.49221e-01,1.39925e-03,-1.23846e-01,3.16655e-01,-3.31786e-01,-6.59808e-02,2.73076e-01,2.91725e-01,-3.18435e-02,-2.23400e-01,1.62336e-01,2.44770e-01,-7.17725e-02,1.40792e-01,-9.08705e-02,-3.01061e-01,1.12843e-01,-1.73507e-01,8.34318e-03,-9.41070e-02,-2.39507e-01,2.16982e-01,2.82322e-01,
-2.63529e-03,
