// Neural Network File Format by Kyle Julian, Stanford 2016
3,100,10,100,
100,50,10,10,
0,
0,0,0,0,0,0,0,0,0,0,0,0,0,0,0,0,0,0,0,0,0,0,0,0,0,0,0,0,0,0,0,0,0,0,0,0,0,0,0,0,0,0,0,0,0,0,0,0,0,0,0,0,0,0,0,0,0,0,0,0,0,0,0,0,0,0,0,0,0,0,0,0,0,0,0,0,0,0,0,0,0,0,0,0,0,0,0,0,0,0,0,0,0,0,0,0,0,0,0,0,
255,255,255,255,255,255,255,255,255,255,255,255,255,255,255,255,255,255,255,255,255,255,255,255,255,255,255,255,255,255,255,255,255,255,255,255,255,255,255,255,255,255,255,255,255,255,255,255,255,255,255,255,255,255,255,255,255,255,255,255,255,255,255,255,255,255,255,255,255,255,255,255,255,255,255,255,255,255,255,255,255,255,255,255,255,255,255,255,255,255,255,255,255,255,255,255,255,255,255,255,
0,0,0,0,0,0,0,0,0,0,0,0,0,0,0,0,0,0,0,0,0,0,0,0,0,0,0,0,0,0,0,0,0,0,0,0,0,0,0,0,0,0,0,0,0,0,0,0,0,0,0,0,0,0,0,0,0,0,0,0,0,0,0,0,0,0,0,0,0,0,0,0,0,0,0,0,0,0,0,0,0,0,0,0,0,0,0,0,0,0,0,0,0,0,0,0,0,0,0,0,0,
1,1,1,1,1,1,1,1,1,1,1,1,1,1,1,1,1,1,1,1,1,1,1,1,1,1,1,1,1,1,1,1,1,1,1,1,1,1,1,1,1,1,1,1,1,1,1,1,1,1,1,1,1,1,1,1,1,1,1,1,1,1,1,1,1,1,1,1,1,1,1,1,1,1,1,1,1,1,1,1,1,1,1,1,1,1,1,1,1,1,1,1,1,1,1,1,1,1,1,1,1,
8.29812e-03,2.28765e-02,-4.25491e-01,-2.58905e-01,-4.58966e-01,-7.67994e-01,2.14563e-01,1.11812e+00,2.57554e-01,4.57310e-02,4.50016e-01,-3.42752e-01,-1.30481e-01,-8.13285e-02,-8.26981e-01,-8.31003e-01,-3.29002e-01,2.77927e-01,1.06722e-03,1.33578e-01,6.50563e-01,-4.86948e-02,4.72548e-02,1.81556e-01,-9.08516e-01,-6.17229e-01,-7.90226e-02,-4.30179e-02,3.46929e-01,-9.64249e-02,4.87945e-01,2.95100e-02,-7.44993e-03,1.41053e-01,-1.07997e+00,-1.90203e-01,1.74117e-01,1.23515e-01,7.30239e-02,6.87062e-02,5.30491e-01,1.13816e-01,1.17397e-01,-1.44945e-01,2.08747e-01,2.98737e-01,1.86075e-01,-1.73750e-01,1.23520e-01,4.35077e-01,2.69462e-01,2.47648e-01,5.05009e-02,-4.43634e-02,-6.85974e-03,1.11530e-02,-2.15703e-01,1.05723e-01,2.09211e-01,1.39937e-01,-5.77314e-01,-4.95574e-01,-1.08873e-01,7.32899e-02,-1.01615e-01,-3.33146e-01,9.06062e-02,1.18770e-01,1.95509e-01,2.07168e-01,-3.85574e-01,-1.01023e-01,-3.88832e-02,1.97817e-01,-2.30166e-01,-3.67742e-01,1.93730e-01,3.11168e-01,3.38500e-01,1.46996e-01,-9.33029e-02,1.16291e-01,1.00199e-01,2.88324e-01,-3.57443e-01,-3.87818e-01,-3.40405e-02,1.38587e-01,2.71454e-01,-8.57597e-01,4.86426e-02,-6.62742e-01,-2.10175e-01,1.61589e-01,-3.07649e-01,5.85334e-01,2.16266e-01,-6.40567e-01,-2.82453e-02,-2.62364e-01,
-5.45757e-01,-3.36215e-01,-8.43755e-01,-7.37318e-01,3.11106e-01,5.35472e-01,-6.79498e-01,5.03216e-02,-1.64402e-01,-1.00706e+00,-3.59314e-01,-3.71987e-01,-1.13524e+00,-4.97130e-01,1.02152e-01,1.34560e-01,-3.84055e-02,-7.58836e-02,3.33268e-01,-3.44431e-01,2.87088e-01,3.00907e-01,-1.86635e+00,-6.04756e-02,1.40122e-02,3.13958e-02,-6.39185e-01,-8.94683e-02,9.90006e-02,1.20737e-01,-4.92755e-01,2.24419e-01,-7.66128e-01,-3.58378e-01,4.38605e-01,-3.77098e-01,-2.18110e-01,1.43129e-01,1.35774e-01,-3.51139e-02,-3.90974e-01,1.71745e-01,-1.13442e-01,9.61926e-02,3.42283e-01,-1.29875e-01,-4.38745e-02,-1.43475e-01,5.27789e-02,-8.28618e-01,1.68039e-01,-6.88507e-02,-1.87795e-02,1.21792e-01,5.72685e-02,-6.02604e-02,3.90569e-02,6.25585e-04,1.33112e-01,1.14811e-01,4.64221e-01,1.03889e-01,2.65315e-01,3.19888e-02,6.86573e-02,-9.49057e-02,2.10710e-01,3.23502e-02,-3.50957e-01,-4.51519e-01,7.66136e-01,-2.14629e-02,-6.62253e-02,-4.06879e-03,5.75776e-02,-6.04565e-02,-3.37743e-03,8.28270e-02,-3.50712e-02,-9.16139e-02,3.72197e-01,5.51258e-01,1.19596e-01,2.31871e-01,8.36009e-02,1.06373e-01,-1.79902e-02,1.86312e-01,-1.32090e-02,-1.58753e-01,-5.92458e-01,-7.18339e-01,-4.06733e-01,2.21369e-01,-9.24056e-02,-2.32526e-01,-4.96758e-01,-5.41228e-01,4.20184e-01,1.84234e-02,
6.40194e-01,1.20901e+00,-7.73608e-01,-3.79460e-01,2.41810e-01,-1.52994e-02,-3.54775e-01,1.50084e-02,-2.31789e-01,-1.93222e-01,1.03069e+00,1.11431e+00,2.77440e-01,3.43183e-02,2.02080e-01,-2.49962e-01,2.17243e-01,8.84785e-02,-3.04440e-01,5.85647e-01,-8.76953e-01,-1.12494e-01,1.98869e-01,-3.83904e-02,1.51176e-02,-1.04525e-01,4.90581e-02,-1.79156e-01,-1.29994e-01,7.81377e-01,3.03706e-01,-2.66052e-02,-4.06200e-02,1.29568e-01,8.73492e-03,-5.23805e-03,7.45229e-02,2.00669e-01,4.16936e-02,7.48088e-01,-3.96995e-02,3.87751e-01,3.22544e-01,9.99406e-02,-2.92468e-01,-2.77184e-01,1.22328e-01,5.48183e-02,9.21423e-02,-4.45285e-01,-2.73655e-01,1.72207e-01,-1.28958e-02,-3.53639e-02,2.70904e-02,-4.88167e-01,-9.48652e-02,1.62417e-01,1.58436e-01,6.23027e-01,1.57409e-01,-6.28583e-02,9.22581e-02,3.18587e-02,-2.77514e-02,-5.09256e-01,3.25355e-01,2.04145e-01,-2.14795e-01,9.11195e-02,-6.19192e-01,2.70073e-01,1.98685e-01,8.18936e-02,-5.27704e-02,-2.19850e-01,1.85952e-01,1.30305e-01,1.32270e-02,8.86758e-01,-1.28243e+00,-3.58398e-01,-2.25889e-01,-2.37167e-01,-2.03189e-01,3.49101e-01,8.92999e-02,2.20340e-01,1.41074e-01,8.22856e-01,8.25460e-01,-1.83867e-02,8.93826e-05,4.06054e-01,2.06267e-01,1.03427e-02,-3.71239e-01,3.31009e-01,5.80017e-01,2.81303e-01,
1.30429e-02,3.70157e-01,9.97171e-01,1.10837e+00,4.09559e-01,7.49685e-01,9.44142e-02,-4.29196e-01,-6.59770e-02,-8.42558e-02,-1.24042e-02,-4.03607e-01,-4.20117e-02,1.72300e-01,1.74031e-01,7.42879e-01,2.06275e-01,-5.10744e-01,2.60884e-01,-1.05307e-01,5.96557e-02,1.11304e-01,2.53510e-01,1.50346e-01,-4.59731e-02,-4.45292e-01,-9.85353e-01,-5.10704e-01,-9.14998e-01,-6.48772e-01,5.94979e-01,2.60180e-01,-5.57085e-02,9.68834e-02,7.46937e-02,-1.18057e-02,-9.02334e-02,2.55516e-01,2.39741e-01,1.37379e-01,6.94505e-01,-2.14834e-01,-1.37745e-01,2.24467e-01,-1.63615e-01,1.87183e-01,2.62950e-01,3.22888e-01,4.52969e-01,-2.92222e-02,-2.04464e-01,-5.90147e-02,6.42217e-02,-1.74692e-02,-2.91384e-01,-1.02116e-01,-2.36989e-01,-1.13665e-01,-1.28804e-01,-1.26268e-01,1.10456e+00,-6.09269e-02,-1.03586e-01,-2.07287e-01,-1.16839e-03,4.60412e-02,1.25849e-03,-1.21059e-01,-7.58089e-02,-7.01950e-02,1.22230e+00,-1.26362e-01,-9.91149e-03,8.68440e-03,-7.21959e-02,-8.06907e-02,-9.14824e-02,1.83306e-01,3.05576e-01,-5.95533e-01,-6.22595e-01,-1.56043e-01,-4.32685e-02,1.47924e-01,1.91715e-02,-1.25287e-01,1.58042e-02,-7.04493e-02,-1.24330e-01,-4.52038e-01,8.68168e-03,3.61883e-01,1.86772e-01,9.80831e-02,1.10097e-01,-2.55992e-01,-1.47458e-02,4.81924e-01,5.67683e-01,-2.69658e-01,
5.59032e-02,-9.84878e-01,1.26708e+00,5.16286e-01,9.43002e-01,1.11955e+00,4.37354e-01,-7.13470e-01,1.32087e+00,-5.75181e-01,-3.19038e-01,4.20549e-01,1.44081e-02,-2.03019e-01,3.12147e-01,1.24411e-01,1.56949e-01,3.90039e-01,1.75077e-01,-2.23607e-01,-1.47651e+00,-5.47515e-02,1.04457e-01,-2.07455e-01,-1.85130e-01,1.25169e-01,5.93540e-02,7.22611e-03,-2.72169e-02,2.82874e-01,-5.32208e-01,-6.08899e-01,7.23743e-02,8.85297e-02,-1.07339e-01,1.46014e-01,1.07533e-01,1.44204e-01,-2.99757e-01,-2.23758e-01,-1.85380e-01,1.32826e-01,-2.30890e-03,3.88647e-02,-1.95677e-02,2.53796e-01,3.71510e-01,-2.47058e-01,-6.20797e-01,3.56110e-01,4.26236e-01,-4.18117e-01,-3.19208e-02,-9.68487e-02,6.06304e-02,9.87290e-02,-2.33432e-01,-7.12475e-01,-2.33779e-01,3.06910e-02,5.80157e-02,-1.06505e-01,3.02062e-02,1.77396e-01,-1.08056e-01,-1.22990e-01,-3.01218e-01,9.83587e-02,1.06868e-01,4.03372e-01,-1.03526e+00,3.21892e-02,1.00743e-01,2.44539e-02,-1.19220e-01,-8.14430e-02,8.01259e-02,1.86008e-01,-1.75274e-01,6.22936e-01,-5.81867e-01,3.71791e-01,1.41823e-01,5.86457e-02,6.89617e-02,-4.99677e-02,-1.40410e-01,2.23515e-01,1.16620e-02,4.67907e-01,-9.43113e-01,-1.16499e+00,-6.54299e-01,-1.39206e-01,1.40223e-01,3.41807e-01,-4.18197e-01,7.76854e-02,-2.59759e-01,3.21045e-01,
7.90317e-01,4.64901e-01,5.18146e-01,9.47579e-01,4.44111e-01,-2.42760e-01,1.39211e-01,2.95312e-01,5.04485e-01,8.84750e-01,5.01866e-01,-2.95493e-01,-1.32473e-01,-5.53178e-02,-1.08031e-01,4.14532e-01,1.32950e-01,1.14696e-02,-1.83962e-01,-3.72219e-01,-3.98330e-02,3.96910e-02,-1.43946e-01,-1.70084e-01,4.75857e-02,-8.17370e-02,2.25795e-01,1.98514e-01,-1.25018e-01,1.61855e-01,-1.52381e-01,3.68455e-02,1.08579e-01,-4.30670e-02,-1.83005e-01,-3.52184e-02,-2.78014e-01,4.16095e-01,2.17421e-01,6.91552e-02,4.84375e-01,-2.94532e-01,-8.50724e-02,9.61952e-02,-1.62484e-02,-2.43813e-01,-6.90938e-01,-1.42456e-01,9.11640e-02,-1.53294e-01,2.04170e-01,1.30758e-01,4.12103e-01,3.15067e-02,-1.51732e-01,-3.86072e-01,5.89947e-02,1.49548e-01,-2.81874e-01,-1.92602e-01,4.42072e-02,-2.81621e-01,1.05930e-01,1.09395e-01,-5.14638e-01,-2.52400e-02,-1.17569e-03,1.85598e-01,2.45539e-01,-5.00004e-01,6.25646e-01,1.96219e-01,1.24722e-01,1.32158e-01,8.72269e-02,4.33642e-02,-7.47245e-02,-1.88303e-02,-1.47696e-01,-7.58645e-01,6.33478e-01,-4.85994e-01,3.53062e-01,1.81670e-01,-1.75872e-01,9.27113e-02,1.78433e-02,-1.33449e-01,-5.49609e-01,-2.72439e-01,-4.40384e-01,3.10561e-01,6.63800e-01,5.78689e-01,1.50933e-01,8.61421e-02,-1.13588e+00,6.43629e-02,-1.79687e-01,1.71136e-01,
5.57382e-01,6.10356e-01,-8.45198e-02,-8.61519e-01,-5.67829e-01,-4.26558e-01,2.84024e-01,-5.37829e-01,3.97621e-01,-6.62423e-01,5.10757e-01,-3.68578e-01,-7.85346e-02,1.88439e-01,1.06701e-01,2.86137e-01,-2.00717e-01,1.69712e-01,1.14196e-01,-3.89534e-01,-3.26330e-01,2.11323e-01,-1.11655e-01,3.21615e-01,1.27127e-01,-1.06131e-01,4.64437e-02,-1.79085e-01,3.47875e-01,5.99850e-01,8.97966e-02,2.83953e-01,-1.29401e-01,-3.32406e-02,1.27142e-01,2.10136e-01,9.76130e-02,1.97049e-01,3.29681e-01,4.14901e-02,2.68854e-01,5.43370e-01,-1.30763e-01,-2.95108e-01,3.35751e-02,2.96721e-01,-8.14457e-02,-8.73416e-02,-2.58476e-01,-3.32439e-01,-5.85180e-01,-6.04331e-02,7.93159e-02,3.90874e-01,-1.56147e-01,-2.88231e-01,1.31470e-01,9.24512e-02,-2.63156e-02,-4.30299e-01,-4.94046e-01,8.17983e-02,1.07533e-01,1.22143e-01,-2.93466e-01,-3.50040e-01,-1.95887e-01,-8.75387e-02,4.00609e-01,-2.60816e-01,-4.81269e-01,1.87598e-01,5.94191e-02,-3.36340e-01,-5.23663e-02,-9.23250e-02,-1.26010e-01,-2.01426e-02,-4.96336e-03,-1.07847e-01,3.17899e-01,-4.79590e-01,2.34600e-02,8.46860e-02,-7.93699e-02,-4.08562e-01,-8.70251e-03,2.36785e-02,-5.00895e-01,-3.75199e-01,6.44462e-01,2.52734e-01,1.74582e-01,-1.27054e-01,-4.16279e-01,-8.81735e-01,7.49895e-02,3.22019e-01,-5.63483e-01,-1.38787e-02,
4.24182e-01,9.43734e-01,-2.49665e-01,-4.26373e-01,3.49661e-01,5.38134e-01,7.06889e-01,5.40016e-01,6.71227e-02,7.89285e-02,3.65884e-01,5.42844e-01,7.57726e-03,8.23770e-02,-2.72652e-01,2.17032e-02,3.13330e-01,3.43798e-01,4.96732e-01,2.35538e-02,-1.10395e+00,-2.26161e-01,8.74487e-02,-3.24081e-02,4.41243e-02,1.89270e-01,2.13368e-01,2.50214e-01,-3.01686e-01,-3.50191e-01,-1.01072e+00,-1.21465e-01,-1.91435e-01,1.24899e-01,-1.38410e-01,-2.93530e-01,-8.05851e-01,-1.20203e+00,-1.12477e+00,-7.31066e-01,-3.54044e-01,3.38799e-01,3.52292e-02,6.72574e-02,4.21727e-02,-3.38349e-02,-8.15739e-02,-3.52588e-02,-3.44213e-01,-7.17413e-01,-1.82770e-02,-3.91401e-01,1.39419e-01,-1.89928e-01,-1.55810e-01,-1.54836e-01,-9.87365e-02,7.40352e-02,1.80708e-01,3.85741e-01,-6.07853e-02,3.17227e-01,1.54952e-01,4.88181e-02,-1.72093e-01,-6.05388e-03,-5.22379e-02,-2.36750e-02,8.37186e-02,-5.41851e-01,-2.06249e-01,3.63834e-01,-7.74030e-02,1.51965e-01,2.72328e-01,1.74059e-01,1.32733e-01,2.23404e-01,4.63002e-01,5.26357e-01,-7.85697e-01,-1.50192e-01,2.65356e-01,-6.55227e-02,9.20993e-02,1.79886e-01,-8.54245e-02,-1.20073e-01,-1.58697e-01,5.10060e-01,4.97009e-01,-1.16706e-02,9.63013e-01,3.38762e-01,2.19913e-01,3.64893e-01,3.98497e-01,6.82211e-01,3.80296e-01,-3.75486e-01,
8.71965e-01,1.01751e+00,-1.61119e+00,-3.43507e-01,-3.85134e-01,-1.11185e+00,6.17195e-01,-2.54398e-02,-7.14582e-03,5.37135e-01,8.19685e-01,1.67796e+00,5.00548e-01,-2.38845e-01,-1.52729e-01,-4.19017e-02,-9.94186e-02,1.28497e-02,1.12951e-01,2.79255e-01,7.24300e-01,4.29327e-02,8.40811e-02,-1.30885e-01,-7.74525e-02,8.65839e-02,1.18689e-01,-8.43073e-02,1.09771e-01,-2.46417e-01,7.47344e-01,-3.26998e-01,2.62566e-01,-3.78429e-01,1.37087e-03,3.48671e-01,6.49619e-02,1.23980e-01,2.04039e-01,2.05478e-02,5.33467e-01,-1.33943e-01,1.60430e-01,7.16334e-02,-8.68350e-02,-1.50243e-02,-1.90291e-01,-2.62824e-01,-6.14406e-01,6.62772e-01,-9.74668e-01,3.03037e-01,-2.62932e-02,-6.92548e-02,4.58305e-02,-2.79278e-02,1.05416e-01,3.47464e-02,-1.74231e+00,8.05550e-01,-4.10877e-01,8.83571e-02,7.78747e-02,6.37909e-02,-1.06854e-01,1.54175e-01,-9.91833e-02,-4.80067e-01,-6.84085e-01,4.63876e-01,2.45878e-01,-2.93290e-01,2.12206e-01,8.04438e-02,2.48870e-01,1.70641e-02,-3.10285e-02,-1.57285e+00,2.81904e-01,7.71664e-01,-2.48695e-01,2.41018e-01,-1.19946e-01,9.99616e-02,-4.18818e-02,-3.61440e-02,-9.56205e-01,-8.40000e-01,-4.70311e-01,1.64845e-01,-1.97075e-01,4.59634e-01,2.13829e-03,-2.98372e-01,1.74685e-02,-5.51753e-01,1.77911e-02,-3.03995e-02,-1.08217e+00,-5.55006e-01,
-6.89732e-01,-6.90058e-01,1.29443e+00,1.11202e+00,-1.60007e-01,2.47149e-02,1.91629e-01,6.89599e-02,4.69074e-01,-2.53599e-01,-8.51325e-01,-7.12945e-01,1.93359e-01,2.67745e-01,2.68710e-01,-1.11686e-01,1.93840e-01,1.52071e-01,1.75547e-01,3.98535e-01,1.20131e-02,2.01350e-01,8.30231e-02,1.43645e-01,2.01394e-01,-3.18028e-02,-7.83942e-02,1.70595e-02,3.14920e-02,1.56680e-01,5.17169e-01,-2.36751e-03,-2.81446e-03,-1.81944e-01,-1.90569e-01,-2.33212e-01,8.41314e-02,1.51120e-01,1.62138e-01,2.03866e-01,6.79519e-02,-1.75869e-01,-2.72125e-02,-2.05247e-01,1.52542e-01,9.31374e-02,-1.10458e-01,6.51411e-02,1.22520e-02,4.22205e-01,1.02578e+00,-1.56944e-01,1.07138e-01,-5.88477e-02,3.94556e-01,2.67623e-01,-2.57512e-02,-1.68808e-01,2.34109e-02,-2.69276e-03,4.93098e-01,7.62137e-02,5.62637e-02,1.44159e-01,2.33396e-01,5.43376e-02,-5.34171e-02,1.31609e-01,8.06312e-02,6.27683e-01,5.16598e-01,1.60628e-01,6.60889e-02,3.38683e-01,-2.22149e-01,-2.08182e-01,-2.39792e-02,3.80816e-01,-2.58245e-02,-5.11979e-02,7.54558e-01,-3.55787e-01,1.22926e-01,5.53871e-03,4.86095e-02,-1.13198e-01,1.97589e-01,1.25326e-01,1.57379e-01,-5.34781e-01,-9.49724e-01,-8.52683e-01,-5.03246e-02,4.26483e-01,1.23013e-01,-1.98074e-01,-2.55207e-02,-5.99077e-01,-8.26466e-01,2.32835e-01,
-1.99950e-01,-8.27109e-01,-1.61947e-01,3.89356e-01,1.67436e-01,6.85751e-01,1.20394e-01,-4.84021e-01,-8.50669e-01,-3.76362e-01,-5.57092e-01,1.00111e-02,-5.71503e-02,-2.08727e-01,2.06588e-02,1.99361e-01,2.76719e-01,1.12204e-01,-2.53872e-01,-2.90580e-01,4.52454e-01,5.75436e-01,2.33216e-01,-2.86924e-01,-2.42795e-01,8.20296e-02,-1.40666e-01,1.65150e-01,-9.16521e-02,-1.76053e-01,-3.45101e-01,1.98352e-02,-1.11920e-01,-8.96036e-02,-1.19664e-01,-1.18814e-01,4.44291e-02,2.48773e-01,2.26219e-01,1.03995e+00,-8.17830e-02,2.28843e-01,-2.47984e-01,-3.18024e-01,-8.23211e-02,5.48991e-01,2.16378e-02,-4.64979e-01,-7.51646e-01,5.19119e-01,2.76142e-01,3.48924e-01,1.40948e-01,-2.03379e-01,-3.81052e-01,-1.71457e-01,1.31927e-01,8.95645e-02,-1.23376e-01,5.96946e-01,2.31847e-01,-2.96753e-02,2.00415e-01,2.18809e-01,-1.03067e-01,-1.15123e-01,2.64076e-01,6.36049e-02,-5.37478e-01,1.37493e-01,1.84293e-01,-1.08905e-01,6.36908e-02,-1.11762e-01,6.45325e-02,3.98174e-02,-1.65207e-01,-3.11808e-01,-8.51228e-01,4.50957e-01,9.20938e-01,1.14480e-01,-2.87680e-01,-1.20752e-01,5.24425e-02,-2.03035e-01,-1.90930e-01,-4.05475e-01,-6.83138e-01,3.06501e-02,9.20667e-01,-2.13988e-01,-1.11066e-01,-5.64906e-01,-2.06551e-01,-5.45175e-01,-7.12781e-01,-5.66396e-01,-4.54918e-02,3.93949e-02,
-7.33792e-01,-3.87201e-01,1.49920e+00,9.80240e-01,1.01379e-02,8.76634e-01,2.00333e-01,2.64220e-01,3.33435e-01,1.65683e+00,-1.07029e+00,8.43662e-01,5.56499e-01,6.15057e-01,4.55885e-01,-2.38240e-02,3.31449e-02,7.18729e-02,-3.32126e-01,9.60147e-01,7.22847e-01,5.00301e-01,-3.90282e-01,-2.64026e-01,1.79445e-02,5.59478e-02,-2.38310e-02,-1.74507e-01,-2.92513e-01,1.94318e-01,1.96540e-01,3.62753e-02,-3.78740e-01,-2.94527e-01,-3.33789e-01,7.73610e-02,-1.01887e-01,-2.69457e-01,-5.03004e-03,6.58406e-02,-3.15818e-01,-1.26285e-01,1.88468e-01,1.05375e-01,7.05324e-02,-2.39717e-02,-1.54569e-01,-2.21448e-01,-8.50297e-02,-3.46983e-02,1.32435e+00,-1.43085e-01,3.43598e-01,2.27549e-01,2.05341e-01,1.22435e-01,2.08267e-02,1.07624e-01,-3.14193e-02,6.63701e-01,1.73781e-01,4.30678e-01,1.94272e-01,1.07586e-01,-8.79473e-02,1.95124e-01,3.92257e-03,3.75445e-02,-1.81013e-02,-2.27086e-01,-2.35818e-01,-8.02299e-02,-1.51573e-01,7.82938e-02,-1.61895e-01,1.59968e-01,2.19712e-01,9.11784e-02,-8.28382e-02,-2.50809e-01,2.71813e-01,-3.91361e-01,4.51360e-02,1.77391e-01,-1.85392e-01,-2.50313e-01,-3.98116e-01,3.03712e-01,-7.01757e-01,-5.76435e-01,5.99136e-03,-7.07581e-01,-5.69489e-01,-8.79521e-01,-1.00486e+00,-3.11806e-01,-1.68772e-01,-2.08803e-01,-6.43381e-01,6.64831e-01,
-5.26517e-02,-4.55974e-01,3.73250e-01,5.45670e-01,-7.00860e-01,-1.05693e+00,-1.03738e+00,-1.23019e+00,1.87991e-01,1.23536e-01,-8.60523e-01,-3.53000e-01,2.07980e-01,-6.34694e-01,-4.40204e-01,-2.56188e-01,-7.36058e-02,-3.74843e-02,6.54390e-01,1.01925e+00,-4.42699e-01,-9.30480e-01,-2.31626e-01,5.02681e-02,2.63549e-01,3.93288e-01,-7.63491e-02,-2.72739e-01,-3.71732e-01,2.26649e-01,4.75415e-01,8.74005e-02,2.81975e-01,3.45869e-01,8.71707e-03,-1.80074e-01,1.52418e-01,3.42890e-02,-8.97435e-01,-7.07589e-03,8.12696e-02,-2.11062e-01,1.12450e-01,-1.79442e-01,-9.66543e-02,1.42570e-01,1.78603e-01,1.00023e-01,-7.03680e-01,-2.97722e-01,4.71001e-01,-2.89494e-01,-1.97966e-01,-1.33454e-01,5.70737e-03,-2.50202e-02,-3.41808e-02,-2.15858e-01,1.64175e-02,1.12730e-01,6.00646e-01,3.50797e-01,-3.40045e-02,-1.20702e-01,8.02994e-03,-1.51292e-01,1.44837e-01,1.22736e-01,-4.78146e-01,-8.92837e-01,3.43856e-01,4.25610e-02,4.52866e-02,-1.49046e-02,1.72354e-02,-1.21963e-01,-1.17715e-01,1.54869e-01,-9.27444e-03,-2.63204e-01,9.07985e-01,2.33685e-01,7.41952e-02,-2.96823e-01,-1.41777e-01,-4.52645e-02,-2.75214e-01,-1.60098e-01,3.37205e-01,-1.98479e-01,1.09479e+00,-3.21115e-04,-3.23631e-01,5.24119e-01,1.17079e-01,1.52179e-01,2.19983e-01,4.41814e-01,-7.29589e-01,-1.08569e+00,
6.39468e-02,4.31025e-01,2.87621e-01,6.38522e-01,-6.27955e-01,3.58137e-01,-1.29002e+00,-1.71286e+00,9.72578e-01,-2.38541e-01,-6.67283e-01,-4.99962e-01,-4.07892e-02,3.82637e-01,-3.72453e-01,-7.29300e-02,8.53357e-02,-3.43206e-01,-1.54968e-01,4.90269e-01,-9.10809e-02,2.04650e-02,1.02973e-01,-1.18724e-01,-7.42852e-02,-9.63817e-02,-1.49181e-01,1.48273e-01,1.18685e-01,3.87586e-01,-5.27380e-02,2.36682e-02,3.96766e-02,-7.37505e-02,-1.12231e-01,-1.33294e-01,1.44015e-02,2.04520e-01,3.25455e-02,-3.02484e-01,-6.47536e-01,-5.41148e-04,-2.13060e-01,-3.40249e-03,-1.15162e-01,2.62801e-02,-1.13888e-01,-4.13466e-02,-8.40803e-02,-1.81466e-01,-3.00682e-01,-3.75251e-01,7.59806e-02,-1.61093e-01,-8.95233e-02,-4.64265e-04,-1.52601e-02,-1.93396e-02,-1.59976e-01,5.76722e-01,-3.74884e-01,-2.61581e-01,-8.67736e-01,-2.83289e-01,3.91521e-01,-4.51139e-02,2.48195e-01,1.27766e-02,-9.75497e-02,-4.42435e-01,-4.99628e-01,7.31143e-02,-9.36216e-01,7.26128e-02,4.80580e-01,-3.47768e-02,2.01449e-02,-1.98437e-01,2.06300e-01,-1.17183e-01,-1.44485e-01,7.59803e-02,-2.22322e-01,-2.18073e-01,1.78477e-01,4.43005e-01,4.24737e-02,1.41935e-01,7.74364e-01,2.49426e-01,-3.58486e-01,-1.06511e-01,-2.22163e+00,-6.22446e-01,-5.68872e-01,-1.06127e-01,2.73972e-01,4.62493e-01,4.39947e-01,1.17081e-01,
-2.04731e-01,-3.62133e-01,-3.88273e-01,-8.31349e-01,-1.49716e+00,-1.53770e+00,-1.23454e-01,4.95958e-01,-1.59283e+00,1.01130e-01,4.94307e-01,9.44275e-01,-3.44290e-01,-2.07994e-01,-5.26241e-03,-8.02375e-02,4.06901e-01,1.48389e-01,5.65827e-01,9.02201e-01,-4.20553e-02,1.39090e-01,8.56682e-02,-5.66764e-02,-2.73046e-02,-5.15568e-02,-1.53780e-01,-4.05104e-02,1.03129e-01,1.06874e-01,6.55491e-01,2.69696e-01,-1.00210e-01,-1.54673e-01,-1.56723e-01,-3.45090e-02,4.50086e-02,-5.90539e-02,-8.47448e-02,2.34631e-01,1.91498e-01,-7.47308e-02,-1.83771e-01,-1.93385e-02,-1.90664e-01,6.47305e-02,6.57512e-02,1.36441e-01,-4.50690e-01,4.15505e-01,-5.80427e-01,1.78564e-01,1.87354e-01,1.64478e-01,3.44280e-02,8.87868e-02,-1.75297e-03,-1.03183e-01,-2.70911e-01,-1.53257e-01,-8.21773e-01,-4.59670e-01,5.74444e-02,2.26584e-01,4.00489e-01,-1.55997e-01,2.40689e-02,-1.06187e-01,1.83861e-01,-1.55242e-01,6.27999e-01,-1.49842e-01,-9.28275e-01,-8.84025e-01,-5.47534e-01,9.39831e-02,1.12641e-01,1.57999e-01,-2.18944e-01,9.51325e-01,2.79370e-01,1.49129e-01,4.01464e-01,3.53551e-01,2.91405e-01,1.04685e-01,5.02617e-02,-1.36558e-01,4.34205e-01,8.89330e-01,3.65885e-01,9.54055e-01,7.89917e-01,2.70775e-01,1.86014e-01,-1.79668e-01,1.16751e-01,-1.65482e-02,5.35622e-01,-1.61069e-01,
-3.20277e-01,4.04368e-01,7.24138e-01,4.80051e-01,3.82860e-01,-1.02566e-01,-1.46893e+00,-1.08231e+00,-1.67213e+00,-1.79467e-02,2.88940e-01,2.16653e-01,2.85357e-01,-1.51153e-01,-9.77812e-02,2.51541e-01,6.67674e-02,-3.49262e-01,-4.89060e-01,-3.18796e-01,6.60708e-01,7.09087e-01,1.32254e-01,8.09112e-02,-7.69856e-02,1.12783e-01,2.81114e-01,-1.97727e-01,-8.07802e-01,-6.62979e-01,2.92207e-01,3.79417e-01,-1.80636e-01,4.22301e-02,-1.04034e-01,4.39068e-01,-1.40470e-01,-8.21104e-01,-4.82693e-01,6.28780e-02,2.87280e-01,9.79290e-02,-3.15743e-01,-1.16316e-01,2.38500e-01,-4.21297e-02,-7.28625e-01,-4.39623e-01,-1.15939e-01,3.75046e-01,5.34135e-01,-2.04148e-01,2.24319e-01,1.50865e-01,-1.59522e-01,-3.57698e-01,-1.32998e-01,2.37165e-01,1.62601e-01,4.46243e-01,-5.76939e-01,-6.42667e-02,8.45244e-02,3.00213e-02,-3.03743e-01,-2.15257e-01,1.20528e-01,5.95590e-02,-8.03397e-02,4.37794e-02,-3.60398e-01,-5.96848e-02,6.56463e-03,-7.07546e-02,-5.62024e-02,-2.45620e-02,7.38814e-02,1.27418e-01,2.45707e-01,1.44520e-02,1.12561e+00,5.65764e-01,2.11025e-02,9.73816e-02,6.62999e-02,2.69943e-02,-2.10948e-01,-5.27495e-02,-3.00552e-01,-4.24914e-01,2.74547e-02,3.92392e-01,9.01563e-01,1.18012e-01,3.99938e-01,6.80027e-01,-4.80435e-01,-2.90843e-01,-4.97191e-01,1.71398e-01,
2.73014e-01,5.83529e-02,3.09537e-01,1.00895e-01,3.65830e-01,-3.88428e-01,-3.09256e-01,-1.14764e-01,-1.20864e-01,7.88309e-01,-9.79600e-01,-4.33765e-01,-2.23241e-01,2.22855e-02,1.04085e-01,-2.77393e-03,7.65617e-02,-9.74964e-03,3.96250e-02,-5.02817e-01,-2.71259e-01,1.44648e-01,1.38482e-01,6.58985e-02,8.89465e-02,6.02457e-02,-7.40148e-02,1.74828e-02,3.56602e-01,-3.94085e-01,-4.74716e-01,-3.07057e-02,-1.71625e-01,-4.32490e-02,-2.70309e-02,1.86319e-01,1.87634e-01,1.95260e-02,-1.59383e-01,-3.78700e-01,2.13792e-01,1.01322e-02,-3.25759e-01,-1.06118e-01,-3.73462e-01,-2.30299e-01,1.56106e-01,-1.22720e-01,1.86335e-01,-7.59339e-01,-1.80628e-01,2.93085e-01,1.77181e-02,-6.41097e-02,-2.52588e-01,-3.78232e-01,-2.15868e-01,5.64323e-02,1.31560e-01,1.43202e-01,-6.38334e-02,8.70460e-02,1.54923e-01,2.16633e-01,1.35086e-01,-3.08788e-02,8.36368e-02,8.70128e-02,-1.27299e-01,4.05369e-01,3.00466e-02,9.49417e-02,1.36382e-01,1.81972e-01,3.69770e-01,2.50558e-01,6.38671e-02,1.99727e-01,5.02316e-01,8.61798e-02,5.54730e-01,-2.11370e-01,-1.59704e-01,3.62165e-02,1.15877e-01,1.85800e-01,-5.87501e-02,-1.74178e-01,5.54159e-02,3.72535e-01,3.86996e-01,4.04010e-01,-1.80374e-01,-2.75875e-01,-4.23407e-01,-5.99829e-01,-2.52142e-01,-4.30985e-02,-6.77018e-01,5.99818e-01,
-2.71134e-01,-4.02574e-01,2.18557e-01,-1.78424e-01,-1.59041e-01,-3.98128e-01,-3.33358e-01,-1.89913e-01,5.66141e-02,1.09942e-01,-4.00808e-01,1.39851e+00,6.17569e-01,1.95770e-01,2.13239e-01,-1.16025e-01,-8.12444e-01,-1.39886e+00,-1.22212e+00,-2.42373e-01,7.67725e-01,-1.01246e-01,1.36705e-01,-2.71960e-02,1.68417e-02,1.38527e-01,-8.78766e-01,-1.33135e+00,3.40423e-01,5.71255e-02,4.69876e-01,1.87668e-01,-1.52512e-02,-3.12276e-02,5.00122e-01,1.71920e-01,-7.56944e-01,-5.12720e-01,5.17098e-01,1.19813e-01,2.81774e-01,4.05563e-01,-2.91737e-01,-3.84846e-02,1.51637e-01,-2.05907e-02,-1.97477e-01,-1.53758e-01,4.67319e-01,-1.90704e-01,1.12713e-01,-4.69174e-01,4.33757e-02,-2.48982e-02,-2.25827e-01,-2.27337e-02,-3.26749e-02,1.81289e-01,2.11571e-01,8.33541e-02,-1.46532e-01,7.49281e-04,-3.59199e-01,-3.22336e-01,-2.07242e-01,3.86438e-02,-2.95796e-03,3.90153e-02,-1.30970e-01,6.99489e-02,-4.29996e-01,-1.36237e-01,7.19096e-02,4.56028e-02,-1.68992e-03,-1.04313e-02,7.64278e-02,4.04630e-02,1.25050e-01,8.24143e-01,-4.53437e-02,-4.21035e-01,7.10824e-02,5.87549e-02,-1.10168e-02,-1.61984e-01,5.87263e-02,1.56588e-01,-3.32499e-02,7.19977e-01,-1.02219e-01,-4.08910e-03,6.99469e-01,-1.44485e-01,2.53890e-02,-3.78677e-01,-2.11248e-01,2.51151e-01,2.09215e-01,-2.13736e-02,
-2.87884e-02,-9.56156e-01,-8.80486e-02,-2.06927e-02,-3.34955e-03,2.50771e-01,-6.56851e-01,-1.02079e-01,-4.03553e-01,-2.51252e-01,2.19024e-01,5.84857e-01,4.97333e-01,-8.35993e-02,2.35940e-01,-4.12802e-02,9.64096e-02,-5.45155e-01,-1.61494e-01,4.11379e-01,2.50551e-01,-1.07990e-01,4.06102e-01,7.01913e-02,-1.25825e-02,-5.70593e-02,4.13468e-02,8.14301e-02,1.55013e-03,2.61569e-01,5.50461e-01,-2.87070e-02,8.52308e-02,1.03771e-01,2.09585e-02,2.39728e-01,3.46679e-01,2.04551e-01,2.00687e-01,5.23855e-01,1.84864e-01,3.18877e-01,-2.52705e-01,1.92729e-01,-2.88866e-01,-3.13962e-01,-1.47739e-01,4.43841e-02,7.07575e-02,2.73564e-01,2.28139e-01,-2.13369e-02,-4.36698e-01,2.10789e-01,1.32211e-01,-1.83522e-01,-4.60780e-01,-3.53120e-01,7.63723e-02,-4.31337e-01,8.36296e-01,-1.31167e-01,-1.20085e-01,-2.50373e-02,1.69721e-01,2.47407e-01,7.60073e-02,-4.64974e-01,-1.42596e-01,8.62530e-02,2.98912e-01,-2.03466e-01,-5.56923e-02,-4.08748e-01,-7.23849e-02,-2.62530e-02,3.16058e-02,-4.85578e-02,-3.01899e-01,-6.69689e-01,7.56995e-01,8.44624e-01,3.16680e-01,2.14066e-01,1.32090e-01,-9.05690e-02,-1.82376e-01,-1.38857e-01,-2.92958e-01,-5.94858e-01,1.21192e+00,-1.65028e-02,1.07106e-01,6.81180e-02,9.47975e-02,-4.51883e-01,1.31234e-01,-7.58292e-02,9.91175e-01,-1.23575e-01,
9.98100e-02,7.74165e-03,7.32180e-01,2.45903e-01,-3.19188e-01,1.06215e-02,-4.79333e-01,9.62840e-01,2.12401e-01,3.09701e-01,5.85583e-01,3.83054e-01,4.00554e-01,4.58549e-01,4.96565e-02,-3.05118e-03,6.01770e-02,3.42627e-02,2.20436e-01,2.16421e-01,1.02848e+00,4.45372e-01,2.44686e-02,1.06970e-01,2.98238e-01,2.26842e-01,3.69518e-02,9.46866e-02,-1.90106e-01,-6.69136e-01,-5.30956e-01,-1.60000e-01,8.63234e-02,-9.08248e-03,-4.49880e-01,3.18219e-02,2.91895e-02,-9.29706e-02,1.54000e-01,1.52112e-01,-1.66308e-01,-7.32768e-01,-1.02455e+00,-9.20783e-01,1.00860e-02,1.46894e-01,-6.01147e-02,3.20780e-02,-3.65373e-01,6.58540e-01,4.10178e-01,-9.07726e-02,4.08862e-01,3.92542e-01,3.47366e-01,1.48902e-02,9.82518e-02,1.37036e-01,4.39111e-01,5.76437e-01,-6.68858e-01,-5.63759e-01,-7.84793e-02,-2.70139e-01,-8.82540e-02,-2.24827e-01,-1.74888e-01,-1.48176e-01,7.05269e-02,7.59981e-01,-4.47273e-01,8.81466e-02,-5.24488e-02,-1.39269e-01,-1.12038e-02,-4.28406e-02,-2.15669e-01,-3.36706e-01,-2.45979e-01,-2.82074e-01,-1.39570e-01,1.58058e-01,1.82897e-01,1.63620e-04,-5.35772e-02,3.07577e-02,-1.35511e-01,-1.10373e-01,2.26881e-01,7.44803e-01,4.72433e-01,5.18937e-01,3.02223e-01,3.52795e-01,1.46481e-01,-1.07100e-01,4.88018e-01,-4.05863e-01,-4.42342e-01,2.05182e-01,
-8.31158e-02,-9.56249e-02,-3.47857e-01,-4.24092e-01,-6.29858e-01,-9.74226e-01,4.51938e-01,-2.02223e-02,-1.01609e+00,-2.90248e-01,2.04959e-03,-3.77434e-01,-8.21622e-01,-8.66447e-01,-5.96700e-01,-4.78783e-01,7.70945e-02,4.77362e-01,1.53216e-01,-8.09931e-02,1.84854e-01,-2.33676e-01,-3.38860e-01,-6.35154e-01,-4.29918e-01,-8.81324e-01,-8.83956e-01,-4.49314e-01,-4.36220e-01,-1.90033e-02,-2.62897e-01,-1.59479e-01,-1.73314e-02,-2.59165e-02,-1.00305e-01,-1.85556e-01,3.71717e-02,-1.03422e-01,1.17053e-01,5.93178e-02,2.42289e-01,4.70080e-01,-1.56009e-02,2.72332e-01,3.56009e-01,2.56644e-02,-1.31715e-01,-3.21226e-02,1.33908e-01,1.27330e-02,-2.04124e-01,1.83647e-01,2.34390e-02,-5.67078e-02,1.62968e-01,-5.45119e-02,-1.81063e-01,2.26726e-01,8.62875e-02,1.94565e-01,-6.06111e-01,2.24367e-01,-5.09634e-02,9.97164e-02,1.80953e-01,-2.03140e-01,6.91133e-02,-1.79414e-01,1.02527e-01,-1.48808e-01,2.30549e-01,-5.56075e-01,1.32546e-02,5.02535e-02,2.38042e-01,1.90807e-01,1.17805e-01,-5.62112e-01,-3.05318e-01,-7.45406e-01,-2.64528e-02,-6.98291e-01,-2.11453e-01,-1.96197e-01,1.03886e-01,8.57636e-03,2.43571e-01,-2.66066e-01,-5.21745e-01,-6.72934e-01,-8.84178e-02,3.07524e-01,1.90324e-01,-5.02936e-01,1.24970e-01,2.17075e-01,7.45468e-02,4.85850e-02,-5.04183e-01,-8.78865e-02,
6.74901e-03,6.87895e-01,5.54528e-01,4.30158e-01,-3.42581e-01,-3.40738e-01,5.14303e-02,-4.33134e-02,-7.21980e-01,2.43939e-01,5.65957e-01,8.25859e-01,3.64968e-01,2.22309e-01,-2.08814e-01,9.31671e-02,2.31036e-01,-3.25190e-01,-4.65533e-01,4.62132e-01,-2.58927e-01,1.13420e-01,2.38115e-01,-2.18486e-02,6.39111e-03,-5.07250e-01,-6.05779e-01,3.21192e-02,-5.89089e-02,1.31425e-01,-4.75216e-01,-3.03842e-02,3.34029e-01,2.26163e-01,-5.61770e-01,-1.85888e-01,1.46189e-01,2.18172e-01,-7.62539e-02,-2.73475e-02,-8.25099e-01,-3.44365e-01,3.31580e-01,-2.59920e-03,-4.63367e-01,2.06051e-01,-1.70548e-01,7.42323e-02,-5.94335e-02,3.73032e-01,-6.33503e-01,1.26394e-01,2.38786e-01,-2.27355e-02,-1.07223e-01,4.04437e-02,-1.22628e-01,-1.37049e-01,1.45928e-01,1.34435e-01,-2.58635e-02,-3.03669e-03,1.69064e-01,2.63160e-02,-2.73088e-02,1.65584e-01,5.11488e-02,7.90605e-02,-8.40866e-02,2.00344e-01,1.09510e-01,-6.43116e-01,1.13442e-01,4.35391e-02,6.67770e-02,2.70765e-01,-1.13796e-01,-2.35729e-01,-5.84010e-01,-7.12865e-01,-1.46731e-01,-6.19933e-01,2.71554e-01,-3.42395e-01,-1.94658e-01,-2.98942e-01,-2.91400e-01,-2.68470e-01,-6.05667e-01,-9.02521e-01,2.19641e-03,-4.88294e-01,-5.54115e-01,-3.61812e-01,3.43196e-02,1.54306e-01,-1.99446e-01,-9.39201e-01,8.10164e-02,-9.90205e-03,
-1.22786e-01,-6.67946e-01,5.69515e-01,4.43980e-01,2.01258e-01,4.44815e-01,-1.48474e-01,-2.45673e-01,2.89980e-01,5.23671e-01,-6.84929e-01,7.54763e-01,-2.32589e-01,1.22626e-01,-7.17862e-02,-3.02222e-01,1.04835e-01,3.18698e-01,-5.21407e-02,-5.06587e-02,-7.68855e-01,-1.40837e-01,-1.17251e-01,6.42082e-02,-2.57786e-02,-3.52778e-01,7.74779e-02,2.39621e-01,-3.80579e-01,4.14011e-01,-5.36418e-01,-9.99044e-02,4.41623e-02,1.81712e-01,5.45541e-02,-1.54133e-01,4.09390e-01,-9.58765e-03,-5.74203e-02,-5.31245e-01,-4.99277e-01,-6.81067e-01,-8.74173e-01,-3.42959e-01,-4.26273e-01,-1.36205e-01,-3.60041e-01,-3.73907e-01,-1.52790e-01,3.96672e-02,4.31024e-02,1.78449e-01,6.72896e-02,1.50098e-01,9.45669e-02,1.34321e-01,4.54292e-03,6.33841e-02,-1.73311e-01,-4.95748e-01,8.16045e-01,4.26466e-01,6.68667e-02,1.60244e-01,9.80836e-03,1.33146e-01,1.97252e-01,1.53218e-01,3.10111e-01,5.44896e-01,7.73818e-01,1.73745e-01,5.04953e-02,1.29429e-01,-7.33202e-02,-9.45533e-02,1.77220e-01,3.51084e-01,4.88771e-01,-3.78239e-02,3.60610e-01,4.68414e-01,1.01152e-02,-8.60179e-02,1.25548e-01,-2.19020e-01,-1.46425e-01,-8.49676e-02,-4.12133e-01,-3.88706e-01,-5.03628e-01,2.05372e-01,4.87605e-01,8.25653e-02,1.05705e-01,4.16000e-01,-4.70984e-01,-3.93791e-01,-7.73446e-01,7.54693e-01,
-1.11128e-01,-1.83041e-01,-2.90446e-01,-6.69380e-01,-9.47466e-02,5.62932e-01,-6.17567e-01,-5.47573e-02,3.09866e-01,-8.92061e-02,1.31168e-01,-8.35938e-01,-1.62107e-01,2.89738e-01,-2.20607e-01,-3.06582e-01,-6.36495e-01,-6.95696e-02,2.59877e-01,5.87600e-01,4.10311e-02,-2.64453e-01,6.97382e-02,1.32361e-02,-1.18636e-01,-1.29205e-01,-4.25529e-01,2.37665e-01,-1.66805e-01,-1.02369e+00,-1.10900e-01,2.79038e-01,-1.55271e-01,2.06149e-01,1.40721e-01,-2.90474e-01,-1.33139e-01,3.36352e-01,2.76690e-01,-1.78147e+00,-1.59949e-02,1.86927e-01,-5.99707e-02,3.35812e-01,-4.73716e-01,-1.82868e-01,1.76015e-02,-1.54477e-02,1.56306e-01,-2.28573e-01,8.07831e-01,-1.14414e-02,9.04265e-02,1.10524e-01,-3.02603e-01,-3.79990e-01,8.23761e-02,1.56416e-01,-4.85594e-01,-2.02460e-01,8.36069e-01,3.37820e-01,1.12661e-01,-9.92864e-04,-6.40335e-01,-1.73394e-01,3.30763e-01,5.21920e-03,2.31818e-01,-1.19007e+00,-3.74476e-01,-2.72590e-01,1.19937e-01,-6.08629e-01,-5.01223e-01,1.27597e-01,1.23627e-01,2.77720e-03,1.73357e-01,-1.68179e-02,-5.13679e-01,-4.60260e-01,-9.44308e-01,-1.45637e-01,-1.31878e-01,1.32424e-01,7.90894e-02,-9.05384e-02,-2.71732e-01,6.21645e-01,1.36907e-02,-4.99321e-01,3.27782e-01,2.24713e-01,4.03122e-02,-8.80689e-02,2.55357e-01,3.56244e-01,4.98805e-02,-1.85509e-02,
-9.85752e-02,-3.24402e-01,3.92971e-01,1.32023e-01,5.93951e-01,-1.35992e+00,-5.49546e-02,5.49584e-01,-8.56088e-01,-2.51699e-01,-1.05853e-01,1.35118e-01,2.09851e-01,-1.43767e-01,-1.12702e-01,-2.71578e-01,-1.20682e-01,-2.10396e-01,-8.79779e-02,-5.82566e-01,1.56077e-01,1.43347e-01,3.04474e-01,1.56699e-02,9.53760e-02,2.56214e-02,-2.72224e-02,-1.05128e-01,1.59121e-01,1.34770e-01,7.78100e-01,3.49199e-01,1.42438e-01,-1.09710e-02,2.02472e-02,2.16838e-02,1.24964e-01,-1.23483e-01,7.19543e-02,-2.58332e-01,-1.09447e-01,2.91145e-02,-9.96197e-02,-1.36000e-01,-3.54273e-02,8.14649e-02,4.36055e-02,1.28397e-01,2.24506e-01,-3.98885e-02,-2.38714e-01,1.04101e-01,1.35274e-01,2.93974e-01,3.14895e-01,3.67181e-01,2.27602e-01,3.66332e-01,3.58721e-01,1.17593e-01,5.72024e-01,-6.10505e-01,-4.05466e-01,-4.13252e-01,-3.24840e-01,-1.89559e-01,-1.31091e-01,-6.49730e-02,-2.76410e-01,-4.61839e-02,6.48387e-01,9.96225e-02,-2.05268e-01,-2.82148e-03,4.49952e-02,-2.46207e-01,-7.08197e-02,-3.27804e-01,-7.71893e-01,-3.04157e-01,4.02982e-01,3.02932e-01,1.53536e-01,-2.44222e-02,-8.04783e-02,-2.45575e-01,-1.12611e-02,-1.89466e-01,-2.79451e-01,9.49616e-02,9.30634e-01,8.47092e-01,1.22234e-01,1.25977e-01,-2.20211e-01,-4.26054e-01,-1.99768e-01,6.48933e-03,4.69758e-01,1.04866e+00,
-1.05466e-02,8.14693e-01,1.19725e+00,6.34499e-01,4.05375e-01,-1.14191e-01,-1.00656e+00,1.25563e-01,4.19530e-01,1.17007e-01,2.06300e-01,-3.09308e-01,-3.38732e-01,-8.95914e-03,-1.07491e-01,-3.85745e-02,-5.99320e-02,-1.33286e-02,3.57566e-01,-2.42019e-01,-3.21443e-01,-2.06113e-01,1.62517e-01,-1.60229e-01,-5.80241e-02,7.84409e-03,4.14247e-02,-1.81371e-02,1.50571e-01,-1.34940e+00,-1.45472e-01,3.49755e-01,1.49746e-01,2.40958e-01,1.84270e-01,1.71775e-01,-7.79488e-02,-8.31577e-02,2.38331e-01,-5.62209e-01,-3.70826e-02,5.03203e-01,8.80930e-02,-2.31316e-01,-5.05688e-01,-1.47648e-01,-8.32731e-02,-3.13147e-02,-4.31864e-01,4.20053e-01,-2.28215e-01,-1.45014e+00,-8.11946e-01,-5.60282e-01,1.11927e-01,-3.84737e-02,-1.06294e-01,1.48670e-02,1.35813e-01,2.38044e-01,5.54387e-01,1.28791e-01,4.03318e-01,2.01838e-01,2.02044e-01,1.90394e-02,-1.67783e-02,-4.55630e-02,-4.20991e-01,-4.39660e-01,7.39347e-01,4.40351e-01,2.06990e-01,1.79036e-02,1.41736e-01,1.28036e-01,1.05502e-01,1.90371e-02,5.00969e-01,8.66695e-02,9.07486e-01,-1.47565e-01,-2.32788e-01,9.22497e-02,1.34838e-01,7.61973e-02,2.45541e-01,-5.73033e-02,5.92970e-01,6.34036e-01,-1.40351e-01,-1.22772e+00,5.35940e-02,7.66606e-03,-1.08612e-01,2.21507e-01,-2.34070e-01,3.87902e-01,-6.19201e-01,5.33535e-01,
5.29043e-01,5.41403e-01,3.30790e-01,5.50309e-01,-3.37949e-01,-3.14356e-01,5.24808e-01,7.32301e-01,1.13568e-01,-7.03406e-01,8.67492e-01,-1.97427e-02,2.79699e-01,-1.81627e-01,1.69548e-01,1.95459e-01,1.40419e-01,-2.53260e-02,-1.99667e-01,8.89583e-02,5.29852e-01,4.66952e-01,1.32923e-01,-6.70444e-02,-2.78351e-01,-5.22993e-01,-1.43589e-01,-1.49141e-01,1.67273e-01,-4.89047e-02,1.76410e-01,5.84651e-01,1.52304e-01,3.56197e-02,4.92805e-01,1.73622e-01,1.04408e-01,1.43842e-01,4.16462e-01,4.41189e-01,-9.48068e-02,1.87214e-02,-7.45345e-02,-9.27552e-02,3.81859e-02,1.05951e-01,-1.83200e-03,-1.29511e-01,3.35893e-02,-1.01902e-01,-2.45720e-01,-5.25011e-02,-2.09890e-01,1.81557e-01,-4.47013e-02,-1.77057e-01,-4.65444e-02,2.62552e-01,3.27882e-01,-3.85379e-01,-1.37279e-01,8.82917e-02,8.20126e-02,-4.31214e-02,-1.80297e-01,-1.30961e-01,6.22665e-02,3.38156e-01,-1.44237e-01,-5.55157e-01,-1.16122e-01,-3.30928e-01,2.60891e-02,8.91494e-02,7.75865e-02,-1.23191e-01,3.16932e-02,-1.23589e-01,-5.14789e-01,-7.22521e-01,-3.73726e-01,1.44582e-01,7.44841e-02,1.40459e-02,-1.39195e-03,7.85673e-02,2.57262e-03,-3.89627e-01,-6.34183e-03,-9.40591e-02,5.08265e-01,-2.38400e-01,-1.29316e-01,6.10630e-02,4.20055e-01,-4.86385e-02,5.24233e-01,6.54948e-01,1.05563e-01,3.30654e-01,
-7.66301e-03,-6.12910e-01,1.65159e-01,-1.04276e+00,-1.02932e+00,2.50551e-01,7.90499e-01,-1.68271e-01,4.77738e-01,6.89673e-01,-9.01488e-01,6.44828e-01,4.79657e-02,-1.29438e-01,-2.63500e-01,-3.88477e-02,9.16363e-03,-9.53585e-02,-1.91617e-01,-1.19288e+00,2.89543e-01,5.03391e-01,1.35576e-02,7.73317e-02,-1.05721e-01,1.66427e-01,1.09775e-01,-9.21452e-02,1.54270e-01,-7.78110e-01,-5.38278e-01,-1.26572e-01,-1.33090e-02,-1.91668e-01,-7.57491e-02,1.02748e-01,-6.84819e-02,-5.19050e-02,2.34899e-01,3.42966e-02,-1.87671e-01,4.58376e-01,1.11428e-01,3.40954e-01,-2.30886e-01,-3.94010e-01,8.29010e-02,-6.88383e-02,-4.22623e-01,-7.89120e-01,8.60481e-01,5.57898e-01,2.68963e-01,-4.88111e-02,-7.16414e-01,1.88020e-01,-1.82996e-01,-2.81511e-01,-8.86681e-02,5.22162e-01,-4.64911e-02,-4.66346e-01,-7.18627e-01,-5.54862e-01,-1.19024e-01,1.75904e-01,1.74948e-01,1.70487e-01,-3.58514e-01,3.75928e-01,6.80491e-02,-9.22707e-01,9.08344e-02,2.07328e-01,2.49496e-01,8.64706e-02,2.38716e-01,6.27298e-02,-1.34559e-01,8.29728e-01,6.17605e-01,7.27478e-02,3.70630e-01,-2.84613e-01,-9.43598e-02,1.70420e-03,-1.13890e-01,1.30741e-01,3.87042e-02,4.86402e-01,-3.13883e-02,-5.27974e-01,2.17890e-01,-2.84039e-02,-6.72989e-02,-7.92393e-02,1.06821e-01,1.21173e-01,-8.32308e-02,-5.93616e-01,
6.15534e-01,-1.69271e-01,-3.94146e-02,8.39746e-02,6.10821e-01,1.04788e-01,7.57389e-01,-6.94278e-01,-7.35259e-02,8.15096e-01,-3.18654e-01,2.95434e-01,-1.20953e-02,-3.11077e-02,-2.33251e-01,-6.09546e-02,-2.80879e-01,-2.34978e-01,1.30744e-01,-6.98706e-01,9.68520e-01,4.42859e-01,4.80823e-03,-3.95030e-02,-2.01192e-04,-1.03183e-01,1.12307e-01,-1.57351e-01,6.26228e-02,2.05323e-01,-1.76424e-01,-6.66419e-02,7.09185e-02,-4.88334e-02,-1.41081e-01,-4.19403e-01,2.52096e-01,2.04146e-01,-3.85507e-01,4.30440e-01,8.30030e-01,1.34884e-01,-1.49080e-01,-8.47265e-02,3.26560e-01,-7.26417e-01,2.83149e-01,2.13957e-01,-3.90357e-01,-9.85728e-01,8.14020e-01,-8.33125e-02,1.54680e-01,1.20645e-01,-8.00942e-02,-3.40137e-01,1.32846e-01,-7.87156e-02,-3.50752e-01,-7.81439e-02,-7.33958e-01,-1.88449e-01,6.62819e-02,3.42164e-02,-2.16064e-01,1.69765e-01,2.26122e-01,1.04647e-01,-1.82279e-02,-5.07179e-02,1.11566e-01,-1.82218e-01,-1.17316e-01,-2.68065e-02,1.48070e-01,-4.90173e-02,1.30010e-01,1.10359e-01,2.24550e-01,-1.06241e-01,8.60891e-02,6.41893e-02,-2.89695e-01,2.52372e-01,8.63051e-03,-4.33584e-02,-2.44598e-01,-2.57057e-01,-1.70108e-01,2.69623e-02,1.62498e-01,-5.26875e-01,-2.34825e-01,4.61077e-01,-2.77255e-02,1.21706e-01,8.84380e-02,2.75786e-01,-1.51582e-01,5.45903e-02,
1.37637e-01,-5.07565e-02,-4.84842e-02,3.29124e-01,-1.42451e+00,-5.18459e-01,-1.57636e-01,-1.63274e-02,9.96570e-01,2.43119e-01,-1.43616e-01,2.28471e-01,1.65439e-01,8.05854e-02,-8.92545e-01,-6.45491e-02,-3.98179e-02,-8.09607e-02,6.07598e-02,2.41651e-01,1.45361e-01,8.05343e-02,2.89551e-01,-9.50955e-01,-6.53401e-01,1.08318e-01,-2.38956e-01,2.00790e-02,-1.17200e-01,1.21990e-02,1.93888e-01,5.53428e-02,-2.31731e-01,-7.21318e-01,-1.98425e-01,3.65453e-01,-2.14101e-01,-2.47202e-02,-5.51528e-02,-9.06345e-01,4.94453e-01,4.78244e-01,-1.53844e-01,-1.75874e-01,3.80841e-01,-5.85992e-02,-1.06366e-01,6.22884e-02,3.82199e-02,-1.29948e+00,1.85830e-01,-1.58592e-01,-5.83268e-02,-2.15963e-02,9.02923e-02,-1.88480e-01,1.78230e-01,-6.44023e-02,3.96906e-02,3.76460e-01,1.16011e-01,-1.26040e-02,-5.33994e-02,2.71532e-01,-8.28848e-02,-2.65125e-02,7.89553e-02,3.11301e-01,-1.10745e-02,-7.27972e-01,4.36966e-01,1.23432e-01,4.17534e-02,4.82323e-02,1.12114e-01,-4.20852e-02,1.33046e-01,2.18505e-01,3.87147e-01,1.56736e-01,1.32881e-01,-2.47427e-01,6.67089e-02,-8.48495e-02,5.25974e-02,-1.17049e-01,-1.86392e-01,-5.42398e-01,4.25043e-01,1.04434e+00,6.59757e-03,-5.02326e-01,-4.62350e-01,-2.50513e-01,8.64518e-02,-3.57622e-01,-9.05803e-01,-3.41570e-02,2.65097e-01,3.79370e-01,
1.14874e-01,-2.63299e-01,-9.45121e-01,-3.45321e-03,-1.03376e-01,5.17775e-02,6.24806e-01,3.11374e-04,-8.60242e-01,-8.99081e-01,3.44613e-01,-2.08283e-01,2.61773e-01,3.98499e-02,-2.49244e-03,1.04672e-01,7.52888e-03,1.94971e-01,6.28998e-01,-3.60008e-01,1.38347e-01,-2.53541e-01,-5.47496e-02,-8.14968e-02,4.96348e-02,7.80704e-02,1.07327e-01,-1.76498e-01,-7.69047e-02,6.03084e-02,7.12030e-01,-1.77657e-01,1.69559e-01,5.09567e-02,1.40048e-01,5.74343e-02,-1.62738e-01,3.24712e-02,2.37727e-01,2.70994e-01,-7.32850e-01,-2.27520e-02,-9.01602e-01,-2.00315e-01,2.31013e-01,2.65794e-01,5.22542e-02,4.98914e-02,-8.84275e-02,-1.13020e-01,-2.68088e-01,1.00414e-01,-3.25702e-01,-7.37868e-01,1.78555e-01,2.05012e-01,-1.56377e-01,7.79437e-02,-6.50425e-01,-1.42754e-01,5.09480e-02,1.99844e-01,2.96180e-01,-1.72257e-01,-1.77950e-01,4.09346e-03,3.06816e-02,3.28362e-02,-3.63328e-01,1.54223e+00,-1.72781e-01,1.36563e-01,1.33590e-01,-4.27664e-03,-5.85764e-02,-2.37684e-03,1.91545e-01,-2.02626e-01,-9.99907e-01,7.58561e-01,-8.25258e-01,-3.64085e-01,-1.21614e-01,-1.48014e-01,1.11986e-01,1.33920e-01,-8.47673e-02,-5.94156e-01,-5.18955e-02,5.73968e-01,1.06303e-01,1.79248e-02,1.14274e-01,-7.46257e-02,-2.92374e-01,-6.00140e-01,-8.35774e-01,1.11202e-01,-4.60294e-02,1.71391e-01,
-2.39510e-03,6.04773e-01,-3.00127e-01,1.52026e-01,-1.29040e-01,-4.83065e-01,4.43720e-01,1.23572e-01,-9.56181e-01,-6.24606e-01,-6.74614e-01,4.43693e-01,2.14829e-02,-1.13363e-01,1.46260e-01,-2.44150e-02,-3.07771e-02,-2.41241e-01,-4.01875e-02,7.00956e-01,-9.49441e-01,4.13257e-02,6.41995e-03,-2.26234e-02,-1.32710e-01,1.52461e-01,4.86796e-02,1.51720e-01,3.12622e-02,3.85327e-01,6.19622e-01,-1.49882e-01,4.45721e-02,-2.74303e-02,-9.86970e-02,-6.94877e-02,-2.07056e-01,1.05523e-01,1.55509e-02,9.20225e-02,-9.69630e-02,-1.11753e-01,6.81075e-02,1.13667e-02,3.46945e-02,4.08744e-03,5.02009e-02,-8.83970e-02,-1.40307e-01,2.38534e-01,-1.01927e-01,-7.80607e-02,1.62462e-02,1.62631e-01,3.71481e-01,-1.01190e-02,-1.48637e-02,-1.20284e-01,-1.37870e-01,4.91366e-02,5.27734e-01,-4.29820e-01,-7.76005e-01,-9.96023e-01,-6.33576e-01,-1.63002e-01,2.01267e-01,-4.54744e-02,1.51340e-01,-8.19981e-01,5.63748e-02,6.66434e-02,2.75956e-01,2.72601e-01,2.36360e-01,3.86597e-02,1.97661e-02,6.80082e-02,1.90749e-01,-3.19289e-01,-5.11702e-02,8.20868e-02,1.57794e-01,2.44520e-01,1.62917e-01,2.30321e-02,1.72373e-02,4.04250e-02,-3.18345e-01,7.92620e-02,8.59933e-01,6.69665e-02,-1.06157e-01,-1.39285e-01,-6.21220e-02,1.46722e-01,2.76275e-01,8.84356e-03,-6.54523e-02,-6.38264e-03,
-9.28018e-01,-8.29436e-01,-4.22151e-01,-3.04400e-01,-5.34352e-02,6.09121e-01,-1.22523e+00,9.92766e-02,-7.86850e-01,2.71554e-02,-9.82435e-01,1.75470e-01,2.38016e-01,-9.11749e-02,-2.37581e-01,-3.85054e-01,-1.35806e-01,-4.69872e-02,3.57012e-01,-3.61044e-01,-2.72058e-01,7.09923e-01,-8.16549e-02,-2.51973e-02,4.19773e-01,-8.71448e-01,1.40350e-01,-1.94363e-01,2.72942e-01,5.76492e-01,7.37871e-03,9.29363e-02,-2.79848e-01,-1.37147e-01,2.97130e-01,-4.97366e-01,1.50246e-01,-6.68281e-02,2.38729e-01,4.02924e-01,-6.68977e-01,-1.39238e-01,1.05300e-01,1.49048e-01,3.30520e-01,-7.26635e-02,-1.25725e-01,-5.94357e-02,-1.49936e-01,4.73233e-01,4.86590e-01,-1.07502e-01,1.56445e-01,2.47817e-01,1.43231e-01,8.14561e-02,-2.46967e-02,4.31537e-03,-4.73887e-03,-3.91104e-01,4.97563e-01,-1.28525e-01,-1.17924e-01,-8.39631e-02,7.42192e-03,-4.16751e-02,4.26858e-02,1.30018e-01,6.61406e-02,-3.86945e-01,-1.77431e-01,2.18299e-01,-2.06568e-01,-1.22824e-01,-1.03333e-01,-1.88032e-01,-1.10687e-01,3.53933e-02,-1.79306e-01,-3.23899e-01,-6.64691e-02,-1.03299e+00,8.78299e-02,3.93037e-02,4.33326e-02,1.44745e-01,-1.38294e-01,-8.11727e-02,1.41843e-01,-2.89776e-01,-3.39477e-02,-6.98397e-01,-5.38473e-01,-3.43168e-01,-4.48009e-02,-3.09287e-01,2.06765e-01,-8.76303e-02,9.24121e-01,2.09559e-01,
1.88099e-02,-9.74220e-01,-1.03668e+00,3.99499e-01,2.60709e-01,5.08963e-01,1.36072e+00,6.91849e-01,-6.37543e-01,-5.53744e-01,4.58048e-01,-9.97185e-01,-3.70885e-01,-6.09914e-01,1.17251e-01,-1.82983e-01,-5.92309e-01,-5.98802e-01,-4.75932e-01,-7.23398e-01,5.08226e-01,3.95433e-01,-4.98039e-01,-2.25202e-02,2.44527e-01,1.87174e-02,-2.17359e-03,-1.77922e-02,1.69735e-02,-5.30770e-01,8.10451e-02,2.28953e-01,-5.67228e-03,-7.64372e-02,1.13364e-01,-1.43516e-01,3.03705e-01,4.56210e-02,-8.21053e-02,-5.20300e-01,-7.88724e-03,-4.88776e-01,3.75284e-02,1.97482e-01,-4.20250e-01,-1.70274e-03,3.03111e-01,-1.23763e-02,-7.77813e-02,3.04327e-01,3.50157e-01,-2.24673e-01,-6.09787e-02,-3.89264e-01,-1.26622e-01,1.07060e-01,-9.86775e-02,-8.39859e-02,-2.40480e-01,-2.96993e-01,-4.22195e-01,-1.68278e-01,-8.99941e-02,1.44497e-01,2.23406e-01,-2.57373e-01,8.36124e-02,-2.92019e-01,-1.05597e+00,4.15799e-01,-6.92508e-01,-4.62764e-01,5.63630e-02,1.34314e-01,-2.39556e-01,-5.69943e-01,-1.44779e-01,-6.26717e-01,-2.39472e-01,6.96205e-01,-6.55291e-01,-1.18578e-01,2.46348e-01,-1.43117e-02,-8.66399e-02,-3.96236e-01,-5.15494e-01,4.00283e-01,8.22376e-02,5.11390e-01,-1.01030e+00,2.71740e-01,1.27072e-01,1.38076e-01,2.93327e-01,-4.50173e-01,-4.73112e-02,4.31207e-01,5.36308e-01,2.50251e-01,
1.85255e-02,7.65658e-02,8.02577e-01,1.31921e+00,1.27475e-01,-6.94982e-01,1.67504e-01,-1.33666e-01,2.22630e-02,-7.12081e-01,6.66151e-01,2.35620e-01,-5.57777e-01,-1.18742e+00,-4.55226e-01,-4.30622e-01,-2.35151e-02,1.72693e-01,-3.44369e-01,-4.82571e-01,1.15823e-01,-1.69697e-01,9.90783e-02,-5.80772e-01,4.44135e-03,1.17792e-01,-7.88004e-02,8.32057e-02,-1.62875e-01,-4.37008e-01,4.46149e-01,-3.00033e-01,-1.19605e-01,1.04088e-01,-3.51639e-01,2.20683e-01,2.21371e-01,-1.13973e-01,6.41822e-02,-6.46315e-03,7.63831e-01,-4.65751e-01,-6.33586e-02,-1.03078e-01,2.71422e-01,1.44590e-01,-2.22956e-01,-2.61905e-01,3.99295e-01,3.16545e-01,2.80130e-01,4.45606e-01,-2.67893e-01,2.36783e-01,-1.53648e-02,6.15083e-02,-3.66833e-02,-2.70694e-01,-5.11254e-02,-2.43551e-01,-2.48557e-01,4.42957e-01,-9.46898e-02,-1.70612e-01,2.89307e-01,-3.16538e-02,-5.75340e-01,-2.32592e-01,2.93499e-01,2.95598e-01,-7.54330e-02,-5.06738e-03,-3.42086e-01,-6.47442e-02,1.35882e-01,-1.51052e-01,-4.59769e-01,3.55515e-01,2.00642e-01,3.64917e-01,2.35108e-01,2.24537e-01,-6.18752e-02,1.91797e-01,-3.64751e-01,7.94892e-02,-2.69831e-02,3.96309e-01,4.39059e-01,1.89232e-01,8.32552e-02,-9.33120e-01,-5.90933e-01,-4.92498e-01,-9.38380e-02,-1.25448e-01,1.74243e-01,6.68011e-01,4.35284e-01,4.55748e-01,
-1.88394e-01,-2.17468e-02,-6.60360e-01,-5.21046e-01,-8.55151e-01,-9.42956e-02,2.19752e-01,5.06911e-01,-1.06865e-01,-9.02106e-01,9.95809e-01,-2.78420e-01,2.11201e-01,-1.14415e-01,-1.03006e-01,-2.62618e-02,-2.73405e-01,-3.85832e-01,-5.91084e-03,2.78223e-01,-7.91517e-02,1.43454e-01,1.36356e-01,1.17941e-02,-7.52422e-02,1.76020e-02,3.89735e-02,3.81501e-01,9.25603e-02,6.79537e-01,-3.75123e-01,1.39871e-01,-4.72137e-02,1.25944e-01,-7.13180e-03,6.91493e-03,1.35176e-01,2.59288e-01,-6.54096e-03,8.15766e-01,5.63373e-01,-2.24986e-01,9.06985e-03,-8.75960e-02,-1.48075e-02,-4.74274e-02,-4.80937e-01,-6.96101e-01,-5.70451e-01,-8.42582e-01,-1.55015e-01,7.12708e-02,2.56651e-01,-8.39524e-02,-3.29092e-01,-1.47773e-01,1.59029e-01,-9.00748e-02,-6.29699e-01,-1.39614e+00,-5.03946e-01,-3.61207e-01,1.08618e-01,2.16857e-01,4.44685e-02,1.39280e-01,2.98133e-01,-5.63231e-02,8.02346e-02,-8.68301e-01,-6.56821e-01,-6.11267e-01,7.54671e-03,1.00598e-01,7.83217e-02,1.01819e-01,1.62974e-01,-1.85809e-02,-3.93425e-01,-6.80577e-02,-8.60569e-01,-1.90247e-01,-3.76824e-01,-2.61399e-01,-2.30859e-01,1.07152e-01,-1.93424e-01,-1.49441e-01,-8.52485e-01,2.83274e-02,-2.50616e-01,-4.31913e-01,4.91869e-01,1.82403e-01,7.36089e-01,2.62160e-01,2.25777e-01,2.84102e-01,2.94895e-01,-3.54680e-02,
-7.76834e-01,-9.01599e-01,-2.56453e-01,-1.42727e+00,-5.15665e-01,-2.39042e-01,-4.22459e-01,-1.21839e-01,-1.83160e-01,3.47750e-01,-8.61318e-01,-9.92903e-03,2.23262e-01,3.90443e-01,-8.49423e-02,-1.41535e-01,-1.83863e-02,6.19086e-02,-2.36021e-01,7.32258e-01,-6.12036e-01,1.28364e-01,9.78248e-02,-1.30167e-01,1.18882e-02,3.31130e-02,-2.95742e-01,1.72349e-01,4.05315e-01,1.36859e-01,-9.02781e-01,-1.59473e-01,-1.01080e-01,-7.96346e-02,-1.66161e-04,-2.67945e-01,-4.70912e-01,2.57150e-01,2.25213e-01,3.38086e-01,-9.92944e-01,1.43795e-01,-9.83218e-03,-1.40356e-01,-9.37881e-02,-3.13471e-01,7.14183e-02,3.27697e-01,3.62287e-01,-2.30505e-02,-2.38820e-01,5.86642e-02,-7.72164e-02,6.90432e-02,-5.27703e-03,-3.20299e-02,2.90341e-01,-6.82783e-05,1.42757e-01,2.15672e-01,-5.05656e-02,7.57822e-02,8.53375e-02,1.78265e-01,2.67114e-02,4.81210e-02,2.11303e-01,-3.13585e-01,-4.58916e-01,2.57181e-02,-1.43251e-01,2.29535e-01,1.45092e-01,-2.78669e-02,-6.77551e-02,-1.05315e-01,2.82920e-01,9.00069e-02,2.58962e-02,6.38920e-02,-2.78510e-01,-5.29651e-01,1.45880e-01,1.03803e-01,1.45457e-02,4.47098e-02,-1.38143e-01,3.36991e-01,7.32082e-01,7.55584e-02,-3.39283e-01,-5.54009e-02,4.65724e-01,2.97459e-01,2.11328e-01,4.84165e-01,-2.92696e-01,-1.18916e-02,-1.74339e-01,-4.95691e-02,
-2.86248e-02,-5.37383e-01,4.33759e-02,-1.35089e+00,-1.87383e-01,-1.72372e+00,-8.51812e-01,-4.18815e-01,4.55669e-01,9.07689e-02,2.31195e-01,-8.45833e-01,-3.77202e-01,-4.36557e-01,1.91021e-01,-1.07779e-01,-5.63111e-01,-5.03657e-01,-1.01689e+00,-1.50806e-01,-9.18125e-02,2.06534e-03,-4.01114e-03,-2.44903e-02,-1.78732e-01,-1.19179e-01,8.58017e-02,-3.73064e-01,-4.34175e-01,-4.35276e-01,7.51764e-01,3.67959e-01,-6.62184e-02,-2.65914e-02,-6.64122e-02,2.49329e-01,-3.41380e-03,-4.18958e-01,-9.01513e-01,-1.53480e+00,7.40200e-01,-1.40063e-01,3.01227e-02,1.09667e-01,-1.90304e-01,8.33873e-02,9.30852e-02,-3.85813e-01,1.14584e-01,7.06827e-01,9.00777e-01,5.33946e-01,-1.29859e-01,1.76709e-01,-1.24006e-01,-1.10675e-01,3.33931e-01,-8.32480e-02,-2.48197e-02,-2.80833e-01,8.90236e-01,-1.61115e-01,-9.78898e-02,2.64006e-01,-3.18476e-01,2.41572e-01,1.86105e-01,-5.22827e-02,6.44199e-02,-2.76968e-01,6.70373e-02,-1.71831e-01,3.38714e-01,-2.99201e-02,-2.72955e-01,1.17539e-01,-1.06104e-01,-8.24853e-02,-2.98432e-01,2.09028e-01,-8.18695e-01,2.92413e-01,-9.87039e-01,-7.56196e-02,-1.60781e-01,1.78824e-01,2.47716e-01,9.45238e-02,-4.70048e-01,-8.96257e-01,4.82620e-01,6.07779e-01,-3.94334e-01,-1.01300e+00,-7.69211e-01,-1.34898e-01,1.34191e-01,-3.95554e-01,2.08991e-01,1.36901e-01,
1.35426e-02,-1.28678e-01,-1.63569e-01,-3.27834e-02,5.92863e-02,6.88509e-01,-2.14962e-01,-8.69796e-01,4.27519e-01,1.28432e-01,6.58223e-01,-4.87749e-01,-2.35065e-01,-4.90312e-01,-2.43026e-02,5.84061e-02,8.98526e-02,-2.17762e-01,-4.73011e-01,-6.75550e-01,6.16962e-01,-5.41848e-01,-8.68123e-02,-2.04361e-01,1.17050e-01,5.79524e-02,2.98059e-02,-1.78401e-01,-2.48339e-01,-1.25454e+00,-4.20511e-01,-6.27751e-01,-1.67333e-01,1.15138e-01,1.27888e-01,2.89796e-01,-4.10281e-01,-4.46050e-01,5.79276e-02,1.63940e-01,1.28013e-01,-3.56698e-01,-2.47375e-01,-1.18672e-01,-4.83011e-02,3.29860e-01,-3.33615e-01,8.18901e-02,2.47454e-01,3.53081e-01,-2.29019e-01,-2.49274e-01,-3.30886e-02,1.17194e-01,7.55980e-02,-2.65401e-02,-2.74228e-01,-6.29091e-02,-2.17610e-01,-1.79271e-01,-1.17725e+00,-8.16243e-02,-6.55883e-02,1.36481e-01,2.60089e-01,-1.76385e-01,-1.58570e-01,1.63089e-01,2.11818e-01,9.51981e-03,-1.04545e+00,3.22246e-01,-1.05898e-01,-7.90306e-02,1.21527e-01,-5.07333e-02,1.24441e-02,2.33159e-01,-8.52302e-02,-6.50136e-02,-3.38192e-01,4.44054e-01,-1.49989e-01,-4.84060e-02,-5.90610e-02,-1.20722e-01,-3.14083e-03,1.81435e-02,-1.00390e-01,-2.75786e-01,-6.69925e-02,-4.24910e-01,3.74919e-02,2.21755e-02,-2.57880e-01,-1.11407e+00,-1.65322e+00,-5.63076e-01,5.01788e-01,4.76518e-01,
2.88211e-01,8.13054e-01,5.41514e-01,3.69059e-01,1.15109e-01,4.49105e-01,-3.26446e-02,4.09206e-01,7.30670e-01,9.97752e-02,-2.77172e-01,4.28093e-01,2.08392e-01,4.73320e-02,-6.90343e-02,-2.25526e-01,-1.91438e-01,2.07322e-01,-2.15042e-01,-1.00193e+00,-8.75537e-01,-5.26674e-01,-8.75316e-02,-5.28152e-02,-1.92019e-01,-1.80894e-01,-2.02928e-01,-4.05083e-01,-7.52940e-01,1.04267e-01,-1.41278e-01,-4.60226e-01,-1.98291e-01,-1.57759e-01,-2.01269e-02,-3.07157e-01,-6.21623e-01,-3.61303e-01,-4.72214e-01,-2.34034e-01,1.81907e-01,3.73301e-03,-3.10697e-02,-5.04075e-02,-2.11664e-03,1.39530e-01,1.67562e-01,7.88704e-02,1.22810e-01,-1.81088e-01,8.34858e-01,-5.90878e-02,-2.06849e-01,6.94488e-02,1.00997e-01,5.12020e-02,1.54103e-01,3.48785e-01,1.21162e-01,1.90437e-01,2.20717e-01,-1.22584e-01,-6.53830e-02,2.76608e-01,2.28704e-01,-1.46384e-03,1.80078e-01,1.06047e-02,8.55099e-02,2.68868e-01,-1.59179e-01,-3.96569e-01,-2.08353e-01,1.85358e-01,3.52281e-01,2.84719e-01,-7.98274e-02,-3.08491e-02,-6.92183e-02,2.91238e-01,2.48993e-01,-1.50454e+00,-5.17562e-01,-4.22262e-01,-4.72928e-01,-6.81217e-01,-3.31858e-01,-3.08069e-01,-6.26681e-01,1.51781e-01,9.62226e-02,6.89805e-02,-1.24422e+00,5.68750e-01,3.56225e-01,-5.19793e-01,1.80902e-01,-6.24540e-01,-5.56498e-01,4.66475e-03,
7.22244e-01,1.04542e+00,-5.66918e-01,3.63172e-01,7.61415e-01,-5.28786e-01,1.53253e-01,-6.74977e-02,2.20866e-01,9.17009e-01,8.42478e-01,-1.35379e-01,-3.54978e-01,-5.97847e-02,1.01801e-01,8.75808e-03,-3.74162e-01,-1.70691e-02,-2.92350e-01,-4.84406e-01,1.20305e+00,-3.13699e-02,8.79141e-02,-1.89009e-02,2.10781e-01,7.73659e-03,-4.86740e-03,-7.61267e-02,1.66256e-01,-3.55368e-01,1.10057e+00,-9.33014e-02,-1.89407e-01,-1.31069e-01,1.05396e-01,2.28587e-01,1.49313e-01,-2.00855e-01,1.83642e-01,-9.97207e-02,7.21895e-01,-1.60629e-01,5.46392e-02,1.31463e-01,-2.24460e-01,-1.92917e-01,3.72606e-01,-1.04695e-01,2.78983e-01,7.28736e-01,-9.06822e-02,3.94801e-01,1.96259e-03,2.18414e-01,-7.78500e-02,-5.59381e-01,2.05160e-02,2.06034e-01,1.18367e-01,-9.67960e-02,-4.70488e-02,2.87829e-01,-8.05661e-03,-1.78757e-02,6.33141e-02,-2.11155e-01,-2.56045e-01,-5.87795e-02,2.06652e-01,-4.71395e-01,4.45752e-01,8.40308e-02,8.20693e-02,9.19317e-02,9.24342e-02,1.81939e-02,2.61531e-02,-8.50516e-02,-5.78341e-03,-7.40359e-01,2.73748e-02,-6.80832e-01,-5.77180e-02,2.05538e-01,1.99299e-02,1.09810e-01,-4.15893e-01,-7.34999e-01,-1.13363e+00,-3.89659e-01,-3.35595e-01,-6.20368e-01,-1.31602e+00,-1.34738e+00,3.87051e-02,-2.76357e-02,-7.35088e-01,-2.50831e-01,3.55264e-01,2.74778e-01,
9.80099e-02,2.82494e-01,-2.74556e-01,-4.58268e-01,-3.81513e-01,-6.94816e-02,-9.34357e-01,-1.20138e+00,5.28179e-02,-2.86556e-01,7.04150e-02,1.37671e-01,3.92576e-01,-3.51325e-01,-6.75525e-01,-1.97558e-01,-7.97524e-01,-7.43371e-01,-9.78086e-01,-6.46776e-02,6.63431e-01,-4.36926e-01,-3.12853e-01,-6.73558e-01,-3.67684e-01,-3.18912e-02,2.27899e-01,9.16033e-02,-6.01868e-01,-4.73689e-01,-2.09889e-01,-2.39426e-01,-5.68386e-01,9.53586e-02,2.06217e-01,2.38720e-02,-1.11772e-01,1.20578e-01,-2.08827e-01,-3.10653e-01,-3.67049e-01,3.00070e-01,1.10730e-01,9.74891e-02,-2.64159e-01,6.76192e-02,-5.38342e-02,-6.47184e-02,-6.61197e-02,-4.91013e-02,1.48279e-01,7.97439e-02,-1.47158e-01,-7.66275e-03,1.19525e-01,2.35308e-01,3.02991e-01,7.08046e-03,-5.92148e-01,-1.83991e-01,-5.86458e-02,1.45664e-01,2.39835e-02,3.81909e-02,4.29740e-02,5.56254e-02,6.45326e-03,5.62857e-02,1.31124e-01,4.87224e-01,8.06161e-01,1.79858e-01,-2.87508e-01,1.03882e-01,-2.87126e-03,1.03585e-01,1.92168e-01,1.41250e-01,3.83064e-01,2.01612e-01,9.63227e-01,-1.80079e-01,-3.09490e-01,-4.39772e-01,-2.75529e-01,-3.18007e-01,-3.99778e-01,-1.27141e-01,-5.13746e-01,-9.60322e-01,3.80030e-01,3.86773e-01,6.18759e-01,1.46194e-01,1.82309e-01,1.90518e-01,2.27701e-02,2.26276e-01,-2.94415e-01,-9.91356e-01,
-5.68291e-02,-1.62153e-01,-3.99385e-01,-2.30507e-01,-2.83419e-01,3.31713e-01,-1.06242e+00,5.64720e-02,3.02646e-01,-3.52053e-01,-2.71690e-01,-4.76769e-01,-9.07908e-02,3.21214e-01,-1.06064e+00,1.39135e-01,9.05122e-02,1.54953e-01,7.37452e-02,-8.64711e-01,-1.50026e-01,6.84003e-01,-2.39512e-02,-1.58589e-01,-7.86415e-01,2.22344e-02,-2.67675e-02,7.06070e-02,-1.27859e-01,-3.71821e-01,-6.84523e-02,4.54964e-01,1.08790e-02,4.20578e-01,-4.17828e-01,7.94523e-03,1.27804e-02,-1.80334e-01,-2.29037e-01,-7.81349e-02,2.05954e-01,1.44536e-01,1.06760e-01,3.12307e-01,-4.53639e-02,6.48917e-02,7.52377e-02,-5.01124e-02,3.10740e-02,9.85354e-01,5.42353e-01,2.17654e-02,-7.51192e-02,-3.68923e-01,2.92570e-01,1.51355e-01,1.32221e-01,1.53283e-01,3.00660e-01,-8.89683e-01,9.94346e-01,-2.16550e-01,-1.28211e-01,-7.67374e-02,1.24250e-01,8.55678e-02,4.99782e-02,2.07227e-01,-4.38682e-02,-3.44923e-01,-1.45024e-01,-3.83620e-01,2.02046e-01,-1.19922e-01,-3.03446e-01,-2.61410e-01,-2.02358e-02,-3.59750e-01,-6.72444e-01,-5.32619e-01,-3.10828e-01,3.56605e-01,-3.67174e-01,-1.26933e-01,4.02585e-02,3.50913e-02,1.80542e-02,4.57272e-02,-3.33297e-02,2.68581e-01,4.44109e-02,1.82983e-02,-8.62350e-01,-7.65353e-02,-1.53368e-01,-3.49716e-01,-2.18133e-01,-7.66236e-01,-2.92607e-01,-1.43291e-01,
-2.18649e-01,-7.41488e-01,3.64070e-01,6.12812e-01,4.25890e-01,1.91743e-01,-4.40013e-01,-6.23570e-01,-4.26945e-01,-6.02905e-01,-2.16326e-01,-4.26688e-01,1.16705e-01,9.40520e-03,1.92153e-01,3.07577e-01,9.36190e-02,-1.64572e-02,-2.61724e-01,3.62840e-01,3.26557e-01,3.72008e-01,5.81087e-02,1.85968e-01,-2.66297e-03,3.50453e-02,4.09401e-02,-8.43405e-02,5.07820e-02,2.40373e-01,6.07616e-01,-2.89986e-01,-3.90419e-01,-7.74681e-01,-3.08484e-01,-4.77989e-02,5.32050e-02,1.24682e-01,1.50792e-01,-3.39685e-01,-3.83450e-01,-4.07400e-01,-6.34395e-02,3.29431e-01,2.82305e-01,-2.82747e-03,9.32864e-02,-1.55059e-01,-5.61909e-01,-3.36172e-02,-2.05963e-02,3.20750e-01,-4.37331e-01,-4.56187e-01,-2.85302e-01,-5.53063e-02,-4.58173e-02,9.18125e-02,4.04477e-01,-3.28898e-01,1.91903e-01,1.96185e-01,2.18834e-01,-4.47236e-02,-2.26033e-01,-1.84980e-03,1.63242e-01,1.57797e-01,1.63692e-01,-3.31852e-01,1.84002e-01,3.40031e-02,4.75688e-04,1.05387e-01,3.17123e-01,-7.19213e-02,1.11189e-01,2.15199e-01,5.20113e-03,-3.29344e-01,6.30617e-01,-3.14932e-01,-5.46299e-02,-4.96180e-02,-3.62671e-02,3.16026e-02,1.92491e-01,1.80366e-01,-7.26822e-01,-5.00621e-01,5.94407e-01,-2.15044e-02,2.95364e-01,-5.09145e-01,1.44259e-01,-5.43619e-02,-9.75063e-01,-3.49669e-01,-4.25877e-01,-4.36050e-02,
-7.91045e-01,-9.69858e-01,-1.98405e-01,-8.35115e-01,-5.26525e-01,-1.65294e+00,8.07279e-01,7.33938e-01,-4.92377e-01,-4.64148e-01,-5.16069e-01,4.82154e-01,2.27143e-01,-8.47978e-03,-6.07005e-02,-3.19469e-01,-1.46815e-01,-3.34462e-01,-4.26435e-01,-8.00229e-01,7.29668e-01,1.87547e-01,2.18815e-01,1.95417e-01,-1.00787e-02,-1.54476e-01,-2.12945e-02,3.58888e-01,-1.12396e-01,-5.93952e-01,2.97127e-01,-3.01435e-01,6.97806e-02,1.63839e-01,-1.92628e-02,4.36331e-02,1.98110e-01,-4.54591e-02,1.56788e-01,4.07181e-01,3.83882e-01,-2.39345e-01,-1.28034e-02,1.91717e-01,-2.34911e-01,3.19396e-02,3.06280e-02,-4.20422e-02,-1.96073e-01,2.21096e-01,6.34779e-01,2.08408e-02,9.46823e-02,2.88059e-02,-1.21951e-01,1.43253e-01,1.04769e-01,2.38643e-01,-3.42021e-01,-4.63789e-01,1.06842e+00,-5.41682e-02,1.45424e-01,-5.16053e-02,8.12949e-02,2.84650e-01,-7.10137e-02,4.91415e-02,-1.64025e-01,5.44340e-01,-2.68188e-01,-5.34264e-01,-5.40559e-01,-3.39785e-01,5.99132e-02,-2.50718e-01,-6.41353e-01,1.62796e-01,-2.67769e-01,-1.88493e-01,-9.09598e-01,-2.98447e-01,-1.52322e-01,-5.68618e-02,2.08624e-01,1.54240e-01,-9.26116e-01,-2.33750e-01,-3.74264e-01,-2.19063e-01,-3.33749e-02,3.42469e-02,-1.01002e-01,-3.77991e-01,-1.64689e-01,3.29338e-01,-4.75020e-01,-1.04722e+00,-5.85697e-01,6.25051e-02,
8.75110e-02,7.25558e-01,5.83674e-03,-1.13139e-01,-1.08596e-01,1.76458e-02,4.44241e-01,4.95033e-01,-9.61093e-01,8.94581e-01,8.03075e-01,1.61642e-01,-4.22537e-01,2.33442e-01,8.20835e-03,-6.66788e-02,-1.45229e-01,-4.52647e-01,-1.10154e-01,2.43264e-01,3.07182e-01,1.67535e-01,-7.92565e-02,-1.47354e-02,1.11369e-01,-3.66776e-02,1.81674e-01,3.14537e-01,5.16824e-01,1.23916e-01,-2.85028e-01,1.38950e-01,-4.89037e-02,1.01789e-01,1.68946e-01,-1.20411e-01,-2.39236e-01,-1.36903e-01,4.71050e-01,1.71766e-01,2.07724e-01,-3.56526e-02,-1.73142e-01,-3.35922e-02,1.03241e-01,-1.34196e-01,-3.78647e-01,-6.25327e-01,-1.25767e+00,-2.11767e-01,2.27762e-01,-1.59275e-01,-1.06068e-01,2.18927e-01,-8.96324e-03,-7.56781e-02,1.78133e-01,6.89598e-02,-2.41659e-01,-1.40572e+00,7.40922e-01,-5.63681e-02,-1.12541e-02,-2.26076e-03,2.41825e-02,-3.02396e-01,9.95300e-02,4.56127e-01,-2.71623e-01,-1.56308e+00,-3.00833e-02,2.23954e-01,-5.43766e-02,-4.21297e-02,-2.88082e-02,-9.80462e-04,1.44218e-01,3.97872e-01,-2.74136e-02,-1.09248e+00,-7.93842e-01,6.57294e-01,-4.54292e-02,1.94264e-01,-9.75126e-02,1.05488e-01,1.62231e-01,3.38193e-02,-1.01440e-01,-5.55688e-01,4.92482e-01,-7.40808e-01,-9.03577e-02,3.69916e-01,4.33572e-01,1.93643e-01,1.70684e-01,1.17118e-01,4.75448e-02,8.90386e-01,
3.50881e-01,8.54715e-01,-6.42017e-01,7.02251e-02,7.94236e-02,-1.70322e-01,8.37077e-01,3.68253e-01,3.50306e-01,-3.60554e-01,-1.51769e-01,4.17707e-01,1.50467e-01,-4.44174e-01,2.69912e-01,-2.63053e-02,9.10180e-02,3.26449e-01,8.39385e-03,-4.95259e-01,4.86196e-01,8.16481e-01,-2.50734e-01,-3.03304e-01,-1.56911e-02,4.43611e-02,2.41906e-01,3.04502e-01,1.08995e-01,-4.76818e-01,4.79620e-04,3.00199e-01,-3.06579e-01,2.08683e-01,3.00438e-01,-1.14586e-01,-2.87716e-01,4.59370e-02,4.06872e-01,1.45211e-01,-3.08621e-01,-4.61841e-02,1.45624e-01,-1.98599e-01,6.26830e-02,2.38026e-01,-1.91227e-01,-7.36992e-02,1.91346e-01,8.67418e-02,-3.81015e-01,-7.07290e-02,7.01848e-02,-1.56459e-02,1.33735e-01,-3.59063e-02,-1.64225e-01,-2.18400e-01,1.07843e-01,-1.00977e+00,-1.10966e+00,2.87815e-02,3.03955e-02,2.94348e-01,-3.13924e-01,4.73017e-02,2.73455e-01,-5.42767e-01,-2.96169e-01,-5.32016e-01,2.80749e-01,1.37094e-01,-1.37196e-01,1.26126e-01,-9.71116e-02,-2.18255e-01,5.87445e-02,-2.14976e-01,-8.13475e-02,-6.53482e-03,1.01716e+00,-1.03180e-01,1.88570e-02,-1.30329e-02,1.70017e-01,4.24573e-02,-3.65216e-01,-1.01619e+00,3.13817e-02,-8.26150e-03,2.87606e-01,2.20541e-01,4.28697e-01,1.89878e-01,1.15144e-01,4.80302e-01,4.06194e-01,-5.02929e-02,1.05971e+00,-3.78672e-01,
4.65016e-01,3.12281e-01,1.77312e-01,2.73813e-03,1.13517e-01,-3.16147e-02,-5.34417e-01,2.05711e-01,8.09822e-02,-9.02438e-01,-4.33803e-01,-2.92479e-01,2.45554e-01,1.87113e-01,-1.39807e-01,1.14065e-01,-1.30669e-01,1.87289e-01,6.71332e-02,-1.03591e-01,-2.75751e-01,1.25020e-02,-1.29372e-01,-7.72634e-02,-2.02280e-01,-8.50937e-02,-7.87553e-02,1.54483e-02,1.21445e-01,2.18696e-01,1.98243e-01,-7.27787e-02,-1.62876e-01,-1.16917e-01,-7.13949e-02,-1.43882e-01,-7.68730e-02,8.47743e-02,-9.73061e-02,2.76630e-01,3.62655e-01,-8.91623e-02,5.66568e-02,5.05878e-02,2.70880e-01,1.94760e-01,-3.84120e-03,-9.59334e-02,-3.66947e-01,-3.30115e-01,-2.35147e-01,-1.55096e-01,6.79539e-02,1.10113e-01,6.98652e-02,1.83204e-01,2.99882e-01,-3.73297e-02,5.47989e-01,3.18188e-01,5.65837e-01,5.68630e-01,1.96612e-01,2.75454e-01,2.44587e-01,4.29662e-01,1.13400e-02,3.90022e-02,1.59734e-01,-5.75395e-01,3.03846e-01,1.49926e-02,-3.83529e-01,-1.71299e-01,-2.27430e-01,-3.62351e-01,-1.10721e-01,-1.67946e-01,-1.53609e-01,-3.35837e-01,-1.05317e-01,-1.08393e+00,6.45503e-02,-2.33711e-01,-3.40549e-01,-2.99734e-01,-1.06648e-01,3.14181e-01,-1.18907e-01,-3.19319e-01,4.78373e-01,-3.18515e-01,2.55564e-01,8.43349e-02,3.08432e-01,4.17414e-01,6.18399e-02,2.20775e-01,3.22383e-01,-4.74378e-02,
5.40760e-01,5.67183e-01,1.27763e-01,-1.77637e-01,1.71613e-01,3.97596e-01,-2.43360e-01,6.88217e-01,6.48905e-01,-6.00010e-01,-7.64603e-03,-2.12318e-01,1.03804e-01,2.23317e-01,5.20571e-02,-2.94262e-01,-3.45393e-02,5.60210e-02,1.30640e-01,3.49541e-01,-6.45758e-01,-2.65135e-02,-1.61422e-01,-2.23092e-02,-1.13886e-01,-1.10891e-01,-4.05924e-02,-7.12269e-02,-8.70547e-02,3.37604e-02,5.46179e-02,2.08630e-01,1.63674e-01,1.76674e-01,-3.28574e-01,-1.98098e-01,-1.96778e-01,-2.64849e-01,-2.55442e-02,1.99543e-01,1.66271e-01,6.68012e-01,3.07092e-01,7.01625e-01,6.92955e-02,-2.57876e-01,1.55927e-02,2.85969e-02,4.16796e-01,2.07845e-01,-1.10020e+00,8.87354e-02,3.86450e-02,1.32487e-01,2.65441e-01,8.36281e-02,4.61075e-02,7.07498e-02,-2.32290e-01,-2.99533e-01,-8.58925e-01,1.31084e-01,-5.09012e-02,-2.57771e-02,1.20119e-01,1.69684e-01,-8.39874e-02,-1.93382e-01,-2.60293e-01,3.51842e-01,-2.05461e-01,1.10003e-01,-4.95584e-02,1.46506e-01,3.29899e-02,8.22833e-02,2.85173e-02,-1.94145e-03,-1.90493e-02,4.20554e-01,9.75554e-02,2.78174e-01,-1.02372e-01,7.22248e-02,6.08080e-03,-5.21153e-02,3.89177e-02,1.34958e-02,8.90653e-03,-2.05224e-01,4.98689e-01,-3.31441e-01,-2.81846e-01,2.05748e-01,4.13657e-02,-3.33517e-02,3.98223e-01,2.32769e-02,-6.62630e-01,-5.92647e-01,
7.93019e-01,7.48930e-01,3.26051e-01,-1.93691e-01,1.52634e-01,3.26700e-01,8.87758e-02,-7.12463e-01,-2.88773e-01,3.03624e-01,6.81990e-01,6.26355e-02,-3.01696e-01,-2.68912e-01,-4.94798e-01,-4.13931e-01,-5.58810e-01,-6.81738e-01,-3.91572e-01,-1.04665e+00,6.79155e-01,-2.39731e-01,2.23653e-01,9.27571e-02,1.51936e-01,-2.53370e-01,-1.91429e-01,2.31569e-01,-1.68669e-01,1.13134e-01,2.16693e-01,1.01025e-01,1.19954e-01,8.54980e-02,7.88902e-02,1.52781e-01,3.28010e-01,2.17653e-01,3.17947e-01,-2.86047e-02,-2.14851e-01,-1.94659e-01,-5.12451e-02,1.15681e-01,6.77696e-03,-9.27111e-02,5.56115e-02,-4.54559e-02,2.80636e-01,-3.77695e-01,-4.76376e-01,-6.27223e-02,3.41933e-02,-5.13111e-02,-2.98085e-02,3.17412e-03,-7.51140e-02,-2.82307e-01,4.54877e-02,4.56282e-01,7.66389e-02,3.42764e-01,-9.12743e-03,1.76592e-01,-5.86080e-02,1.87512e-01,9.71357e-02,-3.33042e-02,-2.66191e-02,2.83749e-01,8.20376e-01,-6.14830e-01,-3.78440e-01,7.34163e-02,7.54637e-02,-4.85240e-01,-4.29837e-01,-1.35011e-01,-3.58805e-01,-1.19739e-01,3.46282e-01,-5.77177e-01,-1.29428e+00,-1.43679e+00,-9.20337e-01,-4.45723e-01,-6.27943e-01,-3.62342e-01,-5.04837e-01,3.31041e-01,-1.27862e-02,-1.77640e-01,-1.07707e-01,1.10610e-02,5.69078e-01,4.02577e-01,4.57819e-01,-2.36641e-01,-9.97541e-01,1.40829e-02,
3.13141e-02,
3.41929e-01,
-1.76390e-01,
-6.98010e-02,
-2.53317e-01,
-1.27279e-01,
-4.06638e-01,
-1.00037e-01,
2.14103e-01,
2.63544e-01,
-2.75537e-01,
1.19999e-01,
2.86409e-01,
3.46528e-01,
-7.45862e-02,
-5.74634e-01,
-4.55234e-02,
-3.19970e-01,
3.55662e-01,
-9.21511e-02,
2.15093e-02,
-2.75223e-01,
7.12935e-01,
3.47588e-01,
-1.84629e-01,
-4.21547e-01,
-5.52498e-01,
-2.02880e-01,
6.64319e-02,
-1.96717e-01,
-4.27337e-01,
4.70351e-02,
5.30009e-01,
2.79718e-01,
-9.95209e-02,
-2.58154e-01,
3.79619e-01,
-3.13058e-01,
-1.27793e-01,
-3.20783e-02,
-3.08429e-01,
-2.23911e-01,
-1.26824e-01,
-8.80833e-01,
9.32722e-02,
-2.80190e-01,
2.74163e-01,
9.41759e-02,
2.75458e-01,
-1.42522e-01,
1.43236e-01,3.28571e-02,2.39153e-01,1.31151e-02,-1.90209e-01,5.07126e-02,6.65089e-03,8.55512e-02,3.17944e-01,-1.94477e-01,-1.39627e-01,2.16358e-02,-2.67820e-03,5.60175e-02,-4.57398e-01,-3.07152e-01,1.07359e-01,2.71837e-01,-6.63941e-02,-3.40517e-01,3.08354e-01,1.30359e-01,-7.59923e-01,1.96768e-01,-1.25956e-02,-2.53548e-01,-1.85681e-01,-3.08790e-01,9.21349e-02,8.00691e-02,-9.36168e-02,-4.60952e-01,7.92585e-02,3.56855e-02,1.50385e-01,-6.62403e-02,-4.02340e-01,3.10333e-01,-2.31448e-01,-1.84586e-02,2.16802e-01,-4.96164e-01,5.60035e-02,-7.09039e-02,1.64548e-01,1.29783e-01,-7.01085e-02,-2.41851e-01,-2.61203e-01,2.60920e-01,
1.37572e-01,-4.97137e-02,1.31691e-01,3.49953e-01,-1.39360e-02,4.84529e-01,-2.40891e-02,-4.55035e-01,2.47819e-01,-2.54946e-01,-1.01479e-01,-3.90786e-01,-4.91029e-02,-2.11596e-01,-1.44076e-01,-5.83757e-03,-4.10905e-01,6.53837e-03,7.63254e-02,-2.56736e-02,5.52669e-01,-5.30915e-03,-2.46010e-01,-9.52624e-02,2.21752e-02,1.36411e-01,2.03709e-01,-1.36998e-01,1.61606e-01,1.08448e-01,-6.91415e-02,-3.97290e-02,6.84010e-03,1.61750e-01,-2.13937e-02,8.13333e-02,-1.75742e-01,-1.68212e-02,1.00983e-01,1.21245e-01,1.40595e-01,1.13898e-01,2.67344e-01,1.31631e-01,1.30808e-02,-2.77121e-01,5.65212e-02,1.42328e-01,-1.34493e-01,6.04190e-02,
-1.21984e-02,4.53668e-02,6.64740e-02,2.11336e-01,-2.59945e-01,-2.54314e-01,2.29876e-02,2.40443e-01,1.59245e-01,2.14070e-02,2.77898e-01,9.31360e-02,7.66437e-02,-2.68113e-02,2.97757e-01,7.82909e-02,-8.39709e-02,-1.68012e-01,3.02267e-01,1.11749e-01,4.25572e-02,1.06635e-01,4.03519e-02,-6.61056e-01,-3.05354e-02,2.46941e-02,1.16136e-01,-1.82202e-01,-3.62374e-01,2.00121e-02,1.75834e-01,2.54385e-01,1.06823e-01,-3.73433e-01,1.41948e-01,1.02946e-01,-1.82853e-01,-3.43965e-01,-3.41199e-01,3.29245e-01,1.47555e-01,4.98353e-02,1.20343e-01,1.51679e-01,-1.90230e-01,2.11851e-01,1.04415e-01,-7.28094e-02,6.04782e-02,1.51587e-01,
7.64233e-01,1.23801e-01,-1.43588e-01,-1.91233e-01,2.98483e-02,-6.05165e-02,-1.30582e-01,-2.07951e-01,2.53427e-01,-2.46136e-02,7.22332e-02,-8.36601e-03,-1.21539e-01,-2.50799e-02,1.70867e-01,1.22908e-02,-1.84709e-01,2.01842e-01,-2.71233e-01,1.33294e-01,-2.81267e-01,2.48878e-02,4.59278e-02,1.26013e-02,-3.59743e-01,-1.76496e-01,-3.53364e-01,-9.08447e-02,-2.34877e-01,1.73284e-01,4.62568e-02,-6.71052e-01,2.15563e-01,8.22073e-02,2.19432e-01,-3.64777e-01,-2.00900e-02,-1.98735e-02,1.06780e-01,-3.38592e-01,-4.01277e-01,-1.90671e-02,7.79393e-02,-2.82348e-01,-1.57659e-02,-2.45053e-01,-4.37910e-02,-2.07884e-01,-4.45291e-01,-1.29057e-01,
3.57145e-01,2.14721e-01,-6.96952e-02,1.84326e-01,-5.24146e-02,-3.71977e-02,-1.36775e-01,3.37643e-02,-9.14447e-02,1.12348e-02,-5.56854e-02,2.10302e-01,-1.29326e-01,-3.89195e-02,1.21411e-02,1.15666e-01,-9.41885e-02,8.29580e-02,8.91477e-02,3.05248e-01,-1.82435e-01,1.75285e-01,3.90048e-01,3.58368e-01,1.38779e-01,1.60601e-01,-2.33799e-02,3.39669e-01,1.66099e-02,1.11738e-01,9.24293e-02,6.03721e-02,3.76485e-01,5.24693e-02,1.88524e-02,9.71957e-02,7.06744e-02,5.27791e-02,8.26136e-02,2.21647e-01,-6.58735e-02,-6.99167e-02,5.19207e-01,6.19921e-02,1.45592e-01,-2.34813e-01,-2.46329e-01,1.44517e-03,-4.85043e-02,-2.13439e-01,
-1.32102e-01,-1.04998e-01,4.32378e-02,-5.63864e-02,8.44619e-02,-1.14716e-01,1.30832e-01,5.69774e-02,-1.83419e-02,6.71052e-02,6.65347e-02,-9.70578e-02,1.73400e-01,-9.41347e-02,1.82397e-01,2.03756e-01,-1.31454e-01,1.34983e-01,2.14536e-01,5.28578e-03,2.75925e-01,-1.43490e-01,-5.40492e-02,1.18620e-01,1.81239e-01,-1.64983e-01,9.01794e-02,-5.91945e-02,-2.31470e-02,-1.88098e-01,2.83628e-01,1.81209e-01,-1.60062e-04,-1.20415e-01,4.13806e-02,1.81619e-01,1.30592e-01,5.79006e-02,-2.97644e-02,-1.14608e-01,-9.57956e-03,2.54004e-01,-2.57129e-02,1.76229e-01,1.52183e-01,-9.71000e-02,-1.18906e-02,-1.00324e-01,1.21796e-01,-1.74274e-01,
-1.80080e-01,1.65306e-01,-3.92158e-02,2.92358e-01,-6.86497e-02,-9.17371e-02,2.35160e-01,2.07346e-01,1.10904e-01,1.72083e-01,3.32976e-02,9.89729e-03,-5.99426e-02,2.34702e-01,-1.88535e-01,-1.62905e-01,-1.94265e-01,-2.83418e-01,2.13769e-01,-1.17788e-02,8.72593e-02,2.41867e-01,-8.73251e-02,1.47169e-01,-1.72084e-01,-7.34273e-02,1.13217e-01,-1.01611e-02,-3.60250e-02,1.01610e-01,1.35686e-01,-1.48795e-01,-1.96655e-01,6.90163e-02,-9.56278e-02,1.59917e-01,-1.27336e-01,-7.11655e-02,8.79751e-03,2.85998e-01,2.05173e-01,-1.51772e-01,3.74959e-02,-1.81416e-01,5.38204e-02,1.25359e-01,1.25919e-01,-2.95535e-01,2.33500e-01,9.22938e-02,
-3.30928e-01,-2.03444e-01,-1.61412e-01,-5.32915e-02,-6.37699e-02,7.96300e-02,3.73844e-03,-5.45972e-01,-5.65216e-02,1.26257e-01,-4.52816e-01,-2.25022e-02,1.72783e-01,-2.77003e-02,-4.82012e-02,-2.41307e-01,-6.06113e-02,-2.51895e-02,1.06785e-01,4.75622e-01,-3.25906e-01,-2.55095e-01,6.41794e-02,2.96166e-01,1.09345e-01,1.28183e-01,3.22626e-01,1.46619e-01,1.57644e-01,-2.57178e-01,-1.35637e-01,-5.52775e-02,-5.64550e-01,1.06422e-01,-2.20048e-01,1.53150e-01,3.92704e-02,8.67980e-02,-1.32514e-02,1.37642e-02,-1.11506e-01,-1.17405e-01,-7.40494e-02,1.19858e-01,1.72541e-01,2.02579e-02,-3.35188e-02,-1.03487e-01,-1.48367e-01,8.09015e-03,
-6.01222e-01,-1.73925e-01,-2.08692e-01,-2.31484e-01,5.19986e-02,1.93548e-01,1.61815e-01,-2.58932e-01,-1.12974e-01,1.88845e-01,1.65191e-01,8.73154e-02,1.81413e-01,2.33600e-01,4.63804e-02,3.27757e-01,4.33996e-02,9.64929e-02,-5.20300e-02,1.47620e-01,8.32467e-02,6.83183e-02,-1.83194e-02,-2.73331e-01,-5.38681e-02,4.98064e-02,1.14761e-01,-1.61260e-02,7.82128e-02,-4.75951e-03,-1.18527e-01,-6.06726e-02,-6.05058e-02,-3.09227e-01,-5.19162e-01,-2.63745e-01,8.43850e-02,-1.57515e-01,-7.49826e-02,3.24618e-01,1.52173e-01,2.70668e-01,1.39449e-01,9.11758e-02,-2.39772e-01,-8.84045e-02,1.68192e-01,-1.20899e-01,3.08764e-02,3.06597e-01,
1.90902e-01,1.30739e-01,2.39573e-01,1.74807e-01,-1.08852e-01,1.06301e-01,-3.57925e-02,1.39520e-01,-4.39323e-02,-8.82463e-02,-2.66389e-01,-2.79790e-02,4.21682e-02,-1.07980e-02,3.92123e-02,-2.00177e-01,9.76515e-02,-2.17554e-01,1.55963e-02,-6.69631e-02,-2.78113e-01,4.97328e-01,-4.72621e-03,-1.37194e-01,7.21600e-02,-3.73901e-01,-4.51267e-02,-1.69066e-01,1.11907e-01,2.69148e-01,5.67211e-02,3.56971e-02,1.34852e-01,1.81631e-01,-3.12989e-02,5.01711e-02,-6.31028e-02,1.00218e-01,-2.47081e-02,1.20650e-01,2.65646e-02,-3.06324e-03,1.47133e-01,-1.02010e-01,7.67445e-02,-8.82443e-03,8.19460e-02,2.12854e-01,1.48213e-01,-2.16112e-01,
-9.61782e-02,
-1.74188e-01,
1.67940e-01,
-7.60704e-02,
-2.58369e-01,
3.25441e-01,
6.38488e-01,
-6.66179e-02,
3.51589e-01,
5.92683e-01,
8.95214e-02,6.64278e-02,-7.04959e-02,-8.43120e-02,-1.78876e-01,-1.40499e-01,3.56981e-03,3.14688e-02,1.01460e-01,1.58428e-01,
-5.79307e-02,-7.84642e-02,-6.46390e-02,-4.44610e-02,1.47180e-01,9.05738e-02,1.83377e-03,9.47502e-04,-6.87346e-02,-1.02735e-01,
-2.79423e-01,-1.34728e-02,-7.19908e-02,-4.06561e-01,7.62412e-02,-1.57304e-02,-7.95035e-02,1.29497e-01,1.41222e-01,5.96931e-03,
1.05239e-01,-4.21747e-02,1.44201e-01,-2.07261e-01,-8.66099e-03,1.17744e-01,-1.31486e-01,1.46824e-01,4.02063e-02,-7.34417e-02,
-1.96497e-01,-1.28981e-01,-1.53540e-01,-2.89373e-01,9.98468e-02,1.03323e-01,-4.41418e-02,-2.00377e-02,-1.23196e-01,1.62916e-01,
-4.26120e-02,1.32682e-02,2.13949e-01,-3.93051e-01,-6.39069e-02,1.41728e-02,-2.10766e-02,7.92314e-02,-1.00786e-01,6.30348e-02,
-1.25446e-01,-9.93762e-02,5.85530e-02,-2.89515e-01,2.02451e-02,-2.22076e-01,9.64797e-02,-7.64318e-02,-2.87765e-02,1.35914e-01,
1.30713e-01,1.19468e-01,-1.13394e-01,-1.97196e-01,5.97197e-02,6.49783e-02,-9.85185e-03,2.40340e-01,-1.08318e-01,2.91632e-02,
-9.84895e-02,-9.96911e-02,6.05026e-03,-1.18584e-01,-3.09945e-02,1.09229e-01,9.64194e-02,1.15575e-01,6.73032e-02,-3.55802e-02,
-4.99924e-02,2.10925e-02,-1.91398e-02,-1.40431e-01,-1.54697e-01,2.09377e-01,-1.08896e-01,1.32779e-01,-1.12265e-01,1.49236e-01,
3.41633e-01,
7.65586e-02,
4.07034e-01,
-5.96258e-01,
-1.97958e-01,
8.61953e-01,
-5.87263e-01,
-6.83994e-01,
6.34112e-01,
9.03958e-01,
