// Neural Network File Format by Kyle Julian, Stanford 2016
2,784,10,784,
784,200,10,
0,
0,0,0,0,0,0,0,0,0,0,0,0,0,0,0,0,0,0,0,0,0,0,0,0,0,0,0,0,0,0,0,0,0,0,0,0,0,0,0,0,0,0,0,0,0,0,0,0,0,0,0,0,0,0,0,0,0,0,0,0,0,0,0,0,0,0,0,0,0,0,0,0,0,0,0,0,0,0,0,0,0,0,0,0,0,0,0,0,0,0,0,0,0,0,0,0,0,0,0,0,0,0,0,0,0,0,0,0,0,0,0,0,0,0,0,0,0,0,0,0,0,0,0,0,0,0,0,0,0,0,0,0,0,0,0,0,0,0,0,0,0,0,0,0,0,0,0,0,0,0,0,0,0,0,0,0,0,0,0,0,0,0,0,0,0,0,0,0,0,0,0,0,0,0,0,0,0,0,0,0,0,0,0,0,0,0,0,0,0,0,0,0,0,0,0,0,0,0,0,0,0,0,0,0,0,0,0,0,0,0,0,0,0,0,0,0,0,0,0,0,0,0,0,0,0,0,0,0,0,0,0,0,0,0,0,0,0,0,0,0,0,0,0,0,0,0,0,0,0,0,0,0,0,0,0,0,0,0,0,0,0,0,0,0,0,0,0,0,0,0,0,0,0,0,0,0,0,0,0,0,0,0,0,0,0,0,0,0,0,0,0,0,0,0,0,0,0,0,0,0,0,0,0,0,0,0,0,0,0,0,0,0,0,0,0,0,0,0,0,0,0,0,0,0,0,0,0,0,0,0,0,0,0,0,0,0,0,0,0,0,0,0,0,0,0,0,0,0,0,0,0,0,0,0,0,0,0,0,0,0,0,0,0,0,0,0,0,0,0,0,0,0,0,0,0,0,0,0,0,0,0,0,0,0,0,0,0,0,0,0,0,0,0,0,0,0,0,0,0,0,0,0,0,0,0,0,0,0,0,0,0,0,0,0,0,0,0,0,0,0,0,0,0,0,0,0,0,0,0,0,0,0,0,0,0,0,0,0,0,0,0,0,0,0,0,0,0,0,0,0,0,0,0,0,0,0,0,0,0,0,0,0,0,0,0,0,0,0,0,0,0,0,0,0,0,0,0,0,0,0,0,0,0,0,0,0,0,0,0,0,0,0,0,0,0,0,0,0,0,0,0,0,0,0,0,0,0,0,0,0,0,0,0,0,0,0,0,0,0,0,0,0,0,0,0,0,0,0,0,0,0,0,0,0,0,0,0,0,0,0,0,0,0,0,0,0,0,0,0,0,0,0,0,0,0,0,0,0,0,0,0,0,0,0,0,0,0,0,0,0,0,0,0,0,0,0,0,0,0,0,0,0,0,0,0,0,0,0,0,0,0,0,0,0,0,0,0,0,0,0,0,0,0,0,0,0,0,0,0,0,0,0,0,0,0,0,0,0,0,0,0,0,0,0,0,0,0,0,0,0,0,0,0,0,0,0,0,0,0,0,0,0,0,0,0,0,0,0,0,0,0,0,0,0,0,0,0,0,0,0,0,0,0,0,0,0,0,0,0,0,0,0,0,0,0,0,0,0,0,0,0,0,0,0,0,0,0,0,0,0,0,0,0,0,0,0,0,0,0,0,0,0,0,0,0,0,0,0,0,0,0,0,0,0,0,0,0,0,0,0,0,0,0,0,0,0,0,0,0,0,0,0,0,0,0,0,0,0,0,0,0,0,0,0,0,0,0,0,0,0,0,0,0,0,0,0,0,0,0,0,0,0,0,0,0,0,0,0,0,0,0,0,0,0,0,0,0,0,0,0,0,0,0,0,
255,255,255,255,255,255,255,255,255,255,255,255,255,255,255,255,255,255,255,255,255,255,255,255,255,255,255,255,255,255,255,255,255,255,255,255,255,255,255,255,255,255,255,255,255,255,255,255,255,255,255,255,255,255,255,255,255,255,255,255,255,255,255,255,255,255,255,255,255,255,255,255,255,255,255,255,255,255,255,255,255,255,255,255,255,255,255,255,255,255,255,255,255,255,255,255,255,255,255,255,255,255,255,255,255,255,255,255,255,255,255,255,255,255,255,255,255,255,255,255,255,255,255,255,255,255,255,255,255,255,255,255,255,255,255,255,255,255,255,255,255,255,255,255,255,255,255,255,255,255,255,255,255,255,255,255,255,255,255,255,255,255,255,255,255,255,255,255,255,255,255,255,255,255,255,255,255,255,255,255,255,255,255,255,255,255,255,255,255,255,255,255,255,255,255,255,255,255,255,255,255,255,255,255,255,255,255,255,255,255,255,255,255,255,255,255,255,255,255,255,255,255,255,255,255,255,255,255,255,255,255,255,255,255,255,255,255,255,255,255,255,255,255,255,255,255,255,255,255,255,255,255,255,255,255,255,255,255,255,255,255,255,255,255,255,255,255,255,255,255,255,255,255,255,255,255,255,255,255,255,255,255,255,255,255,255,255,255,255,255,255,255,255,255,255,255,255,255,255,255,255,255,255,255,255,255,255,255,255,255,255,255,255,255,255,255,255,255,255,255,255,255,255,255,255,255,255,255,255,255,255,255,255,255,255,255,255,255,255,255,255,255,255,255,255,255,255,255,255,255,255,255,255,255,255,255,255,255,255,255,255,255,255,255,255,255,255,255,255,255,255,255,255,255,255,255,255,255,255,255,255,255,255,255,255,255,255,255,255,255,255,255,255,255,255,255,255,255,255,255,255,255,255,255,255,255,255,255,255,255,255,255,255,255,255,255,255,255,255,255,255,255,255,255,255,255,255,255,255,255,255,255,255,255,255,255,255,255,255,255,255,255,255,255,255,255,255,255,255,255,255,255,255,255,255,255,255,255,255,255,255,255,255,255,255,255,255,255,255,255,255,255,255,255,255,255,255,255,255,255,255,255,255,255,255,255,255,255,255,255,255,255,255,255,255,255,255,255,255,255,255,255,255,255,255,255,255,255,255,255,255,255,255,255,255,255,255,255,255,255,255,255,255,255,255,255,255,255,255,255,255,255,255,255,255,255,255,255,255,255,255,255,255,255,255,255,255,255,255,255,255,255,255,255,255,255,255,255,255,255,255,255,255,255,255,255,255,255,255,255,255,255,255,255,255,255,255,255,255,255,255,255,255,255,255,255,255,255,255,255,255,255,255,255,255,255,255,255,255,255,255,255,255,255,255,255,255,255,255,255,255,255,255,255,255,255,255,255,255,255,255,255,255,255,255,255,255,255,255,255,255,255,255,255,255,255,255,255,255,255,255,255,255,255,255,255,255,255,255,255,255,255,255,255,255,255,255,255,255,255,255,255,255,255,255,255,255,255,255,255,255,255,255,255,255,255,255,255,255,255,255,255,255,255,255,255,255,255,255,255,255,255,255,255,255,255,255,255,255,255,255,255,255,255,255,255,255,255,255,255,255,255,255,255,255,255,255,255,255,255,255,255,255,255,255,255,255,255,255,255,255,255,255,255,255,255,255,255,255,255,255,255,255,255,255,255,255,255,255,255,255,255,255,255,255,255,255,255,255,255,255,255,255,255,255,255,255,255,255,255,255,255,255,255,255,255,255,255,255,255,255,255,255,255,
0,0,0,0,0,0,0,0,0,0,0,0,0,0,0,0,0,0,0,0,0,0,0,0,0,0,0,0,0,0,0,0,0,0,0,0,0,0,0,0,0,0,0,0,0,0,0,0,0,0,0,0,0,0,0,0,0,0,0,0,0,0,0,0,0,0,0,0,0,0,0,0,0,0,0,0,0,0,0,0,0,0,0,0,0,0,0,0,0,0,0,0,0,0,0,0,0,0,0,0,0,0,0,0,0,0,0,0,0,0,0,0,0,0,0,0,0,0,0,0,0,0,0,0,0,0,0,0,0,0,0,0,0,0,0,0,0,0,0,0,0,0,0,0,0,0,0,0,0,0,0,0,0,0,0,0,0,0,0,0,0,0,0,0,0,0,0,0,0,0,0,0,0,0,0,0,0,0,0,0,0,0,0,0,0,0,0,0,0,0,0,0,0,0,0,0,0,0,0,0,0,0,0,0,0,0,0,0,0,0,0,0,0,0,0,0,0,0,0,0,0,0,0,0,0,0,0,0,0,0,0,0,0,0,0,0,0,0,0,0,0,0,0,0,0,0,0,0,0,0,0,0,0,0,0,0,0,0,0,0,0,0,0,0,0,0,0,0,0,0,0,0,0,0,0,0,0,0,0,0,0,0,0,0,0,0,0,0,0,0,0,0,0,0,0,0,0,0,0,0,0,0,0,0,0,0,0,0,0,0,0,0,0,0,0,0,0,0,0,0,0,0,0,0,0,0,0,0,0,0,0,0,0,0,0,0,0,0,0,0,0,0,0,0,0,0,0,0,0,0,0,0,0,0,0,0,0,0,0,0,0,0,0,0,0,0,0,0,0,0,0,0,0,0,0,0,0,0,0,0,0,0,0,0,0,0,0,0,0,0,0,0,0,0,0,0,0,0,0,0,0,0,0,0,0,0,0,0,0,0,0,0,0,0,0,0,0,0,0,0,0,0,0,0,0,0,0,0,0,0,0,0,0,0,0,0,0,0,0,0,0,0,0,0,0,0,0,0,0,0,0,0,0,0,0,0,0,0,0,0,0,0,0,0,0,0,0,0,0,0,0,0,0,0,0,0,0,0,0,0,0,0,0,0,0,0,0,0,0,0,0,0,0,0,0,0,0,0,0,0,0,0,0,0,0,0,0,0,0,0,0,0,0,0,0,0,0,0,0,0,0,0,0,0,0,0,0,0,0,0,0,0,0,0,0,0,0,0,0,0,0,0,0,0,0,0,0,0,0,0,0,0,0,0,0,0,0,0,0,0,0,0,0,0,0,0,0,0,0,0,0,0,0,0,0,0,0,0,0,0,0,0,0,0,0,0,0,0,0,0,0,0,0,0,0,0,0,0,0,0,0,0,0,0,0,0,0,0,0,0,0,0,0,0,0,0,0,0,0,0,0,0,0,0,0,0,0,0,0,0,0,0,0,0,0,0,0,0,0,0,0,0,0,0,0,0,0,0,0,0,0,0,0,0,0,0,0,0,0,0,0,0,0,0,0,0,0,0,0,0,0,0,0,0,0,0,0,0,0,0,0,0,0,0,0,0,0,0,0,0,0,0,0,0,0,0,0,0,0,0,0,0,0,0,0,0,0,0,0,0,0,0,0,0,0,0,0,0,0,0,0,0,0,0,0,0,0,0,0,0,0,0,0,0,0,0,0,0,0,0,0,0,0,0,0,0,0,0,0,0,0,0,0,0,0,0,0,0,0,0,0,0,0,0,0,0,0,0,0,0,0,0,0,0,0,0,0,0,0,0,0,0,0,0,0,
1,1,1,1,1,1,1,1,1,1,1,1,1,1,1,1,1,1,1,1,1,1,1,1,1,1,1,1,1,1,1,1,1,1,1,1,1,1,1,1,1,1,1,1,1,1,1,1,1,1,1,1,1,1,1,1,1,1,1,1,1,1,1,1,1,1,1,1,1,1,1,1,1,1,1,1,1,1,1,1,1,1,1,1,1,1,1,1,1,1,1,1,1,1,1,1,1,1,1,1,1,1,1,1,1,1,1,1,1,1,1,1,1,1,1,1,1,1,1,1,1,1,1,1,1,1,1,1,1,1,1,1,1,1,1,1,1,1,1,1,1,1,1,1,1,1,1,1,1,1,1,1,1,1,1,1,1,1,1,1,1,1,1,1,1,1,1,1,1,1,1,1,1,1,1,1,1,1,1,1,1,1,1,1,1,1,1,1,1,1,1,1,1,1,1,1,1,1,1,1,1,1,1,1,1,1,1,1,1,1,1,1,1,1,1,1,1,1,1,1,1,1,1,1,1,1,1,1,1,1,1,1,1,1,1,1,1,1,1,1,1,1,1,1,1,1,1,1,1,1,1,1,1,1,1,1,1,1,1,1,1,1,1,1,1,1,1,1,1,1,1,1,1,1,1,1,1,1,1,1,1,1,1,1,1,1,1,1,1,1,1,1,1,1,1,1,1,1,1,1,1,1,1,1,1,1,1,1,1,1,1,1,1,1,1,1,1,1,1,1,1,1,1,1,1,1,1,1,1,1,1,1,1,1,1,1,1,1,1,1,1,1,1,1,1,1,1,1,1,1,1,1,1,1,1,1,1,1,1,1,1,1,1,1,1,1,1,1,1,1,1,1,1,1,1,1,1,1,1,1,1,1,1,1,1,1,1,1,1,1,1,1,1,1,1,1,1,1,1,1,1,1,1,1,1,1,1,1,1,1,1,1,1,1,1,1,1,1,1,1,1,1,1,1,1,1,1,1,1,1,1,1,1,1,1,1,1,1,1,1,1,1,1,1,1,1,1,1,1,1,1,1,1,1,1,1,1,1,1,1,1,1,1,1,1,1,1,1,1,1,1,1,1,1,1,1,1,1,1,1,1,1,1,1,1,1,1,1,1,1,1,1,1,1,1,1,1,1,1,1,1,1,1,1,1,1,1,1,1,1,1,1,1,1,1,1,1,1,1,1,1,1,1,1,1,1,1,1,1,1,1,1,1,1,1,1,1,1,1,1,1,1,1,1,1,1,1,1,1,1,1,1,1,1,1,1,1,1,1,1,1,1,1,1,1,1,1,1,1,1,1,1,1,1,1,1,1,1,1,1,1,1,1,1,1,1,1,1,1,1,1,1,1,1,1,1,1,1,1,1,1,1,1,1,1,1,1,1,1,1,1,1,1,1,1,1,1,1,1,1,1,1,1,1,1,1,1,1,1,1,1,1,1,1,1,1,1,1,1,1,1,1,1,1,1,1,1,1,1,1,1,1,1,1,1,1,1,1,1,1,1,1,1,1,1,1,1,1,1,1,1,1,1,1,1,1,1,1,1,1,1,1,1,1,1,1,1,1,1,1,1,1,1,1,1,1,1,1,1,1,1,1,1,1,1,1,1,1,1,1,1,1,1,1,1,1,1,1,1,1,1,1,1,1,1,1,1,1,1,1,1,1,1,1,1,1,1,1,1,1,1,1,1,1,1,1,1,1,1,1,1,1,1,1,1,1,1,1,1,1,1,1,1,1,1,1,1,1,1,1,1,1,1,1,1,1,1,1,1,1,1,1,1,1,1,
-4.95536e-03,2.79846e-02,-2.65218e-02,-2.71609e-02,6.85559e-03,3.99269e-03,1.53994e-02,-1.07351e-02,2.62148e-02,1.54168e-02,-1.28685e-02,1.07103e-02,2.91489e-02,2.71482e-03,1.77824e-02,4.37809e-03,1.24310e-02,2.60768e-03,-7.69412e-03,3.56183e-02,-3.32190e-02,-2.76087e-02,4.76300e-03,8.44839e-03,1.08846e-02,-2.45206e-02,3.46590e-03,-1.27575e-02,-5.01094e-03,-2.29143e-02,-3.86858e-03,-3.27195e-03,-1.38347e-02,8.13856e-03,-3.22857e-02,2.07381e-02,8.85811e-03,1.61173e-02,2.26595e-02,-2.80980e-02,1.87727e-02,1.53327e-02,3.25229e-02,2.93766e-02,-3.04242e-02,2.34038e-02,-1.71849e-04,-1.25948e-02,1.99204e-02,-2.19759e-02,-1.05143e-02,-2.74622e-02,1.07608e-02,-8.93072e-03,-1.95342e-02,-3.08427e-02,7.05738e-03,9.71801e-03,3.27393e-02,-8.28964e-03,-8.05120e-03,1.69599e-03,-2.77481e-02,-6.02440e-03,2.67372e-02,-3.17414e-02,1.70131e-02,-1.45138e-02,1.04399e-02,-6.97575e-03,8.03453e-03,4.30887e-03,2.12092e-02,3.41749e-02,5.04385e-03,-1.11512e-02,-3.53912e-03,2.10806e-02,-2.79226e-02,-1.54991e-02,-2.93513e-02,-2.87446e-02,1.67139e-02,4.05369e-03,2.29829e-02,2.69930e-02,-3.45980e-02,1.39853e-02,-3.68161e-03,8.41999e-03,-5.60955e-03,2.40412e-02,-2.05371e-02,3.85709e-03,1.70536e-02,-1.02843e-02,5.59061e-03,-3.78885e-03,1.18372e-02,-1.99548e-02,2.62207e-02,-2.41444e-02,1.07877e-02,-2.98911e-03,5.21130e-03,2.10072e-02,6.42777e-03,-9.44264e-03,1.16063e-02,-2.54611e-02,7.14750e-03,1.84886e-02,1.61505e-02,-7.95249e-03,-3.02543e-03,-1.19433e-02,-1.82993e-02,-4.91037e-03,-3.33784e-02,2.54367e-02,3.15719e-02,-1.47242e-02,-1.40972e-02,-1.75878e-02,8.22221e-03,2.92496e-02,5.42807e-03,1.15863e-02,2.67378e-02,-3.60284e-02,-2.81556e-02,1.60443e-02,-1.07258e-02,3.71775e-02,-1.22211e-03,-1.02218e-02,-2.39557e-02,-2.09954e-02,-3.47269e-02,-4.39463e-03,2.46872e-02,-1.06431e-02,2.94102e-02,2.88815e-02,8.65462e-03,-1.84016e-02,8.60710e-03,-2.84425e-02,-9.84533e-03,-3.49279e-02,-1.16890e-02,1.27315e-03,-2.59823e-02,-1.50265e-02,-1.73430e-02,-1.30940e-02,3.17275e-02,1.93940e-02,-2.03022e-02,1.34861e-02,2.36888e-02,-9.34774e-03,-2.49860e-03,3.26182e-02,2.10808e-03,2.30157e-02,1.36795e-02,5.44511e-04,2.60384e-02,5.26496e-04,-2.56720e-02,3.25639e-02,-1.89301e-02,-2.45668e-02,-1.83318e-03,-6.05628e-03,-3.59458e-02,-4.16670e-03,6.86255e-03,-1.24820e-02,-1.17202e-02,3.84114e-03,4.27550e-03,2.32535e-03,-1.72966e-03,1.41577e-02,-9.19382e-03,2.16437e-02,-3.58733e-02,-1.60079e-03,-2.66023e-02,3.59634e-02,3.11240e-03,-5.02352e-04,9.83599e-03,-1.13984e-02,-8.81537e-03,2.38470e-02,2.44347e-02,7.29005e-03,2.99126e-02,-4.90779e-03,2.12906e-02,1.96443e-02,3.03800e-02,1.06495e-02,2.05888e-03,-2.80303e-02,-1.03371e-02,3.23662e-02,-2.24406e-02,1.80293e-02,-2.06610e-02,-1.82521e-02,6.52628e-04,1.39320e-02,-3.87579e-04,2.87300e-02,-1.50799e-02,-3.20271e-02,6.33252e-03,2.40648e-02,-1.73008e-02,1.49990e-02,-2.01890e-02,-1.27062e-02,3.06891e-02,-8.47209e-04,1.53851e-02,1.32963e-02,2.08094e-02,-2.16531e-04,8.13675e-03,2.14539e-02,-3.67330e-02,-3.07039e-02,3.99863e-03,4.52573e-03,1.06052e-02,1.22007e-02,2.03432e-02,-1.57948e-02,-2.99454e-02,2.44360e-02,-2.89719e-02,-3.11270e-02,2.07872e-02,-1.70498e-02,-2.83442e-02,-6.06891e-03,1.54877e-02,8.61441e-03,-6.03823e-03,2.59472e-02,1.17063e-02,4.29040e-03,-6.24476e-03,1.64973e-03,-1.04032e-02,-2.08583e-02,-1.07945e-02,-3.00221e-02,2.40783e-02,-1.56535e-02,-2.31483e-02,3.28245e-02,-4.91815e-03,1.18085e-02,3.45474e-02,-1.07124e-02,9.12515e-03,1.62172e-02,2.92674e-02,1.45565e-02,-1.00585e-02,-3.04168e-02,1.74082e-02,-3.53178e-02,3.58058e-02,3.07919e-02,2.78922e-02,-2.00952e-02,1.91602e-02,2.32934e-02,-3.92550e-03,-2.50824e-02,-2.08511e-02,-3.44649e-02,-1.67002e-02,2.51149e-02,5.08751e-03,3.13643e-02,9.64665e-03,-2.20738e-02,1.91189e-02,2.57862e-02,-1.09105e-02,1.47050e-03,-1.01130e-02,-2.52225e-02,3.04871e-02,-2.36707e-02,2.62782e-02,-6.07432e-03,2.39550e-02,3.05247e-03,-2.68140e-02,-3.51569e-02,7.37112e-03,2.59893e-02,3.32923e-02,-3.25192e-02,9.90716e-03,-9.27360e-03,-2.86150e-02,-1.75252e-02,-2.52248e-02,1.40363e-02,-1.75595e-02,-2.97866e-02,-2.82910e-02,-6.80786e-03,2.52318e-02,-3.26106e-02,-2.48218e-02,2.27510e-02,-7.53850e-03,-2.16639e-03,5.08089e-03,-3.12051e-02,-2.66335e-02,-2.73020e-02,-2.79216e-02,-1.60887e-02,3.32861e-02,-3.07149e-02,3.25372e-02,-2.98720e-02,1.92485e-02,1.24370e-03,-2.14546e-03,-1.81026e-02,-3.61653e-02,-3.04591e-02,-2.05110e-02,-4.25947e-02,-1.28400e-02,-3.58451e-02,-8.90557e-03,-2.67259e-02,3.13140e-02,4.51514e-02,-1.66361e-02,3.29670e-03,2.21241e-02,-3.40025e-02,3.29491e-03,-1.92015e-02,-1.64944e-02,-1.17174e-02,1.23178e-02,6.46273e-03,2.05385e-02,-3.15730e-02,-1.41719e-02,-1.55047e-02,-1.09623e-02,3.17308e-02,2.22731e-02,-1.84544e-03,1.93655e-02,-2.43405e-03,-1.12259e-02,5.08302e-03,8.87168e-03,-3.00645e-02,1.86773e-02,-2.33242e-02,1.83665e-02,-1.84772e-02,4.06477e-02,-3.11337e-02,2.48662e-02,-2.61372e-02,3.36642e-02,5.81490e-03,-3.82207e-02,-1.54380e-02,-7.60219e-03,2.58708e-02,4.38027e-03,1.50605e-02,-1.45034e-02,-3.34582e-02,-7.79281e-03,-2.99876e-02,2.00375e-02,1.90812e-02,2.05610e-02,-3.00441e-02,5.21820e-03,-1.21018e-02,2.01488e-03,-3.76176e-02,-3.39497e-02,3.45062e-02,-2.48557e-02,3.03544e-02,5.82392e-03,-2.00463e-02,2.11116e-02,-4.22759e-02,1.35755e-03,-2.17665e-02,-2.84969e-02,-3.39238e-02,-2.64937e-02,-1.90333e-03,2.26755e-02,-5.57776e-03,3.31624e-02,1.43128e-03,3.39981e-02,-2.73275e-02,-1.03515e-02,3.45319e-03,3.03569e-02,6.66959e-03,-3.64341e-02,-3.21231e-02,-7.36072e-04,-1.19369e-02,-3.28392e-02,1.14629e-02,4.33626e-03,-4.13841e-03,1.95909e-02,2.93282e-02,-1.77676e-02,-2.74289e-02,-2.12729e-02,-1.96505e-02,-1.61845e-02,-3.10785e-02,-3.67161e-02,3.09134e-02,-1.81432e-03,-2.23244e-02,2.18373e-02,-2.37160e-03,-2.89686e-02,2.38888e-02,2.49390e-03,3.28336e-02,3.12052e-02,2.73521e-02,-2.72525e-04,-1.79190e-02,4.14166e-03,-4.49724e-02,-2.14787e-02,-2.29156e-03,-4.17268e-02,2.29638e-02,-2.92934e-02,-2.69248e-02,-2.59311e-02,-2.25805e-02,1.69155e-02,2.10606e-02,2.30773e-02,-3.17927e-02,-1.95087e-02,-2.00245e-02,-3.93777e-04,4.96588e-03,2.73895e-02,-1.79349e-02,2.09003e-02,-3.25574e-02,1.02293e-02,3.23435e-02,-2.00600e-02,-2.54008e-03,1.96634e-02,1.63744e-02,6.05191e-03,-2.74265e-02,-4.15636e-02,-9.53208e-03,4.31036e-03,5.97320e-03,-1.27058e-03,5.38589e-04,1.15825e-02,-5.21157e-03,1.73541e-02,-7.27187e-03,1.52701e-02,2.58903e-02,-3.39218e-02,-1.81987e-02,-2.90039e-02,-1.83252e-02,2.06083e-02,1.29775e-02,1.03462e-02,-5.43040e-04,3.47897e-02,5.27513e-03,5.42339e-03,1.57460e-02,3.61659e-02,1.40517e-02,4.57402e-03,1.12162e-02,-2.84951e-02,-1.43256e-03,-2.59764e-02,-2.24983e-02,2.92914e-03,3.04883e-02,3.07707e-02,-2.08575e-02,-1.39008e-02,-1.13347e-02,-1.22422e-02,2.95204e-02,-3.26399e-02,-2.23172e-02,-1.46960e-02,1.50646e-02,-9.37862e-03,-8.16667e-05,-2.20922e-03,-2.82779e-02,-3.39193e-02,2.88324e-02,2.97304e-02,1.10945e-02,7.38836e-03,-8.46026e-03,-5.06571e-03,2.91623e-02,-7.30206e-03,2.86049e-02,-2.60504e-02,2.36195e-02,-1.74138e-03,-1.48425e-02,-2.63261e-02,-1.67296e-02,-2.59028e-02,1.33990e-02,1.48373e-02,2.40143e-02,2.19646e-02,-1.04435e-02,2.67331e-02,-1.68924e-02,-1.63031e-02,-7.36977e-03,2.94709e-02,-2.63633e-02,2.52318e-02,1.13251e-02,-1.34938e-03,-2.07017e-02,1.96775e-02,2.47635e-02,5.07648e-04,-2.31229e-03,1.16183e-02,2.37381e-02,-1.07400e-03,-2.25217e-02,-7.05272e-03,-3.53716e-02,1.77689e-02,-2.06252e-02,1.15131e-02,1.07542e-02,-2.23865e-03,-2.04330e-02,-7.89293e-03,1.55414e-03,-3.37963e-02,-1.37248e-02,-2.69161e-02,-3.19537e-02,-2.37112e-02,1.68889e-02,-3.46957e-02,6.95040e-03,-3.43472e-02,2.25180e-02,-1.89191e-02,1.23255e-02,2.00405e-02,-7.17692e-03,-2.67807e-02,3.20380e-02,-2.49880e-02,-7.17364e-03,-6.30240e-04,2.18651e-02,-1.18031e-02,-6.71325e-03,-3.23740e-02,-3.50032e-03,2.51695e-02,-1.33403e-02,-1.66658e-02,3.41328e-02,-4.45090e-03,1.72026e-02,-2.22289e-02,-3.47338e-02,1.98523e-02,-2.93521e-02,-3.28580e-03,-1.80804e-02,3.50258e-03,1.54075e-02,-2.39436e-02,2.44746e-02,-1.04014e-02,-1.13032e-02,2.39597e-03,9.66155e-03,2.34680e-02,-1.15523e-02,6.73156e-03,-3.61146e-03,8.21543e-03,-2.23952e-02,-2.37194e-02,8.57612e-03,7.86991e-03,-1.97256e-02,2.91612e-02,3.22295e-02,2.50295e-02,8.83227e-03,-2.32778e-02,2.19643e-02,1.69829e-02,-1.45026e-02,-2.69962e-02,-2.79356e-02,-1.52237e-02,-2.05341e-02,-2.36502e-02,-1.05550e-02,1.40045e-02,4.75499e-03,2.00512e-02,1.33852e-02,2.85299e-02,-2.54953e-02,-2.84209e-02,-3.20886e-03,-3.19668e-02,-1.31248e-02,-2.56871e-02,-2.30581e-02,-2.57635e-02,6.45326e-03,-2.65323e-02,-2.35741e-02,3.51761e-03,-2.36071e-02,-2.72361e-02,2.56889e-02,2.82241e-02,-2.51505e-02,8.97544e-03,-1.59457e-02,-1.83940e-02,-4.57436e-03,1.15580e-02,-1.32784e-02,-1.81878e-02,-1.03761e-02,2.29779e-03,-2.58588e-02,-5.43200e-03,-9.99581e-03,2.52763e-02,4.17849e-03,-8.12344e-03,1.80499e-02,-6.21104e-03,7.85572e-03,-1.83257e-02,1.71895e-02,-3.01457e-02,5.74870e-03,-3.12316e-02,3.56568e-04,4.22690e-03,-1.79263e-02,-1.71201e-02,-2.19243e-02,1.17015e-03,-1.51010e-02,2.90689e-02,3.40972e-02,1.26222e-02,-3.52229e-03,-2.94045e-02,-5.05368e-03,-2.01947e-02,1.60782e-02,-2.45027e-02,-2.34349e-02,-2.70593e-02,-3.27363e-03,-1.58054e-02,-3.16889e-02,-2.77788e-02,-3.51573e-02,3.22173e-02,1.87944e-02,-1.12678e-02,1.42076e-02,-3.08931e-02,1.55599e-02,7.08738e-03,-1.89588e-02,-2.80439e-02,-2.12477e-02,-2.37604e-02,8.23756e-03,-2.71344e-02,2.83278e-02,1.42483e-02,-2.16106e-02,1.67159e-02,1.43969e-02,-1.85666e-02,-3.63508e-03,1.70037e-02,1.21631e-02,3.47360e-02,-1.02315e-02,1.99146e-02,1.88215e-02,-1.42494e-02,2.57062e-02,-2.80030e-02,2.94350e-02,-2.85259e-02,2.12171e-02,7.14052e-03,-2.74637e-02,1.54667e-02,3.04243e-02,3.55499e-02,-1.66109e-02,5.82727e-03,1.64837e-02,1.38138e-02,-1.76871e-02,3.41478e-02,-2.01226e-02,-1.92294e-04,6.98658e-03,-6.44481e-03,1.16547e-02,-3.67001e-03,2.20713e-02,1.17456e-03,-3.58029e-03,-1.82486e-02,1.25204e-02,-2.47385e-02,-3.28847e-02,-2.06692e-02,1.63505e-02,-2.79258e-02,2.84602e-02,-1.11213e-02,5.37706e-03,
8.26946e-03,2.23565e-02,-1.30486e-03,2.82126e-02,-1.20760e-02,-2.52035e-02,2.67511e-02,1.87821e-02,-1.34294e-02,-2.37310e-02,2.37029e-02,3.42178e-02,-3.10882e-02,1.56638e-02,-7.38094e-03,1.34874e-02,-6.12482e-03,2.72343e-02,-2.24707e-02,1.96930e-02,-1.96401e-03,-2.68690e-02,3.02869e-02,-2.90276e-02,-1.37255e-02,-3.42439e-02,1.80437e-02,-2.21690e-02,1.49054e-02,-2.54194e-02,9.86132e-03,-2.54081e-02,2.13321e-02,3.37640e-02,2.49798e-02,2.91293e-02,-1.52386e-02,2.81870e-02,-7.36719e-03,1.44846e-02,-1.22644e-02,-1.72879e-02,2.79424e-03,4.12298e-04,-3.03879e-02,-1.67115e-02,1.31803e-03,-1.76113e-02,3.15983e-02,1.06303e-02,1.25118e-03,3.45694e-02,-3.54397e-02,-7.59292e-03,-1.32139e-02,-1.25990e-02,-1.09810e-02,1.50974e-02,3.57086e-02,6.39414e-03,-1.07111e-02,-3.39718e-02,-3.34631e-03,3.12833e-02,1.78374e-02,-1.56212e-02,-2.08075e-02,1.99887e-02,2.68261e-02,-8.04028e-03,-3.47211e-02,-2.99216e-02,-6.90517e-03,6.54623e-03,2.94738e-02,5.45470e-03,-2.24958e-03,-2.89283e-02,1.03521e-02,2.28127e-02,-5.32039e-03,-2.89149e-02,2.76070e-02,-1.06716e-02,1.80757e-02,6.24131e-03,1.78747e-02,-2.43995e-02,-1.72604e-02,2.51713e-02,1.68314e-02,-2.02116e-02,-3.67260e-02,1.11537e-03,2.52802e-02,-4.23956e-03,-2.39017e-02,-2.19506e-02,-2.45292e-02,9.19128e-04,8.20359e-03,9.98900e-03,7.55824e-03,1.68384e-02,-8.96814e-03,-2.41531e-02,-7.30414e-03,-4.20927e-03,-1.40113e-02,-3.56152e-02,1.43309e-02,1.65825e-02,-2.62294e-02,-1.30208e-02,-2.36884e-02,-3.27902e-02,4.67151e-03,-1.10108e-02,5.33512e-03,-2.33975e-02,2.53679e-02,2.09958e-02,-1.27007e-02,-3.54742e-02,7.12723e-03,1.70395e-02,-3.47519e-02,-8.63266e-03,-1.05986e-02,-3.71265e-02,4.30798e-03,-2.03037e-02,-2.16482e-02,-3.99058e-03,1.86940e-02,9.06483e-03,-1.57746e-02,-1.76187e-02,3.39994e-02,-1.04268e-02,3.28656e-02,-3.44512e-02,1.37168e-03,2.38020e-02,2.55908e-02,-9.15701e-03,1.92889e-02,-8.41653e-04,8.38363e-03,-2.20291e-02,-1.01677e-02,1.84175e-02,-1.84597e-02,3.10581e-02,-1.99690e-03,-2.30100e-02,-7.86501e-03,-2.05444e-02,-2.78753e-02,-3.67680e-02,5.67223e-03,4.83557e-03,1.54159e-02,8.77395e-03,-2.51802e-03,-2.18689e-03,2.08043e-02,-2.74506e-02,-3.11407e-02,-9.80434e-03,-2.81931e-02,2.94739e-03,2.27852e-02,1.47804e-02,-2.45848e-02,-3.06391e-02,8.25698e-03,5.76229e-04,2.15465e-02,9.00848e-03,-3.50440e-02,-1.06119e-02,8.35674e-03,1.51113e-02,-3.86994e-03,-3.05288e-02,-4.24040e-03,3.47186e-02,8.46205e-03,3.02559e-02,-3.43851e-02,-8.58495e-03,-1.63499e-02,2.20517e-02,2.25199e-02,-9.04726e-03,-3.50172e-02,-2.80341e-03,3.25258e-02,-2.30427e-02,3.29940e-02,2.72090e-02,3.39653e-02,6.82016e-03,-2.63390e-02,-2.56898e-02,-2.90990e-02,-5.86737e-03,-4.42281e-02,-1.93009e-02,1.60928e-02,-2.27590e-02,-1.95616e-02,-1.12433e-02,-7.23882e-03,-3.07437e-02,1.51497e-02,2.56739e-02,3.08105e-02,-3.05223e-02,-1.22161e-03,-2.40831e-03,1.75410e-02,-3.46060e-02,3.06330e-02,-7.03452e-03,-2.91222e-02,-1.26622e-02,1.12929e-03,-1.21627e-02,-2.41776e-02,3.55029e-02,7.11020e-03,-5.95290e-03,-4.17633e-03,-3.75526e-02,-1.91262e-03,-1.33996e-02,-2.09696e-02,2.42570e-02,-1.60264e-02,-1.04542e-03,2.38565e-02,-1.06772e-02,-1.59862e-02,1.09101e-02,3.07226e-03,-2.30343e-02,-1.72424e-02,1.06612e-02,-1.48954e-03,-1.98148e-02,1.18090e-02,1.21205e-02,5.49548e-03,-1.88435e-03,2.81551e-02,-1.70206e-02,6.01903e-03,-1.17832e-02,-2.20332e-02,8.35327e-03,-3.00579e-03,-2.91260e-02,-1.89246e-02,-9.11697e-03,2.88904e-02,-3.04420e-02,2.77255e-02,-2.76227e-02,2.64265e-02,1.79677e-02,-3.30141e-03,1.34922e-02,1.02669e-02,-2.06091e-02,-2.22119e-02,-2.44606e-02,2.62003e-02,-3.49370e-02,-3.40899e-02,-1.31145e-02,-1.17634e-02,8.87975e-03,-3.16973e-02,-5.07099e-03,1.66608e-02,-8.11488e-03,2.24243e-02,-1.79133e-03,-2.48528e-02,-4.53923e-03,-1.54239e-02,9.44364e-03,3.20707e-02,-1.20777e-02,-7.50407e-03,-3.41709e-02,2.13940e-02,-3.25560e-02,2.67513e-02,-3.20934e-02,-1.24629e-02,4.62505e-04,1.00973e-02,2.53277e-02,1.94451e-02,1.21818e-02,1.80205e-02,1.85159e-02,-1.37947e-03,1.06892e-02,-1.34213e-02,-7.73369e-03,-2.32769e-03,2.66463e-02,-1.08426e-02,1.89363e-02,3.81751e-03,-2.14217e-02,-1.88439e-02,-2.06596e-03,-2.51711e-02,3.63711e-02,1.00074e-02,1.94892e-03,8.91504e-03,1.13760e-02,-3.00599e-02,9.53376e-03,-3.43257e-02,1.39465e-02,-3.47640e-02,2.22298e-02,9.39416e-03,-3.23611e-02,2.75104e-02,7.12617e-03,2.66823e-03,2.83739e-02,8.62447e-03,2.65796e-02,1.09718e-02,-1.51203e-02,1.91458e-02,1.00826e-02,-2.12427e-02,2.23775e-02,1.24368e-02,2.39218e-02,-2.24790e-02,-1.29142e-03,-8.48496e-03,-3.07269e-02,-6.21143e-03,5.02575e-03,1.55493e-02,-3.46259e-02,2.65633e-02,2.48116e-04,2.94718e-02,-1.48761e-02,-2.49158e-02,-3.06871e-02,-3.11271e-02,5.69658e-03,-3.05817e-02,-2.62025e-02,1.86231e-02,1.78817e-02,-3.69552e-02,-3.05623e-02,-3.49362e-03,-3.87806e-03,-1.86252e-02,7.14856e-03,3.63245e-02,2.78615e-02,-1.85194e-02,-3.61589e-02,5.88567e-03,-3.08693e-02,2.47028e-02,-7.42253e-03,-9.45940e-03,-3.08352e-02,7.60018e-03,8.73830e-03,1.12159e-03,-3.39233e-03,2.78375e-02,3.50529e-02,1.56498e-03,1.04803e-02,-6.55102e-03,7.09385e-03,-3.42974e-02,-8.59387e-03,-1.82574e-03,-1.07273e-02,1.57762e-02,2.23532e-02,3.40949e-02,-7.92200e-03,2.49734e-02,-1.03657e-02,1.37166e-02,2.58785e-02,-3.02904e-02,1.91813e-02,4.46784e-03,-6.06090e-03,-2.63339e-02,-1.61126e-02,-1.67523e-02,-9.81830e-03,-1.52424e-02,1.99394e-02,-8.77139e-03,8.42943e-03,1.41972e-02,-3.36593e-02,-2.36399e-02,1.11471e-02,1.64618e-02,-2.72516e-02,-1.19120e-02,-3.48570e-02,6.96651e-03,-3.74526e-02,-8.97493e-03,-5.75056e-03,-2.57671e-02,1.47220e-02,3.19172e-02,1.17476e-02,-1.48036e-02,7.94005e-03,-8.76361e-03,1.19421e-03,-3.11907e-02,-3.42462e-02,-3.58732e-02,-1.65003e-02,-2.09088e-02,-1.47495e-02,-7.18586e-03,2.25943e-02,3.12742e-02,1.59106e-02,2.93331e-02,2.72056e-02,2.38989e-02,-3.17539e-02,-7.55775e-03,-1.96695e-02,1.19499e-02,-1.09197e-02,2.66042e-02,2.11284e-02,-1.00641e-02,-1.81365e-02,2.42088e-03,1.70625e-02,2.59812e-02,-3.49124e-03,2.84480e-02,7.91505e-03,-1.45173e-02,7.01429e-03,1.77121e-02,2.50328e-02,-2.39092e-02,-7.28128e-03,-9.84068e-03,-2.31824e-02,-3.49453e-02,-1.68334e-02,-1.72514e-02,-3.22263e-02,2.20178e-02,2.70633e-02,2.03410e-02,1.78033e-02,-1.13762e-02,-1.15060e-02,-1.04915e-02,-1.75227e-02,7.40907e-04,2.41076e-02,-1.74194e-02,2.57435e-02,2.60357e-05,-1.32722e-03,1.72602e-02,-4.52269e-03,-7.16703e-03,1.87035e-02,-4.81844e-03,-1.94380e-02,-2.33753e-02,2.37495e-03,-2.74014e-02,3.61571e-03,5.73206e-03,-6.95194e-03,2.80628e-02,2.26309e-02,2.66531e-02,1.22886e-02,-3.43662e-02,-1.66119e-02,1.41139e-03,2.13328e-02,1.69918e-02,-3.27789e-02,-4.31167e-03,-4.14904e-02,-2.07553e-02,1.71318e-02,3.14679e-03,-2.44956e-02,-9.83325e-03,-1.32816e-02,1.57702e-02,-2.39259e-02,-7.77877e-03,5.69973e-03,-2.41326e-02,2.82766e-02,2.60000e-02,3.24312e-03,-2.61392e-02,-1.69754e-02,3.36766e-02,3.30863e-02,8.08795e-03,-7.79569e-03,4.41686e-04,5.75915e-03,3.11042e-03,-4.43182e-03,-3.54146e-02,-3.27117e-02,-9.69591e-03,7.32583e-03,6.10261e-03,-3.14932e-02,1.26771e-02,2.92311e-02,2.58770e-02,-3.17873e-02,1.57280e-02,-3.28022e-02,3.07013e-03,-1.37095e-02,-3.47082e-02,2.12069e-02,1.61670e-02,1.03802e-02,1.72713e-02,-1.05225e-02,-2.99979e-02,1.18928e-02,3.18540e-03,-1.29855e-02,-2.68694e-02,-2.47816e-02,-7.62138e-03,-1.28555e-02,-3.74857e-03,3.08964e-04,-2.96762e-03,-3.83817e-02,-5.00097e-03,-1.34702e-02,2.02673e-02,1.22027e-02,-3.34418e-02,2.92209e-02,-1.26933e-02,-6.33143e-03,2.67862e-02,-2.55367e-02,-6.46883e-03,-3.26878e-02,1.16776e-02,8.44703e-03,1.31288e-02,-3.18140e-02,3.33423e-02,-1.32300e-02,-1.23156e-02,-2.38084e-02,1.04314e-02,3.11039e-02,-1.43548e-02,-4.55553e-04,1.57199e-02,2.59155e-02,2.41013e-02,-2.56064e-02,2.59157e-02,-7.00644e-03,-8.54503e-03,-1.83683e-02,-1.87827e-02,-2.47735e-02,-1.18689e-02,-2.39886e-02,-8.49597e-03,-2.20387e-02,-2.73213e-03,-1.83680e-02,2.85911e-03,-1.57424e-02,-1.69383e-02,-2.43148e-03,-4.80814e-03,-1.02067e-02,2.64695e-02,3.20258e-02,2.12032e-02,-1.56953e-02,4.49674e-03,3.31070e-02,-1.14160e-02,8.16705e-03,7.82337e-03,-2.36993e-02,-2.31360e-02,2.09362e-02,1.02123e-02,9.75193e-04,3.69170e-02,3.69147e-02,2.30331e-02,-2.85682e-02,3.10720e-02,-1.61763e-02,-9.08680e-05,-2.81160e-02,3.04491e-02,2.32336e-02,7.14490e-03,3.41600e-02,1.60228e-02,3.67932e-03,1.10765e-02,1.48238e-02,-2.87944e-02,1.72608e-02,1.73974e-02,-2.68972e-02,-2.63387e-02,5.30249e-03,-8.27912e-03,-1.18354e-02,-3.01483e-02,-2.35148e-02,3.24345e-02,-3.43712e-03,-7.09808e-04,6.80896e-03,-5.16943e-03,1.39912e-02,4.25991e-03,1.77697e-02,2.86727e-02,2.85665e-02,-1.24750e-02,2.70135e-02,-1.37151e-02,3.39319e-02,-1.21282e-02,1.40718e-02,-1.69267e-02,-9.99624e-03,-3.25416e-02,-2.10105e-02,-5.03010e-03,6.89364e-04,5.02169e-04,-6.47291e-03,9.42664e-03,1.58381e-02,-2.43195e-02,1.86294e-02,2.09257e-02,1.04479e-02,-2.10043e-02,2.50902e-02,-2.23343e-02,1.60351e-02,2.84505e-02,3.06801e-02,9.37603e-03,-1.57475e-02,1.05550e-02,2.34573e-02,-2.38965e-02,2.06808e-02,2.97032e-02,3.55450e-02,1.65921e-02,1.31921e-02,3.34869e-02,-1.86751e-02,-1.40391e-02,2.47587e-02,-3.51121e-02,-2.83840e-02,-7.00347e-03,-2.03437e-02,1.92666e-02,-3.93117e-02,8.61494e-03,-3.22861e-02,5.01292e-03,-8.90044e-03,-1.28050e-02,1.31818e-02,-7.18144e-03,2.48364e-02,-2.61687e-02,-4.38769e-03,-2.20949e-02,1.09379e-02,-1.74596e-02,1.17381e-02,-8.34084e-03,-6.56981e-03,3.30409e-02,3.26457e-03,9.50115e-03,-1.64439e-03,3.41741e-02,-3.27889e-02,-2.13710e-02,-3.37611e-02,-1.20018e-02,1.49544e-02,2.01410e-02,1.72186e-02,8.82250e-03,1.35189e-02,-7.92981e-03,-3.18447e-02,-5.57143e-03,-2.75030e-02,6.10987e-03,-3.78386e-03,-1.97924e-02,-3.35800e-02,2.92068e-02,2.20708e-02,2.83255e-02,3.00764e-03,-1.26328e-02,2.73654e-02,-3.30278e-02,-8.50723e-03,2.34016e-02,1.30326e-02,-7.55203e-04,3.62868e-03,1.35746e-02,1.67685e-02,2.01111e-02,-3.30198e-02,-2.42553e-02,-5.52331e-03,1.37960e-02,-3.00378e-03,-3.65728e-03,-3.03513e-03,-7.85901e-03,-2.87949e-02,1.50809e-02,-2.69288e-02,2.43344e-02,1.14147e-02,-2.22344e-02,-3.03776e-03,
-1.71599e-02,2.78029e-02,2.63726e-02,3.49928e-02,-3.24347e-02,-3.06307e-02,-3.10478e-02,-6.49955e-03,-1.11921e-02,-7.81706e-03,-1.29844e-02,-5.28178e-04,1.06900e-02,6.24030e-03,-3.50213e-02,3.28025e-02,-4.83472e-03,2.68509e-02,-4.10854e-03,-6.87521e-03,-3.43200e-02,-3.66549e-03,2.09778e-02,3.29920e-03,-3.45826e-03,1.07345e-02,-1.53937e-02,-1.86198e-02,-3.28847e-02,3.08643e-02,2.39736e-02,-2.77074e-02,2.05729e-02,-4.93327e-03,-1.38492e-02,-9.52939e-03,-3.02221e-02,2.45189e-02,-1.48902e-03,2.51864e-03,1.72885e-02,1.05217e-02,7.36812e-03,-1.75670e-02,5.41856e-03,3.54470e-02,7.20903e-03,3.97586e-03,-3.56797e-02,-1.09306e-02,-2.92589e-02,3.77633e-03,1.29614e-02,-1.81274e-02,-2.45261e-02,-2.07542e-02,-3.10795e-03,3.51381e-02,-1.54882e-03,-2.72272e-02,7.42643e-03,2.82593e-03,2.57885e-02,1.13258e-02,8.19859e-03,-1.41648e-02,3.25484e-02,-3.02517e-02,3.26052e-02,1.42817e-02,-2.42978e-02,9.28218e-03,-3.16680e-02,-2.32718e-02,1.71758e-02,2.87855e-02,8.99616e-03,-1.22581e-02,1.17767e-02,1.23999e-02,-9.14224e-03,1.76333e-02,-3.20805e-02,-2.36241e-02,3.00065e-02,1.44404e-02,3.40200e-02,-5.14713e-04,1.09540e-02,8.93858e-03,1.39823e-02,-1.76133e-02,3.24207e-02,-4.03345e-03,-1.19601e-03,-3.53599e-02,3.29525e-02,-1.63520e-02,3.85555e-03,-3.15564e-02,-3.10927e-02,-2.82734e-02,2.66227e-02,-1.55883e-03,3.53728e-04,3.52393e-02,7.43762e-03,1.78447e-03,1.68087e-02,-3.43973e-02,-2.07052e-02,-1.70267e-02,2.04558e-02,2.08596e-02,3.10189e-02,-1.41231e-02,6.26660e-04,-1.07551e-02,-1.25417e-02,-3.42537e-02,7.69834e-03,-4.62785e-03,3.05414e-02,4.76315e-03,2.39933e-02,-1.33351e-02,-1.09749e-02,-4.75607e-03,-1.18112e-02,1.27889e-02,-2.25346e-03,-3.71937e-03,-1.30109e-02,-9.87363e-03,-2.83512e-02,-2.01576e-02,-7.92476e-03,-3.50882e-02,5.46884e-03,1.53620e-02,-2.12393e-02,-1.62332e-02,-2.19923e-03,-3.30821e-02,3.28072e-02,1.27367e-02,-1.20285e-02,-1.83206e-02,-1.87237e-02,3.72316e-02,1.77909e-02,2.96510e-02,3.87683e-03,-2.72612e-02,-2.69215e-02,-1.24449e-02,-1.54029e-02,3.98872e-02,-8.00794e-03,2.46283e-02,1.48453e-02,2.93839e-02,-1.03846e-02,-3.02410e-02,-3.12998e-02,3.22468e-02,1.95083e-02,1.20698e-02,2.35878e-03,1.00387e-03,1.94710e-02,2.41410e-02,1.94140e-02,1.14265e-02,-9.58715e-03,1.49899e-02,2.65397e-02,7.31263e-03,9.47518e-03,4.34218e-03,3.05761e-03,-1.15940e-02,-2.03440e-02,-1.30019e-02,1.20916e-02,-2.36538e-02,1.72828e-02,2.37468e-02,-2.86342e-02,-2.28281e-02,-8.70018e-03,-5.36430e-03,-2.51211e-02,2.30099e-02,-1.06631e-02,1.75807e-03,1.46716e-02,9.91338e-03,-3.34357e-02,3.01882e-02,2.19166e-02,-1.87940e-02,7.28865e-04,-8.93812e-03,1.27643e-02,1.02710e-02,3.46943e-02,1.31302e-02,2.45376e-02,-2.36800e-03,-8.05460e-03,-3.64174e-02,1.47782e-02,3.31695e-03,-2.71508e-03,2.37229e-02,3.57211e-02,-1.91422e-02,-3.26651e-02,-3.14250e-02,1.16066e-02,-2.69214e-02,2.02854e-03,3.41835e-02,1.59550e-03,1.39586e-02,3.59500e-02,1.94700e-02,-1.69708e-02,-1.27526e-02,4.80200e-03,2.48037e-02,-2.90625e-02,9.73910e-03,-1.21479e-02,3.57068e-02,-2.71859e-02,-8.74098e-03,-4.02858e-02,-4.10965e-03,2.94613e-02,6.71108e-03,2.55671e-02,-2.37848e-02,-7.82573e-03,3.07739e-02,1.91841e-02,2.53327e-02,5.78682e-03,-6.00065e-03,2.12623e-02,-7.01307e-03,8.83122e-03,1.40233e-02,3.35175e-02,2.76576e-02,7.68945e-03,3.00763e-02,1.11772e-02,-1.38440e-02,-1.50929e-02,2.66680e-02,2.41836e-02,2.99677e-03,-4.72124e-03,-3.29569e-02,5.76509e-03,-4.63108e-03,-2.80789e-02,-2.82329e-02,6.36817e-03,-2.56230e-02,-5.54488e-03,-4.71506e-03,3.17377e-02,5.74748e-03,-2.54109e-02,2.38613e-02,-1.57113e-02,-2.90255e-03,1.45136e-02,-2.19171e-02,3.27612e-03,3.10363e-02,-2.37715e-02,-9.94837e-03,-3.94579e-03,-3.40261e-02,-1.17225e-03,2.56269e-02,-1.43810e-02,4.13720e-03,2.29243e-02,-3.26552e-02,-3.37361e-02,-3.44673e-02,-4.90623e-03,3.62486e-04,1.82470e-02,-1.85244e-02,-4.04568e-02,-2.74863e-02,1.40971e-02,-1.63583e-02,3.00074e-02,-1.82773e-02,-1.67657e-02,2.65270e-02,2.38107e-02,-3.46421e-03,2.79500e-03,1.60202e-02,1.17039e-03,-5.97262e-03,-2.40748e-02,6.91608e-03,-3.52623e-02,2.59675e-02,1.93045e-02,-9.61987e-03,-1.15306e-02,-1.21063e-02,3.56799e-03,-5.48270e-03,4.32137e-03,-1.53807e-02,-1.28730e-02,-1.36649e-02,-1.28079e-02,7.97244e-03,-2.87969e-02,-1.86510e-02,-1.25176e-02,2.88940e-02,1.71147e-02,-7.19209e-03,-1.84099e-02,9.41610e-04,1.80418e-03,-2.57521e-02,1.53413e-03,1.25408e-02,-2.30626e-02,1.31048e-02,-7.29602e-03,-4.04900e-04,3.10862e-02,3.33414e-03,-1.49441e-02,-2.19014e-02,-3.44510e-02,1.10464e-02,2.45766e-02,3.07960e-02,3.18535e-02,-2.56903e-02,-2.17135e-02,-6.14024e-03,-1.51255e-02,2.11760e-02,3.20223e-02,-1.42335e-02,-1.67789e-02,1.82690e-03,5.92134e-04,-1.96964e-02,2.26538e-02,-1.25074e-02,-3.07215e-02,-5.98987e-03,2.98265e-02,2.29121e-02,-2.38622e-02,3.57186e-02,-3.38346e-03,1.17035e-02,2.69678e-02,-1.33520e-02,1.99756e-02,1.09169e-02,2.87389e-02,-2.55666e-02,2.80083e-04,1.71486e-02,-2.47721e-02,2.69721e-02,-3.13327e-03,1.22275e-02,-2.61497e-02,-3.46679e-02,-2.82233e-02,-3.30736e-02,1.69118e-02,3.18597e-02,7.42315e-03,3.41301e-02,5.22160e-03,2.05771e-02,-2.97271e-02,4.55025e-04,6.06663e-03,3.21671e-02,3.04120e-02,2.57027e-02,1.29672e-03,-1.50601e-02,1.28631e-02,-1.71829e-02,-6.54173e-03,2.19138e-02,9.10868e-03,-1.59891e-02,1.90399e-02,6.43149e-03,-1.87718e-02,-2.73618e-02,-3.63738e-02,-2.60158e-02,3.10975e-02,-1.23018e-02,-1.99342e-02,-8.93081e-03,2.10627e-02,-2.37109e-02,2.79828e-02,-9.43265e-04,-2.51257e-02,3.06907e-02,-3.05941e-02,1.57412e-02,3.47255e-02,1.11312e-02,-8.10471e-03,-2.79090e-03,-3.88686e-03,-1.30095e-03,-1.01108e-02,9.55775e-03,3.60860e-02,-1.73058e-02,-1.53825e-02,2.85544e-02,2.49655e-02,-2.23982e-02,6.53200e-03,-2.85221e-02,3.00742e-02,1.57007e-02,-9.19843e-03,2.32766e-02,5.62433e-03,-3.44118e-02,-1.96583e-02,-1.50198e-02,1.64293e-02,7.83680e-03,4.91815e-03,-1.26354e-02,-7.73740e-03,-1.94038e-02,-8.62628e-03,5.69395e-03,-3.23687e-02,2.62819e-03,1.68969e-02,-6.49160e-03,-3.05419e-02,4.74975e-03,-1.91019e-02,-2.76520e-02,-7.75614e-03,9.50858e-03,-2.29669e-02,2.07990e-02,1.51742e-02,-3.32492e-02,3.52719e-02,-2.15913e-02,1.22030e-04,1.32649e-02,-2.78896e-02,2.33258e-02,-3.42197e-02,-8.40091e-03,-1.37695e-02,1.40782e-03,5.95252e-03,9.77282e-03,-3.00609e-02,-3.85167e-02,2.36618e-02,2.18026e-02,-2.38003e-02,-1.58384e-02,-3.06526e-02,2.69314e-02,-8.10443e-03,1.46793e-02,-1.18234e-02,-9.42025e-03,-1.90767e-02,1.16630e-02,1.77727e-02,-2.43671e-03,1.98072e-02,-5.30523e-04,-7.19135e-03,-2.12063e-02,-3.49169e-02,-2.75569e-02,4.45978e-03,-1.30196e-02,-2.03228e-02,-1.57506e-02,4.50043e-03,1.25513e-02,2.35923e-02,-2.73042e-02,-8.05464e-04,1.12690e-02,1.33088e-02,1.95397e-02,-1.64263e-02,2.06688e-02,2.92483e-02,5.65562e-03,-1.90098e-03,-2.90481e-02,6.07151e-03,1.33310e-02,-2.13465e-02,2.42016e-02,2.60802e-02,1.19461e-02,1.01303e-02,1.86832e-02,3.39598e-02,-3.04791e-02,-1.85205e-02,-1.40186e-02,-2.70194e-03,1.52167e-03,-1.01507e-02,-4.30314e-03,-9.65851e-04,-2.97686e-02,-1.62049e-02,1.76750e-03,6.64361e-03,4.78480e-03,-5.74372e-03,1.86186e-03,-1.58822e-02,-2.26579e-02,-3.07934e-02,-9.04255e-03,-6.69269e-03,-3.02205e-02,1.47232e-02,3.31679e-02,-2.76227e-02,-2.01249e-03,1.45778e-02,2.95202e-02,-1.51089e-02,-2.79649e-02,-7.32971e-04,2.60414e-02,-6.85685e-03,2.53741e-02,-7.34541e-03,-2.22118e-02,2.30125e-03,-2.49304e-02,1.86831e-02,2.13407e-02,1.98359e-02,9.40295e-03,3.19439e-02,2.56993e-03,-4.71181e-03,9.73349e-03,-3.26261e-02,-1.01969e-02,-3.23997e-02,-2.27039e-02,9.87827e-03,5.77044e-03,6.09385e-04,-2.63142e-02,1.74421e-02,-3.48631e-03,2.31852e-02,7.83008e-03,-9.27634e-03,-2.18568e-02,1.07744e-03,-2.29391e-02,-7.44346e-03,-6.10959e-03,-2.57628e-02,2.37620e-02,-2.22318e-02,-1.13780e-02,3.15839e-02,-6.98217e-03,-2.62137e-02,2.46359e-02,2.80797e-02,1.26108e-02,-2.66687e-02,1.16256e-02,-1.60419e-02,-1.19405e-02,-2.62001e-02,2.76050e-02,2.44665e-02,1.58504e-02,3.41590e-02,1.93502e-02,-2.54186e-02,2.90585e-02,9.65130e-03,1.80477e-03,-1.85798e-02,-9.81832e-03,-2.62006e-02,2.18364e-02,2.57452e-02,-1.98261e-02,-1.26062e-02,-5.83536e-03,2.68562e-02,1.85669e-02,2.91175e-02,-3.57592e-02,-1.87065e-02,-1.78144e-03,-5.36134e-03,1.65753e-03,-3.00850e-02,-2.21263e-02,-3.54712e-02,2.98763e-02,-2.74817e-02,-9.49161e-03,3.22984e-02,7.56065e-03,-2.47280e-02,3.32455e-02,1.91937e-02,-4.90818e-03,-1.48302e-02,-2.21775e-02,-1.70251e-02,-2.91487e-02,-2.06352e-02,-1.98272e-03,3.27916e-02,4.33436e-02,-7.09323e-03,-3.21792e-02,1.45006e-02,-7.56445e-03,-1.56396e-02,-3.66067e-02,-2.76297e-02,2.94168e-02,1.55115e-02,-3.19244e-02,-2.78767e-03,-1.67034e-02,-3.25307e-02,1.46406e-02,-2.49729e-02,-2.10960e-02,-3.56280e-02,2.24214e-02,9.44611e-04,2.76541e-02,-2.85910e-02,2.12412e-02,-2.22768e-02,-2.43241e-02,2.70131e-03,-2.38114e-02,3.04527e-02,2.97565e-02,3.63575e-03,1.88004e-02,1.57140e-02,-2.86198e-02,-1.51194e-02,-1.78775e-02,2.83005e-02,3.20796e-03,-2.79979e-02,-3.21504e-02,2.88096e-02,-9.75779e-03,5.91842e-03,2.00869e-02,-1.42855e-02,3.10126e-02,-1.99872e-03,-1.20570e-02,1.03062e-02,-3.42448e-02,-4.73887e-04,2.10280e-02,-3.41686e-02,-3.08115e-02,-2.66365e-02,-3.12612e-02,-1.21709e-02,-9.35386e-03,-2.65009e-02,-7.59517e-03,-1.70140e-02,-5.52089e-03,4.66769e-03,3.46016e-02,2.00472e-02,1.89870e-02,-2.16546e-02,-2.36755e-02,-2.78344e-02,-2.51291e-03,4.41829e-03,-1.25799e-02,9.88680e-03,-4.30243e-03,-1.30434e-02,-2.87289e-02,-2.84721e-02,-2.90204e-02,-5.51601e-03,6.04077e-03,-1.71566e-02,1.93279e-02,-1.56144e-03,-4.29079e-03,-3.54131e-02,-3.34608e-02,-2.84570e-02,5.42121e-03,-3.15879e-02,1.20746e-03,-1.28302e-02,2.65948e-02,-2.81984e-02,-3.18730e-02,2.97696e-02,3.94536e-03,7.71541e-03,-6.98279e-03,2.01740e-02,1.66861e-02,-1.32931e-02,-2.54855e-02,3.30225e-02,1.26638e-02,-1.20074e-02,2.21199e-02,3.27891e-02,-1.95194e-02,8.51144e-03,2.85269e-02,2.11828e-02,1.78889e-02,2.51563e-02,-1.20637e-02,3.17576e-02,2.91073e-02,1.50633e-02,-1.43377e-02,2.76833e-02,2.30776e-02,2.67188e-03,-1.45485e-02,-3.07063e-02,2.12559e-02,-2.66218e-02,-1.08017e-02,
-3.97910e-03,9.10781e-03,6.68813e-03,-1.18991e-02,-1.30334e-02,2.90041e-02,2.49192e-02,-1.54463e-02,-1.90709e-04,-9.30394e-03,-1.45179e-02,-8.02635e-03,3.05650e-02,-3.46636e-02,-3.22231e-02,-4.61827e-03,-1.98818e-02,2.07885e-02,-1.03727e-02,-1.18566e-02,5.88945e-03,1.40641e-02,1.53606e-02,3.45603e-02,2.81759e-02,-7.42429e-03,-2.61614e-02,-1.29161e-02,4.62660e-03,3.41317e-02,-1.22789e-02,-2.66028e-02,-2.59711e-03,-2.43879e-02,1.98780e-02,-1.07466e-02,-8.29969e-03,2.76874e-02,2.23038e-02,-9.88807e-03,2.12578e-02,6.18086e-03,1.19803e-02,-5.13805e-03,-1.50034e-02,1.64485e-02,2.82942e-03,2.33530e-03,3.50296e-02,1.97803e-02,-1.95591e-02,6.16881e-03,-1.69407e-02,-1.23214e-02,-3.30960e-02,-1.58420e-02,1.52630e-02,2.71299e-02,3.67188e-03,-1.18999e-03,6.40636e-03,3.06540e-02,2.81334e-02,-1.66582e-02,-1.06646e-02,1.55268e-02,-2.80570e-02,-1.97978e-02,-5.36191e-03,3.26792e-02,2.33833e-02,1.15569e-02,-1.82881e-02,4.11569e-03,-2.88039e-03,-2.47902e-02,-2.88720e-02,3.82083e-03,5.45414e-03,1.91070e-02,2.80528e-02,-9.31209e-03,2.34093e-02,3.44658e-02,-3.12830e-02,-3.39869e-03,2.25406e-02,9.98804e-03,2.73989e-02,-9.48780e-03,-1.00417e-02,-3.06216e-02,2.27036e-02,-1.84614e-02,-1.38981e-02,-7.62135e-03,1.18546e-02,-4.73593e-03,-5.12641e-04,-1.99421e-02,-2.04279e-02,-3.41367e-02,-1.22265e-02,-2.89402e-02,-7.98107e-03,4.16972e-03,-2.99540e-02,3.18141e-03,-9.75560e-03,-1.95155e-02,-2.02168e-02,-2.21377e-02,-1.92504e-03,1.15143e-02,3.86479e-03,-9.83464e-04,-1.62633e-02,-2.84158e-02,-8.34502e-03,1.32221e-02,-5.74974e-03,-8.83234e-03,5.00994e-03,3.21578e-02,-2.39940e-02,6.07834e-03,-1.85412e-02,-2.55109e-02,-2.14451e-02,-2.08670e-02,3.24110e-02,3.19370e-02,1.38939e-02,-3.09760e-02,-1.93171e-02,2.33987e-02,-1.46224e-02,3.43750e-02,-2.25645e-02,1.16301e-02,1.78890e-02,3.13018e-04,2.15409e-03,-7.02078e-03,-5.18621e-03,-3.17223e-02,-3.45191e-02,-3.33381e-02,2.46626e-02,-9.15171e-03,5.77642e-03,2.47024e-03,-1.49888e-02,6.14598e-03,1.02863e-03,-3.31701e-02,-7.87437e-03,-2.70884e-02,1.20375e-02,1.16274e-02,1.84762e-02,2.92116e-02,-7.54249e-03,-2.72948e-02,2.43048e-02,2.96603e-02,-3.00411e-02,-7.30397e-03,3.13217e-02,6.13160e-03,-1.93927e-03,-6.58362e-04,-2.27352e-02,1.64960e-02,-2.11663e-02,-2.65253e-02,-2.12400e-02,1.26432e-02,2.28846e-02,-9.11869e-03,-7.51580e-03,-2.40931e-02,-3.16739e-02,3.06202e-02,-2.75063e-02,-3.16709e-02,-2.73434e-02,-1.04317e-02,6.81406e-03,1.14100e-02,1.56973e-03,-4.78757e-03,-2.55075e-03,-2.38787e-02,1.17107e-02,-1.73046e-02,4.19908e-03,-2.78074e-02,3.44938e-02,4.55960e-03,7.27849e-03,-1.16779e-02,-2.12196e-02,-3.46375e-02,-3.29110e-02,2.74241e-02,-3.34831e-02,-8.81460e-03,-1.43859e-02,4.49827e-03,-3.01334e-02,1.89101e-02,2.59438e-02,2.39504e-03,8.88014e-03,2.74804e-02,1.40617e-02,6.14729e-03,-4.70946e-03,-1.48393e-02,-1.68229e-02,1.25799e-02,3.53848e-02,3.12228e-02,1.29160e-02,-2.00938e-02,-2.59359e-02,-3.52137e-02,-5.61613e-03,3.29735e-02,3.34992e-02,1.42852e-02,-1.03430e-02,1.13856e-02,-5.00666e-03,3.88926e-03,-3.21187e-02,9.40243e-03,1.10131e-02,1.66260e-02,5.08595e-03,2.66021e-02,-3.65413e-02,-2.63761e-02,-2.30706e-02,1.79191e-02,1.79169e-03,9.09277e-03,2.28759e-02,-2.23299e-02,-5.35506e-03,1.90383e-02,1.88932e-02,4.92286e-03,1.58134e-02,1.78883e-02,-1.57049e-02,1.80286e-03,2.51494e-02,1.89268e-02,-3.09171e-02,-5.49239e-03,1.98018e-03,-8.28474e-03,-8.90997e-03,-1.49164e-02,1.64717e-02,4.51343e-03,-2.32543e-02,-1.72402e-02,2.47338e-02,-2.09873e-02,7.96846e-03,3.06462e-02,-2.68182e-02,1.40177e-02,2.65482e-02,3.14913e-02,-3.18226e-02,2.38005e-02,8.74841e-03,-1.67402e-02,4.49077e-03,3.26250e-02,-2.97526e-02,2.21310e-02,-1.22014e-02,-1.15836e-02,-2.39034e-03,-8.73513e-03,1.30297e-03,2.41574e-02,7.28663e-03,-3.73339e-02,1.52163e-02,1.94155e-02,-3.08660e-02,-2.98240e-02,-3.04033e-02,-2.13045e-02,-3.19848e-02,-7.89728e-04,-9.87832e-03,-3.11211e-02,1.13249e-02,-1.14383e-02,-6.39425e-03,-3.14264e-02,2.92574e-04,-3.23280e-03,4.46466e-03,3.29315e-02,-1.13911e-02,-3.01184e-03,2.59210e-02,-3.35859e-02,-2.88347e-02,-1.21952e-02,-1.32709e-03,2.52578e-02,-3.33947e-02,-3.16537e-02,2.81836e-02,-3.43347e-02,-9.16375e-03,7.11944e-04,2.60380e-02,-6.70527e-03,2.99245e-03,-2.52948e-03,1.14260e-02,1.46933e-02,-2.13713e-02,-2.40607e-03,-1.37853e-02,2.33269e-02,1.08257e-02,6.67452e-03,1.28808e-02,-2.83488e-02,-1.56149e-02,-3.50615e-02,8.28824e-03,1.60603e-02,-3.23226e-02,1.46526e-02,-7.18578e-03,-1.38984e-02,3.26669e-02,2.91963e-02,4.89505e-03,-2.48765e-02,-3.00470e-02,1.75479e-02,-3.29930e-02,7.00070e-03,-3.21243e-02,1.15638e-02,-2.34359e-02,-1.59432e-02,3.49765e-02,-2.15194e-02,-2.32468e-02,-3.52010e-02,1.56271e-02,7.27697e-03,-1.65284e-02,1.65378e-02,-3.24855e-02,1.08650e-02,1.09698e-02,-1.88798e-02,-2.86235e-02,-1.48780e-02,2.14805e-02,2.99157e-02,-9.25363e-03,3.01942e-03,3.90457e-03,-2.46625e-02,-2.24712e-02,-1.61413e-02,3.09659e-02,-2.48262e-02,-1.93734e-02,2.85283e-02,-3.12532e-02,3.46452e-02,3.41004e-02,-1.31349e-02,3.41183e-02,-2.97755e-02,-1.97231e-02,-3.20538e-02,-2.36107e-02,-1.59019e-02,-1.66220e-02,-1.38127e-03,9.02298e-03,1.79165e-02,5.53370e-03,1.70596e-02,-1.19043e-02,2.06289e-02,-1.15027e-02,2.90414e-02,-8.74643e-03,-2.31333e-02,2.59514e-02,2.12638e-02,1.72623e-02,3.56367e-03,-2.11948e-03,1.21972e-02,-2.66687e-02,-3.07305e-02,3.03905e-03,2.70561e-02,2.64333e-02,1.17001e-02,8.37377e-04,-3.55244e-02,2.76604e-03,-1.96534e-02,3.17684e-05,-1.46746e-02,-1.82699e-02,-1.03029e-03,1.47430e-02,-2.19207e-02,-2.89133e-02,-1.79290e-04,3.45994e-03,1.23298e-02,-1.02198e-02,2.06085e-02,-2.28550e-02,-1.67424e-02,-2.23386e-02,-1.76782e-02,2.77986e-02,2.76276e-02,2.13200e-02,-1.45229e-02,-1.19065e-02,1.48354e-02,-1.07270e-02,-1.94571e-02,-8.53109e-03,-5.33932e-03,7.94625e-03,1.05306e-03,-1.17556e-02,3.48159e-02,-3.32342e-02,-2.20377e-02,-2.54609e-02,2.24852e-02,9.45603e-03,-2.03864e-02,2.95607e-02,-5.92908e-03,-8.03819e-04,-3.87974e-03,1.16678e-02,-1.27273e-02,9.75282e-03,1.11348e-02,-1.44055e-02,-1.74132e-02,3.49954e-02,-2.96618e-02,-1.05620e-02,-2.90418e-02,-2.71632e-02,1.27802e-02,1.28466e-02,3.25629e-02,-3.05383e-02,-2.64355e-02,-2.38927e-02,2.43187e-02,-2.47563e-02,-7.20792e-03,-9.18837e-03,2.57202e-02,3.33423e-02,1.36762e-02,2.76624e-02,1.79454e-03,-3.44127e-02,-1.31012e-02,1.42945e-02,-1.10641e-02,2.93925e-02,4.64874e-03,1.43280e-02,9.44776e-03,-1.52325e-02,9.21557e-03,-3.52283e-02,1.41825e-03,1.99196e-02,-1.71483e-02,-3.22221e-02,-2.62768e-02,-2.18279e-03,-8.08547e-03,-2.60176e-02,-2.38469e-02,-1.34104e-02,-1.88719e-02,-2.18510e-03,-8.95379e-03,-3.19440e-02,-2.63082e-02,-1.98362e-02,1.35389e-02,2.91168e-02,-1.05685e-03,-3.43998e-03,-3.11103e-02,-1.35674e-02,-2.84978e-02,-2.36979e-02,2.46184e-03,-1.37104e-02,-3.18942e-02,5.09755e-03,-1.67646e-02,3.21123e-02,-2.87692e-03,9.76018e-04,-3.30182e-02,1.64718e-02,-7.93552e-03,-3.30146e-02,8.18065e-03,7.56322e-03,2.50455e-03,-3.39865e-02,-2.17998e-02,-2.29876e-02,-6.95154e-03,-2.90857e-02,-7.71838e-03,1.56620e-02,-1.23633e-02,4.47962e-03,-2.97235e-03,-3.41985e-02,-6.43005e-03,2.96744e-03,1.13522e-02,1.11105e-02,-2.46877e-02,-1.86789e-03,2.74029e-02,2.63251e-02,-1.62590e-02,1.43726e-02,1.54917e-02,3.03457e-02,-1.28405e-02,3.53334e-03,-3.01400e-02,-3.02125e-02,1.66271e-02,2.21185e-02,-1.59124e-02,3.95888e-03,2.17965e-02,1.69510e-02,-1.10241e-02,-1.11878e-02,2.04681e-02,-1.86083e-02,2.45341e-02,-1.87449e-02,-1.85353e-02,1.96319e-02,7.85683e-04,1.52721e-02,3.12734e-02,2.31991e-02,3.40150e-02,-1.33544e-02,-2.49206e-02,1.26716e-02,-2.41190e-02,-1.44325e-02,-8.64964e-03,-1.04061e-02,-2.25276e-02,-1.45805e-03,-2.02167e-02,1.26188e-02,9.52470e-03,-1.90930e-02,9.21160e-04,-6.71618e-03,-3.23706e-02,2.09734e-02,-1.70319e-02,3.06153e-02,-1.00097e-03,-2.81335e-02,7.27319e-03,6.74336e-03,-9.19921e-03,-1.78397e-02,2.56709e-02,-1.39972e-02,-2.65855e-02,-2.12113e-02,1.38772e-02,-3.76111e-03,1.79734e-02,2.30192e-03,-3.21692e-02,1.22016e-02,-2.43731e-02,-3.22885e-02,-2.54366e-02,-1.95631e-02,-2.76524e-02,-1.60272e-02,-2.49283e-02,-9.61085e-03,3.55820e-02,1.20920e-02,-9.24544e-03,2.33008e-02,-2.24756e-02,-1.65975e-02,-1.72801e-02,2.64090e-03,2.27298e-02,-1.44513e-02,1.36486e-02,3.11541e-02,1.38606e-02,-7.30598e-03,1.12896e-02,-5.03528e-03,2.16992e-02,-1.39105e-02,3.15505e-02,-2.16435e-02,2.58354e-02,-3.04419e-04,2.67313e-02,-2.09270e-02,-1.31176e-02,-2.97521e-02,-3.22861e-02,-1.34677e-02,4.78065e-03,-2.25719e-02,1.16858e-02,-1.56047e-03,1.93104e-02,-3.40006e-02,-2.25197e-03,-8.29657e-03,-2.62816e-02,2.85042e-03,-2.65272e-02,2.58902e-02,-5.09093e-03,-1.56806e-02,3.05752e-02,-8.08022e-03,1.88214e-02,3.34581e-02,-3.30457e-02,-3.48764e-02,2.23475e-02,2.89706e-02,-6.68245e-03,1.60577e-02,2.00598e-02,-7.25113e-03,-1.51674e-02,-1.65596e-02,1.53739e-02,-3.15713e-02,2.33424e-02,9.02975e-03,2.03689e-02,-1.40520e-02,1.37855e-02,1.41779e-02,1.64873e-02,1.53693e-03,-2.11492e-02,2.33434e-02,-2.97065e-02,-3.26067e-02,1.18520e-02,8.49875e-03,7.36956e-04,3.18201e-03,-7.52318e-03,2.73937e-02,1.11836e-02,1.93981e-02,-1.22174e-02,2.39873e-02,-1.18919e-03,8.58517e-03,-3.20706e-02,9.71017e-03,-2.35166e-02,-1.13630e-02,1.75193e-03,-2.29809e-02,-2.77605e-02,1.98412e-02,-1.04284e-02,-1.72280e-02,-2.35245e-02,-2.61331e-03,-3.30782e-02,3.26849e-02,-1.74883e-02,-1.00521e-02,-2.67162e-02,-1.60092e-02,2.88114e-02,-4.75526e-04,8.32906e-03,-1.70619e-02,2.31612e-02,2.61191e-02,2.91174e-02,1.95506e-02,-3.41423e-02,3.48244e-02,-1.00543e-02,3.16114e-02,1.54960e-02,-1.89855e-02,-1.78822e-02,-1.86727e-02,-9.57770e-03,-1.64398e-02,2.71067e-02,-1.43089e-02,-5.62263e-03,6.70296e-03,1.39741e-02,1.51988e-03,6.00111e-03,3.09599e-02,1.95012e-02,3.33447e-02,7.56021e-03,-2.20591e-02,1.49361e-02,-1.51322e-02,-2.13579e-03,-9.80373e-03,-3.07792e-02,-2.41062e-02,-2.51748e-02,-2.60759e-02,1.21063e-02,3.71630e-03,1.77921e-02,1.70704e-03,-1.72073e-02,-2.68758e-03,2.60469e-02,3.07393e-02,4.78431e-03,-1.88113e-02,-1.47985e-02,-1.23168e-02,7.89957e-03,1.70800e-02,-3.12858e-02,-1.87610e-02,9.82545e-03,
-1.87666e-02,-3.52350e-02,2.86595e-02,-2.96616e-02,1.73611e-03,-7.98876e-03,-5.10115e-03,1.12928e-02,-9.91694e-04,1.44476e-02,1.34611e-03,2.70137e-02,-9.02927e-03,-2.63820e-02,-1.56143e-02,1.96360e-02,2.01603e-02,2.43678e-02,-2.34632e-02,-2.83386e-02,-1.29567e-02,3.12818e-02,1.57236e-02,1.11880e-02,-6.69411e-04,-3.07100e-02,3.01150e-02,3.49078e-02,-5.57446e-03,2.90362e-02,4.78063e-03,-2.49649e-02,-1.60246e-02,-2.43973e-02,-3.45785e-02,3.07742e-02,4.96356e-03,-3.51559e-03,-2.69593e-02,2.86567e-02,-2.38499e-02,2.03936e-02,-5.74253e-04,-4.08702e-03,8.46491e-03,1.78715e-02,-2.96206e-02,1.51575e-02,1.57467e-02,-1.38322e-02,2.67587e-02,1.52225e-02,1.08177e-02,-2.28595e-02,-4.34910e-03,-1.96572e-02,-8.32719e-03,3.26303e-02,1.95602e-02,2.82495e-02,-2.30136e-02,9.50992e-03,-2.93648e-02,-7.66380e-03,-3.49975e-02,2.18460e-02,1.84592e-02,-4.93964e-03,1.09613e-02,1.83472e-02,-2.34412e-02,-1.75908e-02,1.58981e-02,-9.38038e-03,-1.83510e-02,-1.38006e-02,-2.88234e-02,1.37351e-02,9.82780e-03,3.51807e-02,-2.35496e-02,2.43008e-02,-2.55658e-02,-3.17837e-02,2.72989e-02,3.43474e-02,-1.33906e-02,-1.26332e-03,-8.18064e-03,2.99900e-02,3.42456e-02,-2.96826e-03,-1.85425e-02,2.27687e-02,2.86662e-02,2.26349e-02,3.39284e-03,-1.99838e-02,2.36694e-02,-1.47142e-02,1.20044e-02,3.56409e-02,2.26733e-02,2.40984e-03,-2.89241e-02,-2.18813e-02,1.60510e-02,-1.40054e-02,3.54085e-02,-2.42698e-02,-1.81638e-02,1.03280e-03,-3.31756e-02,1.58070e-02,-3.24170e-02,-2.10813e-02,3.26887e-02,-2.60022e-02,2.32875e-02,9.69707e-03,3.01218e-03,1.84329e-03,2.82849e-02,-2.33600e-02,-3.19042e-03,-3.35175e-02,-3.65716e-02,-3.32336e-02,-1.17707e-02,-4.58251e-03,-2.07666e-02,9.68562e-03,1.69481e-02,-1.38428e-02,-5.62031e-03,-3.16161e-03,2.61286e-02,9.97898e-03,3.41469e-02,2.66870e-02,-1.62606e-02,-1.42405e-02,3.50139e-02,-2.95209e-02,-3.29685e-02,3.38218e-02,-6.43474e-03,-2.87704e-02,-2.98052e-02,-7.02747e-04,1.36737e-02,-1.83463e-02,-6.16317e-03,6.34380e-03,-6.23602e-03,-1.55516e-02,-2.95304e-02,-3.07072e-03,1.25110e-02,9.44267e-03,-1.34755e-02,2.39666e-04,-4.15702e-03,-1.29631e-02,1.03878e-02,-2.35719e-02,-1.03814e-02,2.09748e-03,3.42072e-02,2.66420e-03,1.06341e-04,-7.08792e-04,3.20766e-03,-9.22006e-03,3.42039e-02,-2.92210e-02,-3.41315e-02,-1.84503e-02,-1.53369e-02,7.88501e-03,-8.53341e-03,2.88828e-02,-1.23428e-03,2.68820e-02,-2.05523e-02,-9.75641e-03,2.74488e-03,-6.78332e-03,3.27454e-02,-2.27881e-02,2.88613e-02,5.21722e-03,-7.15231e-03,4.47801e-03,-7.70239e-03,2.11459e-02,-5.87380e-03,2.91244e-02,-9.13048e-03,3.38125e-03,1.93259e-02,-6.57690e-03,9.36969e-03,-2.65473e-02,-2.25429e-02,2.09733e-02,-3.27060e-03,-2.90388e-02,2.01535e-02,2.22006e-03,-3.29060e-02,-3.80262e-02,-4.00384e-02,-3.24020e-02,-3.73162e-02,-1.22785e-02,-3.76312e-02,4.44976e-03,-5.50192e-03,-1.20890e-02,2.33729e-02,-8.90985e-03,-2.70276e-02,-1.06078e-02,-2.19689e-02,-1.37705e-02,-2.06728e-02,-1.45538e-02,-2.83522e-02,2.18953e-02,-7.60127e-03,-3.56406e-02,-1.54572e-02,-2.04066e-02,-1.51654e-03,1.93292e-02,2.77081e-03,2.62016e-02,-2.45668e-02,-2.83564e-02,1.15888e-02,2.59518e-02,-2.09346e-02,-1.13615e-02,-1.30353e-02,-1.88570e-02,-6.38735e-03,-1.69105e-03,2.64157e-02,-1.40908e-02,-2.49698e-02,1.18435e-02,2.80923e-02,-9.02648e-03,-1.94781e-02,3.33327e-02,1.72548e-02,-3.10427e-02,2.61767e-02,-3.33643e-02,-7.73557e-03,-1.92590e-02,1.67820e-03,2.84356e-02,1.45549e-02,2.07245e-02,-3.44933e-02,1.39713e-02,2.88533e-02,-1.98510e-03,-9.23821e-03,-1.88601e-02,-1.59308e-02,-7.69315e-03,1.68516e-02,3.05404e-02,2.51501e-02,-1.44570e-02,-2.09670e-03,-3.38348e-02,-2.10230e-02,1.55138e-02,-1.71140e-02,1.37445e-02,9.27659e-03,2.80447e-02,-1.25130e-02,2.76482e-02,1.31025e-02,1.56270e-02,-5.89605e-03,-3.04613e-02,-4.04601e-03,3.02053e-02,-3.14704e-02,-2.87887e-02,-3.42193e-02,-1.63945e-02,-2.88613e-02,-2.77861e-02,2.45152e-02,-1.70274e-03,3.27051e-02,3.26502e-02,3.12079e-02,2.35061e-02,8.23026e-03,2.53071e-02,-4.70746e-03,1.58525e-02,-5.30822e-03,1.71292e-02,-9.65303e-03,-2.79114e-02,-2.72917e-02,-1.07167e-02,7.27399e-03,2.79531e-02,2.27692e-04,2.53802e-03,1.14681e-02,-7.71529e-03,7.75023e-04,1.23430e-02,-1.26593e-02,3.55202e-03,1.43010e-02,9.24670e-03,-2.28713e-02,-2.62732e-02,-2.22806e-02,-3.18608e-02,1.89139e-02,3.10104e-02,1.14074e-02,2.91324e-02,-1.33933e-02,-3.47856e-02,4.29343e-03,1.16458e-02,2.77414e-02,-2.03910e-02,1.07677e-02,-6.13362e-03,2.72890e-03,-9.24729e-03,1.92965e-02,-2.29741e-02,1.17425e-02,-3.11428e-02,2.11495e-03,2.32994e-02,-2.53902e-02,1.19763e-02,-2.18732e-02,3.78542e-03,1.72280e-03,8.20973e-03,-1.64355e-02,-2.72873e-02,-3.25439e-02,-2.99110e-02,3.13737e-02,3.25044e-02,-3.36614e-02,2.70065e-02,1.69649e-02,2.61901e-02,1.34513e-02,-2.02879e-02,-1.99980e-02,-1.56484e-02,-1.65050e-02,-7.97470e-03,-1.13895e-02,-2.24217e-02,1.39979e-02,-3.70631e-02,6.19854e-03,1.05773e-02,-3.33453e-02,-7.82032e-03,-9.29616e-03,8.79714e-03,9.30257e-03,-2.21015e-02,-5.37817e-03,-2.58320e-02,8.51259e-03,2.41455e-02,1.66507e-02,-2.19654e-02,2.84389e-02,5.03707e-03,-2.80977e-02,-2.03695e-02,-1.73437e-02,-1.01202e-02,-8.17896e-03,2.52951e-02,2.18463e-02,-1.59766e-02,5.18424e-03,-2.29522e-03,1.94190e-02,2.53613e-02,1.34492e-02,-4.00750e-03,2.94986e-02,-1.92915e-03,1.66898e-02,1.99702e-02,2.73552e-02,1.60698e-02,3.55662e-02,-2.83838e-02,2.38053e-02,2.63722e-02,-3.75229e-03,-5.84169e-03,2.00741e-03,-1.49938e-02,-3.10073e-02,1.10960e-02,1.87940e-02,3.74711e-04,4.40654e-03,1.33864e-02,2.38846e-02,2.10454e-02,-3.05794e-02,-3.76295e-02,-2.57419e-03,-1.17081e-02,-3.45214e-02,4.92871e-03,-6.81941e-03,-2.10891e-02,-1.73655e-02,-2.92157e-02,-2.41237e-02,1.12580e-02,-2.87756e-02,-4.75201e-03,1.24310e-02,-2.82502e-02,-1.24015e-02,2.52620e-02,-9.62480e-03,-8.87218e-03,1.07147e-02,1.88117e-02,2.79167e-02,-3.06708e-03,-1.41788e-02,2.98461e-02,2.50110e-02,-2.87380e-03,2.72588e-02,1.37360e-02,2.41992e-02,-7.67631e-03,5.79518e-03,-3.09467e-02,-2.67065e-02,-4.06258e-03,3.30862e-02,-3.08209e-02,-1.02765e-02,-1.42233e-02,2.67973e-02,1.02734e-02,-1.93297e-02,-2.90075e-02,3.42077e-02,-8.76397e-03,-2.09160e-03,2.53566e-02,8.45609e-03,2.30121e-02,-1.18041e-02,-2.16976e-02,-1.12598e-02,-3.88085e-03,-2.87188e-02,-6.07721e-03,1.67399e-02,-3.19856e-02,1.51305e-02,1.90586e-02,-1.68850e-03,-6.52012e-03,2.75721e-02,-8.27074e-03,-1.50180e-02,1.09725e-02,-1.99569e-02,-3.50145e-02,9.11480e-03,2.26408e-02,-1.67595e-02,-2.19725e-02,-1.49249e-02,2.35030e-02,2.82993e-02,-1.18281e-02,-6.81512e-03,-2.58087e-02,1.20562e-02,3.39346e-02,1.23639e-02,3.18706e-02,2.14465e-02,-2.02757e-02,-8.97717e-03,-4.47997e-03,2.52772e-02,-2.77208e-02,-2.01979e-02,2.70153e-02,1.56740e-02,1.45414e-02,-1.48461e-03,2.38068e-02,1.74575e-02,2.50715e-02,-9.18827e-03,-3.61076e-02,1.68035e-02,-3.29177e-02,2.43593e-02,-1.83077e-02,-2.80127e-02,-5.11716e-03,1.04085e-02,1.33539e-02,6.62628e-03,-7.06282e-03,-3.36996e-02,-2.50164e-02,2.82857e-02,1.26384e-02,-2.50355e-03,3.43420e-02,-3.28691e-03,-2.23930e-02,3.02081e-02,-3.94589e-02,2.71552e-02,-3.53444e-02,-5.52768e-03,2.02562e-02,-2.30377e-02,2.59361e-02,-3.55658e-02,1.05000e-02,-1.71515e-02,7.42071e-03,2.95201e-02,-5.02488e-04,-2.85235e-02,-8.09872e-03,2.51565e-02,2.61992e-02,2.29385e-02,-3.52071e-02,2.50735e-02,2.25455e-02,3.79185e-03,-7.27410e-03,-1.62436e-02,-1.37212e-02,9.03088e-03,3.40935e-02,1.14827e-02,-2.53626e-02,-3.63599e-02,-9.39260e-03,1.16910e-03,-3.89607e-02,2.13437e-02,-3.08367e-02,2.11284e-02,-9.88235e-04,-9.95219e-03,-1.84943e-02,9.85549e-03,1.47390e-02,-2.74400e-02,-1.34765e-02,6.06225e-03,-2.72093e-02,2.20501e-02,-1.61684e-02,-2.59698e-02,6.29235e-03,3.34454e-02,1.72162e-02,7.12887e-03,-1.99746e-02,2.83415e-02,5.20292e-04,-5.42063e-04,2.22704e-02,-1.67535e-02,-2.47799e-02,6.35816e-03,-2.97404e-02,3.10422e-02,-2.78660e-02,2.28053e-02,3.20609e-02,-2.80337e-02,-4.84529e-03,1.75449e-02,-9.14723e-04,-4.62679e-03,1.16941e-02,2.33220e-02,1.94782e-03,1.74749e-02,6.35343e-03,-2.18688e-02,1.12081e-02,1.09761e-02,-3.52918e-02,2.68337e-02,3.36573e-02,1.53754e-02,2.97574e-02,2.81960e-02,-2.99520e-04,-3.00262e-02,-6.61778e-03,1.44296e-02,-1.36941e-02,-3.11299e-02,2.35952e-02,1.43527e-02,6.04350e-03,1.34310e-02,-5.86710e-03,-2.90298e-02,-2.40181e-02,3.45650e-02,1.42043e-02,2.98012e-02,2.34611e-02,3.89166e-03,-7.54944e-03,2.70697e-02,-1.55694e-02,1.61981e-02,1.20751e-02,2.28590e-03,-1.65692e-02,2.23666e-02,1.42670e-02,-3.16270e-02,-3.18586e-02,2.78792e-02,-1.67857e-02,-3.13160e-03,3.00696e-02,2.78075e-02,2.70133e-02,-2.39007e-02,1.35079e-02,3.48797e-02,-2.97322e-02,-1.12503e-02,-1.70390e-02,1.07135e-04,-3.12807e-02,-3.11848e-02,9.28999e-03,2.65891e-02,3.67937e-02,-2.00042e-02,5.98026e-04,6.92356e-03,2.96781e-02,-1.95714e-02,-2.62438e-02,-3.10533e-03,3.57147e-03,-2.36926e-02,-3.78302e-03,7.44259e-03,8.17714e-03,-1.13150e-02,1.10798e-02,-1.38007e-02,-4.72165e-03,2.80418e-02,-1.54490e-02,-8.69994e-03,3.30665e-02,6.16196e-03,3.10737e-03,3.07883e-02,-1.84434e-02,-1.15863e-02,2.66190e-02,2.73426e-02,1.71145e-02,-2.37375e-02,3.69008e-03,1.33689e-02,1.06655e-02,-2.07117e-02,2.83975e-03,-2.50912e-02,1.38102e-03,-1.78966e-02,4.20764e-03,-2.77465e-02,2.62633e-02,-3.09740e-02,-1.46731e-02,-3.59815e-02,-2.53197e-04,-2.12650e-02,-7.53408e-03,2.46180e-02,3.34783e-02,5.04370e-03,3.53969e-02,-3.40717e-02,-5.17935e-03,-1.88696e-02,-3.24235e-02,1.85533e-02,5.75608e-03,-1.61379e-02,4.76122e-03,1.09643e-03,3.43922e-02,-9.42533e-03,2.50921e-03,-2.08395e-02,-2.24057e-02,-7.53340e-03,-2.31442e-02,-1.05621e-02,2.22988e-03,1.38493e-02,2.98656e-02,1.47884e-02,-1.05862e-02,1.12406e-02,1.07709e-02,-3.02325e-02,1.47160e-02,2.17290e-03,3.01285e-02,1.26177e-03,7.48251e-03,-3.14483e-02,3.22275e-02,-9.44980e-03,1.44558e-02,-2.35747e-03,1.22960e-03,-7.25665e-03,-3.47741e-02,1.58234e-02,3.46285e-02,7.36404e-03,-4.96733e-03,-8.06403e-03,9.03111e-03,-3.22813e-02,-2.43210e-02,-8.82474e-03,9.64780e-04,4.13434e-03,9.02783e-03,-2.15796e-02,4.25527e-03,-3.26259e-04,1.83502e-02,1.33978e-02,3.75264e-03,
-2.67988e-02,-2.82977e-02,1.76274e-02,-7.89070e-03,-7.11507e-03,5.14686e-05,2.83062e-02,2.17669e-03,-1.54334e-02,-9.98437e-03,-1.53461e-02,-1.52744e-02,-1.62617e-02,-1.83688e-02,-2.50751e-03,5.36992e-03,4.74688e-03,-1.06505e-02,3.07613e-02,5.10702e-03,-1.89155e-02,2.43037e-02,2.72142e-02,-2.71037e-02,-1.56592e-02,-1.82456e-02,2.35789e-02,-2.43772e-02,9.45141e-03,2.04765e-02,2.45491e-02,3.05968e-02,3.52322e-02,-2.39532e-02,-2.12191e-02,1.65177e-02,2.37590e-02,1.00432e-02,3.49834e-02,-1.63823e-03,-1.47175e-02,-1.91423e-02,2.64232e-03,1.80180e-02,-3.11763e-02,4.65027e-04,2.22580e-02,1.85539e-03,-2.56469e-02,1.33976e-02,5.99141e-03,1.51664e-02,2.85599e-02,1.98459e-02,-2.82655e-02,-1.40664e-02,-1.70093e-02,-3.09571e-02,7.41383e-03,-2.40000e-02,1.07406e-02,1.59426e-02,-1.54018e-02,3.40074e-02,6.51951e-04,1.01045e-02,2.23971e-02,-2.31816e-02,5.65191e-03,1.85445e-02,2.05363e-02,-2.82170e-02,-2.21507e-02,-7.30713e-04,-6.26334e-03,-4.16975e-03,2.13111e-02,-8.09610e-03,-3.31037e-02,2.94881e-02,2.43316e-02,2.94667e-02,-2.46842e-02,1.78121e-02,6.69819e-03,-1.14114e-02,-1.40320e-02,1.54783e-02,-7.86748e-03,1.36591e-03,2.93986e-02,-4.17546e-05,1.32228e-02,-3.53715e-02,-1.10667e-02,-1.73466e-02,-1.55348e-02,9.69622e-03,1.58442e-02,2.71283e-03,8.15347e-03,-2.84905e-02,-2.96401e-02,-1.91612e-02,1.67469e-02,-3.28375e-02,-6.21608e-03,2.00052e-02,2.87876e-02,-4.39071e-03,-3.18966e-02,2.09144e-02,-1.46331e-02,2.09989e-02,1.90874e-02,1.75155e-02,-5.77244e-03,2.23333e-02,2.47974e-02,1.38561e-02,-2.77287e-03,2.71108e-02,-1.83245e-02,-1.19700e-02,-3.59907e-02,-1.70455e-02,1.53304e-02,-2.93076e-03,-2.05591e-02,-1.26040e-02,-5.77380e-03,-9.82583e-03,-3.45526e-02,-1.68608e-02,7.08649e-03,4.87903e-03,5.43941e-03,3.22925e-02,-3.33198e-02,2.60529e-02,-1.35893e-02,1.03956e-02,4.22899e-03,3.36071e-03,-1.47705e-02,-1.10816e-02,1.55149e-02,-2.34343e-02,2.05362e-02,1.43861e-02,-2.01101e-02,-4.04899e-03,1.40017e-02,3.29713e-02,3.11007e-02,-1.15897e-02,7.31431e-03,3.41330e-02,-1.66294e-02,1.98633e-02,2.55130e-02,-5.95599e-03,2.68254e-02,-2.54133e-02,-3.43403e-02,-9.39229e-03,-8.48680e-03,7.45483e-03,-8.33280e-03,-7.41815e-03,-1.79127e-02,-3.20234e-02,2.01746e-02,1.43440e-02,-2.00081e-02,-3.31049e-03,1.06444e-02,-9.63229e-03,3.38718e-03,-9.26742e-03,-7.66163e-03,-1.71923e-02,1.49826e-02,6.65235e-03,6.30385e-03,3.38925e-02,-8.15011e-03,-9.56726e-03,3.21353e-02,2.45221e-03,2.60508e-02,1.98598e-02,3.46548e-03,1.05514e-02,1.06521e-02,3.60850e-03,-1.41667e-02,-2.10212e-02,-2.54793e-02,7.84994e-03,1.76257e-02,-9.84889e-03,-2.58327e-02,-3.82455e-03,1.87966e-02,-1.60186e-02,-1.78082e-02,3.11751e-02,-1.58642e-02,9.81065e-03,1.27544e-02,1.00412e-02,2.12152e-02,-2.70144e-03,3.41080e-03,3.22542e-02,2.06005e-02,-1.71941e-02,-2.13895e-02,2.98000e-02,3.23624e-02,2.39107e-02,-1.60485e-02,2.83291e-02,-2.64516e-02,-1.69509e-02,1.63768e-02,-1.88015e-02,-1.79093e-02,-1.96465e-03,-3.84854e-02,-3.02112e-02,-1.74690e-02,-1.69416e-02,2.29077e-02,1.24734e-02,-1.74293e-02,-7.90423e-03,3.15591e-02,5.84141e-04,1.99946e-02,4.79884e-03,-2.75567e-02,-1.97556e-02,-1.21036e-03,-1.13034e-02,1.12083e-02,-1.48265e-02,-3.68004e-02,-2.71841e-02,-1.72444e-02,1.43704e-02,2.84303e-02,1.55645e-02,3.28144e-02,-2.03442e-02,1.73570e-02,1.64801e-02,-1.20144e-02,2.92893e-02,1.67814e-02,-1.81913e-02,1.02780e-02,1.88978e-02,-7.05224e-03,2.73372e-03,2.64960e-03,-6.59122e-03,-1.75481e-02,-3.42905e-02,-1.48530e-02,-3.80915e-02,2.49440e-02,2.61607e-03,2.03792e-02,3.10169e-04,1.46885e-02,-2.16976e-02,1.16489e-02,1.41606e-02,-9.48608e-03,-6.03361e-03,3.08426e-02,2.19884e-02,-8.87482e-03,5.76465e-03,2.76673e-02,7.29659e-03,-2.17277e-02,3.72344e-02,-2.70430e-02,-3.12559e-02,3.12015e-02,-4.95388e-03,-3.28566e-02,-4.33171e-02,-3.60621e-02,1.19210e-02,-7.07889e-03,-3.36634e-02,2.03347e-02,3.46183e-03,4.25271e-03,4.55554e-03,-2.85708e-02,1.48756e-02,-2.31407e-02,-1.38319e-02,1.21704e-02,-1.92646e-02,-9.81242e-03,-3.41596e-03,-1.88686e-02,6.46821e-03,-1.93055e-02,-3.77241e-03,-2.89162e-02,-2.24450e-02,1.50289e-02,-3.77827e-02,-3.48989e-02,1.60616e-02,1.21546e-02,1.43226e-02,1.05627e-02,1.10121e-03,-6.75063e-04,-1.26365e-02,-1.85981e-02,2.31916e-02,-4.64998e-03,1.14781e-02,2.31168e-02,9.64824e-03,-2.03841e-02,3.13835e-02,2.61635e-02,2.66444e-02,-1.35769e-02,-1.92503e-02,-8.11454e-03,2.87758e-02,-1.60225e-02,-4.48851e-03,-2.95549e-02,-9.95767e-03,-1.23198e-02,-2.78506e-02,2.56615e-02,-2.48263e-02,-1.11362e-02,1.74083e-03,-2.85205e-02,-2.58567e-02,1.19717e-02,4.63904e-03,1.88606e-02,2.40429e-02,2.27744e-02,-2.71128e-02,5.85072e-03,3.33546e-02,-1.11645e-02,-2.37896e-02,-1.88850e-02,-2.07160e-02,-5.85716e-03,2.12191e-02,-3.40180e-02,-2.48955e-02,5.68131e-03,-1.54989e-02,-1.97472e-03,7.61394e-03,-2.98822e-02,4.45729e-03,1.61834e-02,-2.59558e-02,2.09940e-02,-1.15269e-02,6.62886e-03,-1.27554e-02,-1.63744e-02,-2.72613e-02,5.89173e-03,9.35908e-03,-3.70774e-02,-3.06088e-03,6.65759e-03,1.45168e-02,2.90041e-02,3.26430e-02,-2.18278e-02,2.84773e-02,6.93203e-03,1.79284e-02,9.80105e-03,1.53453e-02,-2.79750e-02,-2.88421e-03,-2.22955e-02,-9.14349e-03,6.52829e-03,3.36579e-02,3.22843e-02,3.68665e-02,3.56078e-02,9.05658e-03,1.71102e-02,-3.75332e-02,2.62689e-02,-1.34821e-02,-3.27318e-02,2.24599e-03,-8.24415e-03,-2.68538e-02,-3.37284e-02,2.73943e-02,-1.28829e-02,-9.95725e-03,1.93640e-02,2.36617e-02,1.75850e-02,2.74979e-02,3.20135e-02,7.99075e-03,-2.94055e-02,-8.09750e-03,-1.90784e-02,-3.90999e-02,-3.08530e-02,-1.73470e-03,8.99489e-03,2.38294e-02,7.68828e-03,2.61696e-02,-3.17622e-02,1.27535e-02,-8.79532e-03,1.52875e-02,-4.94904e-03,2.03201e-02,6.98124e-03,-2.64739e-02,-6.78286e-03,1.79539e-02,-3.22369e-02,-1.21802e-03,-2.78723e-02,-3.07710e-02,4.55292e-03,1.76628e-02,5.42020e-03,2.64010e-02,-3.66406e-02,-8.23541e-03,-2.12225e-02,9.22067e-03,-1.17710e-02,-2.28272e-02,7.28217e-03,2.16776e-02,-2.18726e-02,-2.69623e-02,-2.25202e-03,-1.79781e-03,1.38723e-02,-2.20998e-02,5.82240e-03,-3.61396e-02,-6.61890e-03,1.79309e-02,2.75341e-02,-2.65496e-02,2.61435e-03,3.40589e-04,-3.76635e-03,4.25647e-03,-2.53980e-02,-7.10453e-03,-9.03177e-03,-3.59793e-02,9.65904e-03,-1.45115e-03,-4.52334e-02,-1.59574e-02,-9.98436e-03,-4.44300e-02,-3.80809e-02,-4.26356e-02,1.00828e-02,-4.18100e-03,3.70481e-02,8.10929e-03,1.43038e-02,3.04469e-02,-1.38900e-02,-2.19796e-02,-3.15020e-02,3.22005e-02,-3.24138e-02,-2.06754e-02,-1.34304e-02,1.56407e-02,1.90571e-02,3.03259e-02,-9.16322e-03,2.23570e-02,2.94847e-02,1.03289e-02,2.39898e-02,-2.24170e-02,-4.30657e-02,-2.25479e-02,-1.72446e-02,-5.47707e-02,-1.42240e-02,-9.88092e-03,-2.09418e-02,2.31061e-02,3.38256e-02,2.60701e-02,1.68256e-02,-7.70826e-03,1.17478e-02,-5.44182e-03,-2.97751e-02,1.90376e-02,1.68142e-02,8.27038e-03,-1.22137e-02,-2.76554e-02,-2.66264e-03,-1.96732e-02,2.90131e-02,2.14802e-02,-9.48264e-03,-2.46713e-02,-3.27269e-02,-6.96418e-03,-3.20938e-02,-4.31135e-02,-2.92027e-02,-1.14336e-02,-6.06038e-02,3.60021e-03,-4.20748e-02,5.89489e-03,-2.25035e-02,-1.59919e-02,-4.34537e-03,1.14067e-02,2.78398e-02,1.52856e-02,-2.12696e-02,2.45033e-02,-1.56459e-02,-1.25420e-02,-2.95625e-02,3.17102e-02,2.75160e-02,3.23907e-02,-1.24351e-02,1.86280e-02,1.21466e-02,2.11713e-02,-2.06890e-02,1.29704e-02,8.72458e-03,1.93806e-02,-2.32452e-03,1.81243e-02,-1.90283e-02,-2.05536e-02,6.60898e-03,-2.24852e-02,-2.00402e-02,2.23890e-02,1.14554e-02,2.08762e-02,-3.39420e-02,1.74870e-02,-1.53761e-02,1.47352e-02,2.24872e-02,-3.36467e-02,-3.47197e-03,2.63339e-02,3.01819e-02,2.89896e-02,-6.00750e-03,-3.04355e-02,3.51601e-02,-2.19925e-02,2.43719e-03,-1.84451e-02,2.32541e-02,2.84765e-02,-2.38298e-02,3.17673e-02,2.57029e-02,2.38343e-02,-4.01405e-03,2.72541e-02,-1.96867e-02,1.48367e-02,-3.09959e-02,1.53898e-02,-3.61525e-02,2.91266e-02,-2.18643e-02,2.74107e-02,2.91387e-02,-1.34317e-02,3.16688e-03,-8.82572e-03,-1.92863e-02,-1.59710e-02,4.88573e-03,3.24564e-02,-2.62912e-02,1.04173e-02,2.21563e-02,4.07182e-03,-1.01844e-02,2.83762e-02,1.48128e-02,5.47534e-03,8.82690e-03,1.25624e-02,5.15931e-04,2.80628e-03,2.55707e-02,-1.50797e-02,-1.88499e-02,2.44801e-02,-3.43249e-02,2.08763e-02,1.17570e-02,3.03580e-02,1.01595e-02,2.03875e-03,3.31434e-03,-2.14514e-02,9.37306e-03,2.00415e-03,1.28194e-02,3.49301e-02,-2.06966e-02,-1.32738e-02,3.54647e-03,-3.71756e-02,1.67169e-02,-2.44248e-02,-9.49586e-03,-6.89953e-03,4.64331e-03,3.77845e-02,2.00194e-02,-2.03455e-02,4.21397e-02,-5.11590e-03,3.30327e-02,-1.93079e-02,-2.11111e-02,-2.69134e-02,-1.13165e-02,-1.44301e-02,-3.17084e-03,-3.88341e-04,3.55861e-02,-2.52547e-03,-3.37908e-02,2.49401e-02,-2.23217e-02,-1.96952e-02,5.56533e-03,1.97541e-02,-2.06742e-02,2.99505e-02,2.04445e-02,1.94606e-02,1.10354e-02,-1.40413e-02,-1.26626e-02,3.51891e-02,-2.02139e-02,1.32015e-03,-1.97538e-02,-9.00981e-03,-2.94329e-02,-4.12024e-03,9.78683e-03,1.27660e-02,3.13765e-02,3.07797e-02,2.83003e-02,5.01928e-03,8.31644e-03,8.57831e-03,7.08050e-03,1.50822e-02,-1.90549e-02,1.12883e-02,-1.63612e-02,3.36000e-02,2.69581e-02,1.34843e-02,-2.21932e-02,5.63949e-03,-2.40485e-02,-2.38902e-03,-3.19231e-02,4.84988e-03,1.08148e-04,1.08657e-02,-3.69921e-03,2.81262e-02,-8.57250e-03,-2.60302e-02,-3.50168e-02,-6.53343e-03,3.01034e-03,7.27484e-03,-1.75082e-04,1.58260e-02,2.94347e-02,1.81612e-02,-3.00588e-02,8.97841e-03,3.57093e-02,-9.60050e-03,2.41416e-02,7.96115e-03,-4.06690e-03,-1.07749e-02,4.14494e-03,-2.28228e-02,3.34434e-02,2.32837e-02,-4.34652e-03,-1.35628e-02,-1.52868e-02,-9.15791e-03,-2.11534e-02,1.12217e-02,1.12597e-02,-7.59088e-03,-1.51897e-02,1.35704e-02,-1.24253e-02,3.44226e-02,1.95808e-02,2.48339e-03,-2.19085e-02,9.87300e-03,4.90455e-03,3.04510e-02,2.46485e-02,1.61684e-02,8.20285e-03,1.93419e-02,-3.00513e-02,-2.63512e-02,9.43127e-03,-2.42254e-02,-1.27531e-02,1.62031e-02,-4.27974e-03,-3.47059e-02,-1.43377e-02,6.19578e-03,4.86238e-03,2.09168e-02,2.80401e-02,-3.11798e-02,3.03870e-02,1.55771e-02,2.16414e-03,-3.07646e-02,-1.12682e-03,2.25315e-02,-1.37564e-02,-3.37113e-02,
2.42818e-02,2.05197e-02,-9.57095e-03,-2.66360e-03,-2.88058e-02,-1.28457e-02,4.17993e-03,-8.59364e-03,-3.52584e-02,6.26166e-03,1.89017e-02,-6.36739e-03,1.36023e-02,-5.55496e-03,-1.75439e-02,-1.61240e-02,-1.10760e-02,3.55269e-02,3.01369e-02,-8.66907e-03,-1.11303e-02,-3.17857e-02,7.75987e-03,1.48190e-02,-1.20019e-02,2.00797e-02,1.81827e-02,-2.74597e-02,-1.85074e-02,1.04218e-02,-2.08073e-02,1.60131e-02,-7.59681e-03,8.60452e-03,-1.47763e-02,-2.68309e-02,-1.31066e-02,-2.42548e-02,-2.31815e-02,-1.51544e-02,-3.42718e-02,4.13708e-03,3.81316e-03,-3.10630e-02,2.06071e-02,3.03350e-02,2.81408e-02,7.19727e-03,-1.90106e-02,1.84476e-02,-3.41703e-02,-8.97329e-03,-7.87666e-03,1.62774e-02,3.32959e-02,-2.16572e-02,-3.32746e-03,1.82982e-02,-3.43603e-02,3.20013e-02,-2.63954e-02,-7.71178e-05,3.02228e-02,-3.08275e-03,-8.32939e-03,1.14563e-02,-1.82500e-02,-6.21956e-04,-9.31644e-03,1.84171e-02,2.22770e-02,1.90298e-02,1.14053e-02,-1.49488e-02,2.53948e-02,2.94758e-02,1.69945e-02,-1.30667e-02,3.21568e-02,-2.70588e-02,-5.99006e-03,1.95804e-02,-6.95771e-03,2.63899e-02,7.96383e-03,3.33288e-02,2.59635e-02,3.32002e-02,-2.43359e-03,-2.13644e-02,2.60229e-03,-3.03285e-02,-2.35765e-02,8.63706e-03,1.58122e-02,5.98005e-03,2.81695e-02,7.95925e-03,-1.84284e-02,1.68881e-02,-2.33245e-02,-2.21653e-02,-3.37094e-02,-5.99253e-03,-2.26000e-02,-3.78044e-02,2.41667e-02,-1.49571e-02,-2.76108e-02,4.02530e-03,2.29275e-02,1.32872e-02,-2.36438e-02,2.27830e-02,-6.61506e-03,2.30033e-02,1.22579e-02,-4.61440e-03,3.30872e-02,1.83141e-02,-9.65537e-03,-1.07855e-02,-2.32653e-02,-1.76065e-03,-1.61173e-02,1.37950e-02,2.44473e-02,3.54074e-02,3.38535e-02,2.98388e-02,1.00503e-02,2.71556e-02,1.74501e-02,-1.52062e-02,2.47640e-02,-2.21544e-02,-2.79302e-02,1.06605e-02,2.73471e-02,2.82709e-02,2.18349e-02,1.89904e-02,1.02912e-02,-2.70719e-02,-4.25556e-03,-8.18927e-03,-1.14842e-02,-2.64810e-02,1.77326e-04,-3.13097e-02,2.11821e-02,1.06185e-03,2.19485e-02,-9.95153e-04,-1.00080e-02,-2.29088e-02,-2.20319e-02,-8.36350e-03,-2.00324e-02,-3.47678e-02,3.34659e-02,4.19290e-03,4.65020e-04,2.40715e-02,-3.39950e-02,5.22689e-03,3.22913e-02,1.76394e-02,2.12134e-02,5.67690e-03,-1.21935e-03,-6.46474e-03,-1.74818e-02,-2.08090e-02,-7.48146e-03,9.34518e-03,-8.06105e-03,-3.89365e-02,-4.02118e-02,-3.78941e-03,-1.65989e-02,-2.94724e-02,2.43993e-02,1.00238e-02,1.20393e-02,2.63001e-02,-3.29264e-02,-2.91295e-02,-2.45081e-03,-1.35917e-02,4.12271e-03,-3.04466e-02,-2.60759e-02,-3.17661e-02,-3.54775e-02,-2.71938e-02,2.19879e-03,-3.54270e-02,1.40619e-02,2.74449e-02,8.56700e-03,1.91623e-02,3.41035e-02,-1.30450e-02,-2.89686e-02,-9.45480e-03,-2.25775e-02,-3.95628e-02,-1.07505e-02,-4.24443e-03,-3.39007e-02,-3.13741e-02,1.27492e-02,-3.81263e-02,-3.32740e-02,-1.25936e-02,1.70522e-02,-9.63901e-03,1.68064e-03,2.50521e-02,3.02023e-02,3.33124e-03,-2.81989e-02,-1.66937e-02,-1.03584e-02,3.44985e-02,-3.15335e-03,-2.71127e-02,1.04216e-02,1.02801e-02,-2.80265e-02,2.19028e-03,-3.10020e-02,-2.45178e-02,-2.55249e-02,-3.56327e-02,-1.02390e-02,-3.29910e-02,-5.67536e-05,1.76508e-03,1.46385e-02,-6.60278e-03,-1.68834e-02,-3.39438e-02,-1.74718e-02,-7.58346e-03,-2.81756e-02,1.24811e-02,-3.56285e-04,-2.39371e-02,-2.06586e-02,-3.03585e-02,-1.58355e-02,-7.42729e-03,1.49525e-03,2.97669e-02,-1.91215e-02,2.41550e-03,-2.88070e-02,1.86821e-02,-2.71682e-02,4.68735e-03,3.55829e-02,1.15349e-02,1.42326e-02,-6.19250e-03,8.34256e-03,-2.06314e-02,-3.73319e-03,-1.29574e-02,1.71218e-02,-1.98400e-02,5.52295e-03,-6.53138e-03,2.36945e-03,-3.04073e-02,-3.52181e-03,1.92766e-02,1.28101e-02,5.51949e-03,1.16504e-02,2.69082e-03,2.63128e-03,6.31693e-03,-3.01105e-02,-3.04360e-03,2.52517e-02,2.80354e-02,2.40629e-02,-3.18180e-02,-2.68381e-02,2.41824e-02,-2.03039e-02,4.06650e-03,-4.02055e-02,3.37086e-02,1.91646e-02,-2.74556e-02,-1.05208e-02,-1.12445e-02,-3.06468e-02,-1.71763e-02,1.59690e-02,2.04674e-02,1.65928e-02,-2.94779e-03,2.19981e-02,8.85657e-03,2.92011e-02,2.74579e-02,2.67865e-02,-3.06205e-02,-4.13553e-03,1.85221e-02,2.94310e-02,1.97819e-04,3.14227e-02,7.43885e-03,2.16198e-02,-7.48485e-04,-3.34777e-02,2.09437e-02,2.41897e-03,-7.44726e-03,-2.64974e-02,-2.15748e-02,9.98103e-04,-2.16175e-02,-4.75628e-03,2.96481e-02,1.12480e-02,-3.26860e-02,-1.07342e-02,-1.56894e-02,1.53535e-02,-3.30607e-03,-8.40030e-03,-2.12481e-02,-1.48093e-02,-2.11483e-02,1.98000e-02,-2.85369e-02,-7.82438e-03,-2.27427e-02,-1.05254e-02,-1.10189e-02,-2.47237e-03,1.07299e-02,1.83228e-02,-1.14322e-02,-2.34967e-02,6.80536e-03,-4.40586e-04,2.79931e-02,-2.31414e-02,-5.00733e-03,1.71619e-02,-3.20653e-02,3.53389e-03,-3.50201e-02,-1.37108e-02,3.68688e-02,5.31484e-03,-2.89957e-02,3.05551e-02,-7.01078e-03,-2.06292e-03,-2.74689e-03,6.04650e-03,-1.10219e-02,-2.47653e-02,2.95105e-02,-1.39348e-02,-6.43292e-03,1.62982e-02,2.34642e-03,-1.59472e-02,3.75862e-02,-1.95957e-02,2.30076e-02,-3.08278e-02,1.68721e-02,3.97382e-03,2.69007e-02,-1.81982e-02,2.66959e-02,-6.83388e-03,-1.84359e-02,2.55914e-03,2.11314e-02,-9.18756e-03,-1.73925e-02,-1.34385e-02,2.06902e-02,-2.85188e-02,2.91505e-02,-2.80081e-03,2.46488e-02,7.06784e-03,-6.82507e-05,2.83585e-02,9.01262e-03,2.67815e-02,1.31597e-02,-3.39713e-04,6.46483e-03,9.81028e-03,2.34277e-02,7.18393e-04,-2.32897e-02,-1.05646e-02,1.32462e-02,-2.41249e-02,5.64488e-03,3.61192e-02,-2.02182e-02,1.21673e-02,3.27956e-02,-4.77529e-03,2.06762e-03,2.16216e-02,-1.38403e-02,3.19620e-02,1.48566e-02,2.21356e-02,2.43271e-02,3.40661e-02,3.66658e-02,7.45530e-03,-1.41188e-03,-1.32378e-02,-1.39391e-02,2.27467e-02,3.45934e-02,2.83130e-02,8.09448e-03,-3.52724e-03,4.29171e-02,7.35246e-03,-1.93307e-02,1.48360e-02,-4.51461e-04,5.61420e-03,-1.63233e-02,4.02342e-02,-2.66562e-02,1.81389e-02,2.54604e-02,-7.16172e-03,-2.51060e-02,1.77547e-02,-1.15938e-02,-7.58428e-03,3.18575e-02,-7.99494e-04,-2.51647e-02,-2.06969e-03,2.29071e-02,-1.41809e-03,-4.79578e-03,6.76658e-03,2.39567e-02,-1.58102e-02,-3.57035e-03,2.67411e-02,-3.80848e-03,5.03284e-03,1.03540e-02,-3.11702e-02,1.87125e-03,2.79238e-02,-4.90436e-03,3.16992e-02,-1.71951e-02,-3.12652e-02,2.81192e-02,-5.27247e-03,3.43439e-02,-1.67759e-02,-1.92010e-02,-1.78669e-02,-1.03599e-02,1.77860e-02,2.72950e-02,2.84290e-02,7.57088e-03,-2.13081e-03,-6.03493e-03,-1.30928e-02,1.62158e-02,3.23244e-02,-8.48165e-03,4.85690e-02,-5.67938e-03,8.93140e-03,-1.78345e-02,-1.57373e-03,-1.61300e-03,-1.84662e-02,3.59316e-02,-2.05964e-03,-5.21043e-03,-1.07738e-02,-7.99516e-03,3.07601e-02,3.23507e-02,2.08001e-02,2.66851e-02,2.12669e-02,8.05761e-03,3.27225e-02,-2.13227e-02,2.87606e-02,5.21137e-03,2.63364e-02,-3.04419e-02,4.04273e-02,-1.38478e-02,1.60728e-02,7.42774e-03,9.00287e-03,3.45823e-02,-2.18489e-02,2.27757e-02,-1.37984e-02,-2.74575e-02,-1.70067e-02,-2.48211e-02,5.28175e-03,2.99746e-02,1.86503e-02,1.09502e-02,3.35200e-02,2.60105e-03,3.45405e-02,3.40523e-02,3.52133e-02,2.25651e-02,-2.05255e-02,-1.19660e-02,1.42763e-02,-6.12888e-03,1.34365e-02,1.66585e-02,1.39059e-02,2.13592e-02,-4.56019e-03,-2.70199e-02,5.72595e-03,-2.70724e-02,3.73462e-02,-2.22061e-02,-3.56737e-02,7.53401e-03,-1.13303e-02,-4.57187e-03,-3.23699e-02,1.06243e-02,1.50887e-02,-1.04583e-02,1.00466e-02,-1.24798e-02,-2.96850e-02,-2.91857e-02,-2.08481e-02,2.34172e-02,-2.42636e-02,2.61134e-02,-2.63762e-02,-1.65611e-02,1.55123e-02,8.07669e-03,8.40410e-03,2.70370e-02,-2.42188e-02,6.24113e-04,2.03242e-02,2.47506e-02,2.28181e-05,5.91122e-03,-3.53366e-03,2.29427e-02,-3.28474e-02,2.99821e-02,-4.48759e-03,-3.39888e-02,-5.02279e-03,-8.87879e-03,2.88892e-02,-8.72396e-03,6.22502e-03,2.59255e-03,2.89471e-02,-8.57931e-03,-3.18198e-02,-1.47397e-02,-1.27893e-02,-1.37281e-02,-2.30824e-02,2.16454e-02,-2.90026e-02,-3.89691e-02,1.95444e-02,-3.47863e-02,-1.85632e-02,1.02948e-02,1.37278e-02,3.28477e-03,-3.78694e-03,3.36618e-02,-3.34187e-02,-3.16304e-02,-9.39968e-03,-1.17606e-02,-2.79966e-02,-2.05149e-02,2.73784e-02,-1.64388e-02,-2.01862e-02,1.90905e-02,2.17974e-02,-3.25031e-02,-5.05405e-03,2.93666e-02,-1.68220e-02,-1.32086e-02,-4.22241e-02,-3.59739e-02,-4.57256e-03,-4.01354e-02,-1.41658e-02,2.76575e-02,-3.06472e-02,-2.84715e-03,-1.22340e-02,3.63902e-02,1.19743e-02,2.95075e-02,8.92894e-03,-1.00540e-02,-1.10832e-03,1.51550e-02,-2.01633e-02,-5.84547e-03,1.12741e-03,1.08611e-02,-2.38117e-02,9.69190e-03,2.23438e-02,2.73458e-02,2.11209e-02,-2.54923e-03,-9.29512e-03,-2.82330e-03,1.94241e-02,2.09041e-02,-1.86548e-02,-1.40178e-02,-1.31776e-02,-3.58855e-02,-4.74713e-02,-2.02198e-02,1.26264e-02,-3.23570e-02,1.18591e-02,8.20382e-04,1.91920e-03,-2.68112e-03,3.09010e-02,-1.02350e-02,3.12637e-02,-3.40085e-02,-1.64003e-02,-1.96476e-02,-2.57048e-02,-2.10799e-02,7.51459e-03,-1.96653e-02,1.22511e-02,-2.51969e-02,-3.46876e-02,-1.20324e-02,-2.81105e-02,4.93311e-03,-1.17654e-02,-1.73192e-02,-7.49554e-03,-1.19148e-02,-2.24281e-02,-2.60745e-02,-2.86650e-02,-1.55366e-03,-2.77885e-02,-2.34727e-02,-1.32484e-02,6.51154e-03,2.00179e-02,1.78846e-02,2.20451e-02,3.41903e-02,-2.78506e-02,-3.44953e-02,-1.51335e-02,-2.22577e-02,-2.84222e-02,-3.69757e-02,-1.94220e-02,-3.02275e-02,3.18129e-02,7.81840e-04,-3.66280e-03,-2.20631e-03,2.34212e-02,-2.82008e-03,1.72460e-02,-4.08878e-04,1.79811e-02,2.25598e-02,-2.98258e-02,-3.54643e-02,2.30876e-02,-1.18025e-02,5.94487e-03,2.34657e-03,4.50839e-03,6.74193e-03,3.29709e-02,2.06815e-02,-8.01497e-03,-1.35298e-02,-9.83271e-03,-9.14915e-03,3.02271e-02,-3.37249e-02,2.11576e-02,-2.82824e-03,-2.12280e-02,-2.15528e-02,9.68181e-03,6.09540e-03,4.97001e-03,3.15915e-02,2.70485e-02,9.02234e-03,2.92259e-02,-2.34425e-02,5.87756e-03,-2.40007e-02,1.75910e-02,2.18430e-02,-3.07583e-02,-3.42508e-02,-2.70799e-02,2.55291e-02,-2.08894e-02,-2.21036e-02,-3.42913e-02,2.48139e-02,3.23848e-02,-7.09625e-03,2.01053e-02,3.11649e-02,1.83985e-02,1.85850e-02,-2.63608e-03,-2.26506e-02,-2.54896e-02,-2.98922e-02,-1.43363e-02,-2.27184e-02,3.22998e-02,-3.10117e-02,-9.66504e-03,2.59560e-02,1.28826e-02,-6.29005e-03,-1.77685e-02,-2.41451e-02,2.22203e-02,1.61065e-03,-2.31679e-04,-7.92440e-03,2.93472e-02,-5.76856e-03,
2.71897e-02,1.84576e-02,-2.95284e-02,2.41827e-02,-1.87042e-02,1.52159e-02,-2.43398e-02,-3.10629e-02,2.19687e-02,-1.99704e-02,2.25264e-02,2.23868e-02,6.94216e-03,3.19389e-02,1.00347e-02,2.79049e-02,-2.17517e-02,-4.94825e-03,-4.94968e-03,1.40511e-02,2.27932e-02,-5.63516e-03,-1.16648e-02,-1.28518e-02,-1.89775e-02,3.45519e-03,5.58464e-03,-2.35675e-03,-3.41590e-02,1.75108e-02,-6.95530e-03,6.47460e-04,-2.71185e-02,-4.64264e-03,-1.06395e-02,4.03621e-03,3.51473e-02,-1.19358e-03,9.85093e-03,2.38597e-03,1.88149e-02,-1.78580e-02,2.09299e-02,1.44544e-02,-1.61295e-02,-1.80448e-02,-2.83950e-02,-1.68065e-02,1.48161e-02,1.49784e-02,-3.37023e-02,3.17017e-02,3.25842e-02,2.28819e-02,-8.57882e-03,-8.43826e-03,3.56426e-02,-3.30316e-03,1.77756e-02,-2.83680e-02,1.73468e-02,-1.26751e-02,-1.61971e-03,-2.87711e-02,-4.94403e-03,-2.01144e-02,-5.31170e-04,-7.79138e-03,2.47179e-02,8.71540e-03,-1.00718e-02,-2.76681e-02,9.29155e-03,-2.17929e-02,3.51900e-02,-2.55572e-03,1.92456e-02,1.50328e-02,-5.90448e-03,-1.86282e-02,-9.19905e-03,-1.75241e-02,3.48383e-02,-1.60197e-02,-3.77041e-03,1.62241e-02,-2.26590e-02,2.90402e-02,-5.20429e-03,2.04668e-02,1.37559e-02,3.62912e-02,9.14261e-03,-1.78842e-02,-1.16744e-03,4.07725e-03,-2.34300e-02,1.38520e-02,-6.39941e-04,1.35237e-02,-8.83663e-03,1.11540e-02,7.66920e-03,-3.41207e-02,-3.44520e-02,2.66863e-02,1.90748e-02,-2.87824e-02,9.80951e-03,-2.15813e-02,3.38705e-02,3.50765e-02,2.40180e-02,-1.41341e-02,9.23812e-03,3.20823e-02,-1.86535e-02,9.55108e-03,-2.52297e-02,2.46277e-02,-3.23074e-03,1.46009e-02,-2.51706e-02,2.83612e-02,2.86763e-02,2.32126e-03,2.48971e-02,4.17804e-03,2.55748e-02,-2.71272e-02,-1.85739e-03,-1.13339e-03,2.50475e-02,-2.77563e-02,3.02560e-02,-1.89866e-02,-4.33045e-03,2.12442e-02,1.32075e-02,8.01403e-03,2.81988e-02,-2.60401e-02,-3.84868e-04,-1.64626e-02,5.33498e-03,-1.22541e-03,3.64956e-04,3.03834e-02,-1.85686e-02,1.03575e-02,7.87338e-03,1.44639e-02,3.02980e-02,1.28319e-02,-1.47917e-02,-4.21363e-02,-1.76161e-02,-4.21858e-02,1.72521e-02,-7.91250e-03,-6.67172e-03,2.87906e-02,1.54849e-02,3.16590e-02,2.88366e-02,-2.53496e-02,-8.91271e-03,1.36983e-02,-2.09584e-02,-7.10609e-03,1.38304e-02,1.65785e-02,-8.48461e-04,1.72136e-02,2.26087e-02,1.52195e-04,2.97963e-02,7.08533e-03,-1.88624e-02,2.76597e-03,-2.83842e-02,2.80247e-02,2.43496e-02,1.33584e-02,-4.27114e-02,1.25884e-02,-4.82207e-03,-5.36560e-03,4.41421e-02,9.34582e-03,-1.36042e-02,-2.13420e-02,-2.23001e-02,1.36044e-02,5.37760e-03,-7.08022e-03,-2.26613e-02,1.32322e-02,-3.33437e-02,-3.03585e-02,-7.20602e-05,-3.59467e-02,2.57061e-02,1.21441e-02,2.92473e-02,2.62130e-02,6.83160e-03,-1.11813e-02,2.37147e-02,-3.06589e-02,-3.37578e-02,-1.57401e-02,-4.67650e-02,4.96881e-03,1.56826e-02,-3.33600e-02,-1.11076e-03,2.38546e-02,3.49917e-02,1.15536e-02,-2.21222e-02,1.65838e-02,-3.60573e-02,1.91169e-02,-5.36501e-03,-1.71876e-02,-2.36728e-02,2.38249e-02,3.04670e-02,1.28197e-02,-3.49587e-03,-3.15037e-02,2.58856e-02,-2.49602e-03,1.11827e-02,1.02626e-02,2.57605e-02,-3.35719e-02,-2.03854e-02,-1.11789e-02,-4.32241e-02,-4.30893e-03,4.19658e-03,1.14612e-03,2.79474e-02,5.09159e-03,-6.73443e-03,4.56562e-03,1.53592e-02,3.43254e-02,1.83792e-02,-2.02468e-02,2.48101e-02,-2.98571e-02,5.36636e-04,1.99050e-02,-2.25557e-02,3.33606e-02,1.14808e-02,2.08841e-02,-3.29743e-02,1.13704e-02,1.02094e-02,-8.05675e-03,-1.82346e-02,1.44614e-02,-1.68320e-02,-1.72085e-02,-9.30091e-03,-3.66816e-02,1.74861e-02,-1.71457e-02,-3.26880e-02,-1.04594e-02,2.45671e-02,9.97443e-03,2.16138e-04,8.04694e-03,8.39362e-03,-6.09255e-04,8.98965e-03,-2.88657e-02,3.53426e-02,-2.13392e-03,1.75428e-02,-8.56394e-03,-3.67112e-02,2.58873e-03,-4.63226e-03,2.90556e-02,8.19704e-04,2.43490e-02,1.18336e-02,-3.61403e-02,1.10203e-02,-6.69370e-03,-1.67420e-02,-1.17794e-02,1.02965e-02,2.85623e-02,1.53327e-03,-3.50284e-02,1.19441e-02,-1.27616e-02,1.79089e-02,6.26133e-03,1.52569e-02,1.17679e-02,-2.75647e-02,3.31290e-02,2.25807e-02,3.41113e-02,1.80524e-02,-2.15873e-02,-2.66423e-02,-3.08794e-03,-3.09806e-02,-1.64438e-02,-6.22458e-03,1.45155e-02,2.90256e-03,1.04276e-02,3.79008e-03,1.15600e-02,-1.19695e-02,-1.52031e-02,1.50949e-02,-1.45917e-02,-2.06581e-02,-7.53341e-03,3.63209e-03,2.31986e-02,-3.89912e-03,3.46973e-02,-4.41250e-03,-1.96768e-02,-2.09246e-02,3.27822e-03,-2.48516e-02,5.03168e-03,2.04854e-02,-1.81488e-02,1.47493e-02,-1.42522e-02,-3.53831e-02,9.40559e-03,-3.71474e-02,-1.36655e-03,1.32136e-02,4.56285e-03,-2.87547e-02,1.15804e-02,-1.08939e-02,3.23942e-02,-7.32475e-03,-3.13370e-02,2.74239e-02,1.69510e-02,3.87760e-02,1.13359e-02,-1.97486e-02,7.62240e-03,3.22340e-02,3.03806e-02,-3.09910e-03,-3.36669e-02,2.95954e-02,3.10654e-02,1.45560e-02,2.77760e-02,4.01729e-03,2.14559e-02,-9.30940e-03,5.48448e-03,2.86566e-02,2.36148e-02,-1.04932e-03,-9.34586e-03,-4.55798e-03,4.21908e-03,-1.37291e-02,1.47372e-02,-4.25144e-02,2.89701e-02,-1.95983e-02,-1.20048e-02,-1.97246e-02,3.72937e-02,2.37255e-02,-1.91588e-02,9.55455e-03,-7.49854e-05,2.59870e-02,2.86910e-02,9.89159e-03,8.90893e-03,3.46292e-02,1.82050e-02,-1.07246e-02,3.23386e-02,1.90580e-02,-7.28008e-03,-1.81157e-02,-5.61776e-03,2.66457e-02,-1.15252e-02,5.58343e-03,-3.65139e-02,1.96819e-02,2.31868e-03,1.51113e-02,-1.64931e-02,-2.20383e-02,-2.58673e-02,3.75086e-02,2.91252e-02,1.03476e-02,-3.54390e-02,-3.38368e-02,-9.92070e-03,-2.19333e-02,8.89118e-03,-2.33753e-02,1.54570e-02,2.79650e-02,1.62630e-03,-1.97102e-02,-3.02208e-02,3.13242e-02,1.65783e-02,-1.61069e-02,-1.81730e-03,1.86496e-03,-2.74884e-02,-3.84628e-03,-3.75261e-02,2.61829e-02,2.57873e-02,7.45756e-03,5.60292e-04,-1.84717e-02,1.29427e-02,2.30140e-02,-3.06157e-02,5.50287e-03,-1.87385e-03,3.02547e-02,1.42027e-02,-1.86407e-02,-1.98634e-02,1.83393e-02,2.07553e-02,-1.91704e-03,-2.35256e-02,1.67967e-02,1.39201e-02,-3.20525e-02,4.03516e-03,-2.01297e-02,6.71833e-03,3.58662e-02,-2.62337e-02,-2.02511e-02,2.25367e-02,-3.70754e-02,-2.13326e-02,-2.72227e-02,3.40065e-02,-5.79345e-03,3.37316e-02,-3.16956e-02,-1.43427e-02,-2.25325e-02,2.74557e-03,-3.36057e-02,8.22992e-03,-1.55735e-02,1.55828e-02,-8.73987e-04,-1.67243e-02,7.80055e-03,-1.49914e-02,7.43850e-03,1.17872e-02,1.05441e-02,-1.78164e-02,3.13974e-02,-1.69806e-02,2.99348e-02,2.74354e-02,1.54520e-02,-1.66049e-02,1.01883e-02,-2.17634e-02,-2.30128e-02,-3.21460e-02,7.74410e-03,4.61684e-03,-2.76766e-04,4.09734e-03,-2.80365e-02,2.38314e-02,-2.38477e-02,6.88137e-03,-2.07380e-02,1.56378e-02,3.42749e-02,1.75421e-02,-2.75959e-02,2.39842e-02,-3.07951e-02,-3.55977e-02,1.53050e-02,-2.67746e-02,1.08438e-02,2.35074e-02,-2.98967e-02,-1.93713e-02,-5.53595e-03,1.67610e-02,7.12506e-04,-1.30970e-02,-2.31496e-02,-1.09877e-02,-1.16635e-02,3.14867e-02,-4.50119e-03,-6.06831e-03,-8.80925e-03,2.63112e-02,-5.95021e-03,7.87081e-03,-1.71324e-02,-2.07133e-02,2.66193e-02,-7.75946e-03,2.35216e-02,2.07120e-03,-4.00787e-03,-3.20880e-02,2.09069e-02,3.30423e-02,2.16775e-02,-7.94015e-03,2.19577e-02,1.45518e-02,1.42986e-02,-4.51305e-03,-3.34670e-02,-1.72722e-02,-2.28288e-02,-8.80910e-03,5.61402e-03,-2.27385e-02,1.46316e-02,-3.41156e-02,2.48630e-02,-1.34478e-02,2.42157e-02,-1.67819e-03,3.53911e-02,3.29825e-02,1.83644e-02,-1.18031e-02,1.57345e-02,-1.26129e-02,-1.72015e-02,7.15453e-03,-2.16217e-02,1.02461e-02,-1.28711e-02,-4.64476e-03,7.96429e-03,2.55283e-02,1.92699e-02,-1.80648e-02,-3.18429e-02,-2.74195e-02,5.97693e-03,2.56701e-02,-4.56342e-03,-5.90102e-03,-1.91042e-02,-5.49526e-03,-1.36131e-02,-1.03150e-02,-1.03119e-02,-2.43906e-02,-1.33169e-02,-2.45108e-02,1.80950e-02,-2.08726e-03,-3.42453e-02,2.35959e-02,-3.96178e-03,-3.51667e-02,3.43241e-02,-2.07245e-02,-2.05202e-02,-2.44977e-02,-2.06255e-02,1.43510e-02,2.76603e-02,-1.24228e-02,-3.10816e-02,-2.26081e-02,1.04402e-03,-1.83067e-02,1.64294e-02,1.92568e-02,-2.88826e-02,-6.79922e-03,2.33347e-02,-1.82755e-02,-1.33133e-02,-2.00897e-04,3.46903e-02,1.59118e-02,2.82310e-02,-1.90669e-03,-2.14583e-02,1.74202e-02,4.95306e-04,3.07356e-02,-4.39056e-03,-5.11911e-03,2.71663e-02,9.05984e-03,-3.05030e-02,6.85463e-03,-1.26907e-02,2.60284e-02,-2.82162e-02,-2.06593e-02,4.55653e-03,-2.30487e-02,4.45546e-03,-1.09814e-02,2.83358e-02,-3.48610e-02,-2.59499e-02,-2.30325e-02,-1.10478e-02,-1.36927e-02,3.56778e-02,-6.03867e-03,4.48732e-03,-2.10365e-02,-9.95651e-03,-3.22359e-02,-3.10976e-02,2.16414e-02,3.50621e-02,3.76541e-03,1.81480e-02,1.06048e-02,9.43803e-03,-4.93012e-03,1.24001e-02,-8.99195e-03,-1.66285e-02,2.39417e-02,1.13750e-02,-2.38727e-02,3.53188e-03,2.27928e-02,-2.64102e-02,-1.04524e-02,9.71397e-03,-2.91774e-02,-9.37881e-03,3.47406e-02,-1.83363e-02,2.75148e-02,-1.28890e-02,-3.17806e-02,1.82816e-03,9.73008e-03,-3.26956e-02,-3.29987e-03,-8.72958e-03,-3.46033e-02,-8.01540e-03,-7.67204e-03,-2.46788e-02,-2.78458e-02,4.30173e-03,1.80624e-02,-3.81407e-02,6.83718e-03,2.10197e-02,-9.37394e-03,-1.21757e-02,2.01436e-02,-1.13654e-02,-2.38896e-02,2.96547e-02,6.30880e-03,8.26936e-03,-2.28309e-02,-1.66475e-02,4.32639e-03,-1.90583e-02,2.74245e-02,-7.33466e-03,-2.03177e-02,-1.53475e-02,1.56996e-02,3.54657e-03,2.72958e-02,3.13345e-02,1.63503e-02,-2.51429e-02,8.51283e-04,-5.96637e-03,-5.12281e-03,-3.32019e-02,1.33858e-03,-3.72503e-03,-2.01316e-02,-2.45410e-02,3.18499e-02,2.16780e-02,1.78435e-02,1.16108e-02,-1.30006e-04,-3.28206e-02,3.12128e-02,5.10053e-03,3.22539e-02,-1.35901e-02,2.48524e-02,2.56791e-03,-8.85081e-03,-2.42376e-02,1.29260e-02,3.13224e-02,1.90010e-02,-3.62700e-02,2.00823e-02,2.50722e-02,-3.65258e-02,3.47193e-02,-7.92762e-03,2.61494e-02,4.89619e-03,1.89041e-02,2.56526e-02,-2.83534e-02,-2.49612e-02,-2.04399e-02,1.85060e-02,2.67544e-02,2.48727e-03,-3.26657e-02,4.67378e-03,-3.08603e-02,2.82276e-03,1.90129e-03,-5.34751e-03,-2.69025e-02,-3.14153e-02,5.08304e-03,2.69614e-02,-1.75429e-02,2.35023e-02,-6.21885e-03,-1.84549e-02,1.49671e-02,-3.38041e-02,-3.35542e-02,-2.59619e-02,-1.93624e-02,1.74918e-03,-9.10470e-03,-1.52890e-02,-7.09614e-03,-1.60156e-02,2.19099e-02,1.05947e-03,2.84871e-02,3.36508e-03,-5.26574e-03,1.64644e-02,
-1.62909e-02,1.00501e-02,3.47793e-02,-2.78359e-02,-3.10465e-02,-1.24045e-02,1.73663e-02,-3.02521e-03,-2.60199e-02,-1.37159e-02,-1.85153e-02,-2.44180e-02,-2.23130e-02,2.18003e-02,4.46943e-03,3.00449e-02,2.22363e-02,-1.15003e-02,-2.65184e-02,1.45910e-02,1.15758e-02,3.05237e-02,1.58769e-02,2.59480e-03,9.26417e-03,-2.29066e-02,2.38423e-02,8.95743e-03,-2.49392e-02,-3.08156e-03,9.55635e-03,1.45202e-02,2.17768e-02,-1.20762e-02,-2.39903e-02,3.37583e-02,3.26236e-02,-2.21427e-02,-3.42029e-02,-1.88578e-02,-4.23978e-03,5.14540e-03,-2.87490e-02,-4.67789e-03,-2.35390e-02,1.65289e-02,6.23977e-03,3.28845e-02,-2.13261e-02,1.86842e-02,-1.08355e-02,-1.84170e-03,3.10060e-02,3.44716e-02,2.22813e-02,-2.70660e-02,-2.53738e-02,2.37485e-02,-1.74261e-02,3.01939e-02,-4.08449e-04,-1.54970e-02,-2.41818e-02,7.58907e-03,4.19877e-03,3.56731e-02,-2.39432e-02,2.76453e-02,2.64123e-02,1.56482e-02,2.65430e-03,1.75041e-02,-6.82000e-03,3.47267e-02,-2.62622e-02,3.08443e-02,-1.29856e-02,1.81217e-02,3.10519e-02,-3.05087e-02,-1.20959e-02,3.01655e-02,8.11292e-03,3.19676e-02,1.56253e-02,7.38039e-03,1.51812e-02,1.25209e-02,1.11243e-02,-5.45413e-03,1.82981e-02,-8.31276e-03,-7.02797e-03,1.21430e-02,1.53090e-02,1.36775e-02,1.39309e-02,-1.09579e-02,1.23063e-02,-2.75713e-02,-1.70762e-02,2.90505e-03,1.23318e-02,3.75317e-02,-2.27533e-02,1.94585e-02,-3.40307e-02,-2.29068e-02,-2.82545e-02,5.56081e-03,-2.47592e-02,-1.91960e-02,1.17722e-02,-1.69092e-02,3.33576e-02,1.76017e-02,1.37190e-02,-3.14006e-02,1.71024e-02,-2.63004e-02,-1.01721e-02,8.86029e-03,-1.67308e-02,2.45420e-03,-3.27888e-02,-2.69147e-02,1.13693e-02,1.77073e-02,1.57516e-02,1.80423e-02,1.86665e-02,-2.34184e-02,2.07220e-02,2.87555e-02,-1.01366e-02,-4.13779e-03,-3.23023e-03,4.01595e-03,2.17155e-02,-2.88568e-02,2.82767e-02,3.00576e-03,-1.70858e-02,-1.87410e-02,2.02903e-02,2.39472e-02,2.18940e-02,-2.85198e-02,-3.22600e-02,2.37915e-02,1.34745e-03,9.73063e-03,2.60512e-02,8.13317e-03,1.79586e-02,4.94312e-03,-2.73451e-02,2.13194e-03,1.62362e-02,-3.01743e-02,-3.16203e-02,-2.63816e-02,-2.20863e-02,4.17530e-04,1.61142e-02,1.47434e-04,-2.23223e-02,-4.89488e-03,1.95234e-02,-3.23915e-02,1.85524e-02,1.09572e-02,-1.84163e-02,-3.12895e-02,-2.04627e-02,-1.17599e-02,1.26341e-02,3.35904e-02,-2.03868e-02,-2.19635e-02,2.93951e-02,-2.86392e-02,3.11233e-03,-4.50824e-03,6.75666e-03,-1.24476e-02,1.28958e-02,-9.21606e-03,-2.64461e-02,2.94356e-03,-7.69167e-03,-6.76162e-03,1.03648e-03,-4.77825e-04,-1.43134e-02,-1.67135e-02,1.91060e-02,-2.61774e-02,-2.90283e-02,-1.30454e-02,-2.42287e-02,2.19178e-03,-1.06116e-02,-1.99814e-02,-1.33288e-02,2.85745e-03,2.31482e-02,-1.07924e-02,-1.66394e-02,1.96951e-03,2.73507e-02,1.26644e-02,2.69109e-02,-3.80026e-02,-4.02831e-02,1.73963e-02,2.73424e-02,2.63619e-02,-7.68013e-03,-2.15017e-02,-6.16156e-03,-4.44558e-04,2.45652e-03,2.23965e-02,-2.40538e-02,-7.76842e-03,3.58704e-02,3.29213e-02,1.53717e-02,4.28913e-03,-2.50723e-02,7.98184e-03,2.58420e-02,1.11396e-02,2.30083e-02,5.05977e-03,9.88529e-03,-2.25642e-02,-2.72424e-02,-2.04495e-02,-1.77203e-02,-2.23039e-02,6.67290e-03,-2.05400e-02,-1.45792e-02,3.05857e-02,-3.68042e-02,2.53132e-02,3.01647e-02,-2.28887e-02,-2.80285e-02,1.38187e-02,1.38253e-03,-1.34189e-03,-1.17897e-02,3.24161e-02,-3.93488e-02,5.97047e-04,-4.64850e-03,9.98575e-03,-6.40773e-03,3.01998e-02,-2.69857e-03,4.10083e-03,2.16809e-02,-1.52817e-02,-1.87839e-02,-2.89203e-02,-1.64324e-02,-2.21409e-02,-2.75338e-02,-3.45713e-03,7.21500e-03,1.98707e-02,-3.71710e-02,2.27439e-02,3.75430e-03,-9.77271e-03,9.93223e-03,-1.91735e-02,1.82639e-02,-1.63062e-02,3.00218e-02,2.15403e-02,-2.34503e-02,3.00272e-02,3.43199e-02,-2.63944e-02,-1.42297e-02,1.63572e-02,2.95427e-02,-2.84027e-02,-6.49325e-03,-8.62595e-03,-1.52120e-02,1.47296e-02,-5.16671e-03,-1.63914e-02,2.56754e-02,-1.08529e-02,-2.47134e-02,-3.06142e-03,-9.87432e-03,3.39759e-02,5.67277e-03,2.45851e-03,-3.03271e-02,-2.82592e-03,-4.64360e-03,-2.46789e-02,-2.17032e-02,-2.82794e-03,2.86427e-02,1.88888e-02,-9.76705e-03,-9.54117e-04,7.48991e-03,3.98903e-02,1.17369e-02,-2.38649e-02,-4.19360e-02,1.76701e-02,1.09577e-02,-3.35239e-02,-1.17523e-02,2.69214e-02,2.76573e-02,9.47107e-03,-4.12226e-03,1.38695e-02,3.28895e-03,1.50334e-02,-3.36025e-02,2.99945e-02,1.95866e-03,-1.10000e-03,1.63486e-02,2.80877e-02,-1.22955e-02,-2.51973e-04,3.72185e-02,3.32854e-02,5.60970e-03,1.52022e-02,1.25722e-02,1.96562e-02,-1.31336e-02,-3.51049e-02,1.98774e-02,-2.05058e-02,-4.40987e-02,-2.64877e-03,3.17262e-03,8.23219e-03,9.19419e-03,-2.74301e-02,-2.83362e-02,1.42369e-03,9.65491e-03,-8.53597e-03,-2.10980e-02,-3.44645e-03,1.09077e-02,-4.78902e-03,3.21125e-02,2.90471e-02,1.05347e-03,3.22841e-02,-1.29621e-02,2.45346e-02,-9.13231e-03,5.18867e-02,-9.06921e-03,1.83418e-02,-2.64335e-02,-2.25505e-02,-4.99753e-03,8.03726e-03,-1.37858e-02,-1.01870e-02,2.46613e-02,-2.29290e-02,-1.11738e-02,2.75129e-02,1.91824e-02,1.58954e-02,-1.79849e-02,-3.51500e-03,1.97559e-02,-9.39051e-03,-2.41755e-04,2.85279e-02,-1.77184e-02,3.40776e-02,1.75511e-02,3.36300e-02,-2.28457e-02,4.14448e-02,4.52196e-02,-2.29756e-03,1.20728e-02,3.44934e-02,2.41736e-02,1.28623e-02,-3.42367e-02,-5.60052e-02,-3.16321e-02,-1.16829e-02,-1.72984e-02,3.30424e-02,2.72890e-03,-3.72048e-03,-7.24831e-03,2.04458e-02,3.52609e-02,2.12787e-02,7.14669e-03,-2.24980e-02,5.84052e-03,-2.30153e-02,9.78289e-03,1.77244e-02,2.02374e-02,1.78052e-02,-6.77100e-03,8.37155e-03,-5.42300e-03,4.19842e-02,2.31806e-02,-1.28412e-02,2.78103e-02,-2.21365e-02,1.79496e-02,6.60983e-03,9.60012e-03,-4.50994e-02,-4.09880e-02,-1.12377e-02,2.17578e-02,-5.09120e-03,2.84375e-02,-8.00596e-03,1.42480e-02,2.47029e-02,-3.58120e-02,-2.78567e-02,1.51593e-02,-3.43589e-02,-5.10404e-03,-3.07673e-02,-8.52367e-03,-8.79626e-03,-8.58656e-04,-7.90036e-03,-1.91413e-02,-2.04318e-02,1.94620e-02,3.60883e-02,2.89845e-02,-1.52892e-02,-8.00019e-03,6.01481e-03,-2.45695e-02,2.06037e-02,-4.41626e-03,1.51213e-02,-2.41593e-02,1.53850e-02,8.71905e-03,6.20698e-03,-1.40057e-02,-2.94503e-03,-8.74532e-03,2.10136e-02,2.65323e-02,1.76538e-02,-3.22548e-02,3.20661e-02,2.22641e-02,-8.35961e-03,-1.16994e-02,-1.50897e-02,3.39189e-02,1.54772e-02,-3.27476e-02,2.81496e-02,-1.65801e-02,2.12685e-02,-5.01693e-03,-8.46207e-03,-2.96584e-02,-2.98369e-02,-7.49502e-03,7.07116e-03,-1.00080e-02,4.67968e-04,4.11375e-02,-1.24540e-02,3.44729e-02,-3.17340e-03,-3.49256e-03,-2.63785e-02,-8.91563e-03,-1.05363e-02,-2.26781e-02,1.84932e-02,2.24410e-02,-2.62639e-02,2.26147e-02,2.05229e-02,1.64256e-02,1.92531e-02,1.70960e-02,6.92635e-03,1.33957e-02,2.02241e-03,8.19591e-03,-3.31835e-02,6.29154e-03,1.64463e-02,-3.92549e-03,-3.55260e-03,1.61280e-02,-2.02506e-02,-2.11573e-02,6.28643e-03,2.33218e-03,-6.73665e-03,2.56490e-02,-3.69507e-02,7.62799e-03,-3.33321e-02,1.83953e-02,-1.18838e-02,-1.16785e-02,-2.13216e-02,-2.45381e-02,-1.83325e-02,-1.16646e-02,-2.81865e-02,-2.11221e-02,2.93189e-02,-1.55141e-02,-2.79272e-02,-3.43927e-02,-9.57409e-03,2.82449e-03,5.80249e-04,-2.41512e-02,1.55592e-02,-2.43684e-02,-2.49282e-02,2.71231e-02,1.82988e-02,6.16893e-03,1.65803e-02,-2.37122e-02,-1.18503e-02,-5.77529e-03,-2.94610e-02,-1.46974e-02,-1.16591e-02,-5.95200e-03,-1.07558e-02,-3.26491e-02,2.69373e-02,-2.83631e-02,1.00195e-02,2.55432e-02,3.42084e-02,4.13291e-03,-3.10838e-02,-2.56921e-02,-2.77501e-02,3.90929e-03,-1.35647e-02,-4.29164e-03,2.78071e-02,-4.19670e-03,1.26287e-02,1.75088e-02,1.83587e-02,5.79796e-04,1.84782e-02,8.28337e-03,2.04616e-02,-2.57690e-02,3.24493e-03,2.47834e-02,5.77717e-03,2.62767e-02,2.20199e-02,2.88194e-02,2.09806e-03,-1.04827e-02,1.74218e-02,-3.06867e-02,-2.43483e-02,1.60285e-02,-3.83668e-03,7.56930e-03,-5.59806e-03,-6.07182e-04,2.66210e-02,-6.91192e-03,-9.64329e-03,1.67152e-02,3.20314e-02,-1.76410e-02,1.41890e-02,-1.56967e-02,-2.32634e-02,3.10805e-02,2.02272e-02,-3.53125e-02,2.72448e-02,-2.94246e-02,2.97459e-02,1.65493e-02,-7.10657e-03,-1.10812e-02,-1.77116e-02,-1.86384e-02,-2.89561e-02,1.98966e-02,1.89907e-02,-2.43623e-02,2.19313e-02,-2.56249e-02,-2.23684e-02,1.10823e-02,-1.18294e-02,1.09179e-02,7.60621e-03,-9.92700e-03,8.71290e-03,1.84623e-03,-1.64088e-02,-2.17675e-02,-2.49476e-02,2.17679e-02,2.38357e-02,-3.17296e-02,-1.23885e-02,-2.36386e-02,1.70471e-02,-2.78408e-02,3.39408e-02,3.29238e-03,1.54436e-02,-3.68572e-02,-4.35666e-03,9.10341e-03,7.51862e-03,2.62371e-02,-1.74108e-02,2.11676e-02,-2.18919e-02,-3.76333e-02,-5.93083e-03,3.69193e-02,-1.51300e-02,-5.04017e-03,1.11656e-03,9.93772e-03,-3.50504e-02,1.50447e-02,1.43327e-02,3.45967e-03,-1.38580e-02,3.17338e-02,-1.24223e-02,-2.32339e-02,-2.46381e-02,1.95297e-02,-1.47354e-02,2.72229e-02,1.78184e-02,-3.58384e-02,-1.59203e-02,-3.68161e-03,1.01988e-02,-1.85822e-02,-1.00119e-02,3.64587e-02,-2.07125e-02,3.80518e-02,4.47002e-04,-4.34268e-03,1.31448e-02,-1.72422e-02,1.16396e-02,-3.03431e-03,-2.70480e-02,3.45700e-02,1.11905e-02,-7.04061e-03,3.95141e-03,3.34182e-02,1.64773e-02,2.94161e-02,3.29449e-02,2.17061e-03,8.00523e-03,-9.38645e-03,1.01925e-02,6.94712e-03,-2.99509e-02,-1.43821e-02,2.17139e-02,7.66373e-03,-2.79089e-02,-3.20497e-02,-1.99546e-02,-1.81664e-02,-3.29364e-02,1.83086e-02,-3.51069e-02,1.83685e-02,2.06571e-02,1.96542e-02,-9.06061e-03,6.27707e-03,2.76378e-02,-3.45630e-02,-3.41313e-02,7.86400e-03,-1.06609e-02,2.92770e-02,-2.97560e-03,-3.54305e-02,3.10416e-02,3.14639e-03,-3.34689e-02,1.59244e-02,-2.24812e-02,-2.78010e-02,-2.88632e-02,-2.60803e-03,-8.42268e-03,-1.52056e-02,2.16914e-02,-1.16868e-03,8.93606e-03,-6.13743e-04,2.75133e-03,-1.21662e-02,2.63109e-02,-1.11147e-02,2.47718e-02,-2.80816e-02,2.55824e-02,-3.10384e-02,-2.23705e-02,2.35714e-02,1.60397e-02,-2.40607e-02,-2.85383e-02,-2.76385e-02,3.29530e-02,-2.52104e-02,2.27421e-02,1.63271e-03,-1.89427e-03,3.09105e-03,-1.44040e-02,-2.33325e-02,4.13371e-03,2.98350e-02,3.14854e-02,-2.14128e-02,1.36691e-02,-4.48645e-03,-2.07827e-03,-2.45754e-03,2.91475e-02,1.17242e-02,2.54435e-02,6.87414e-03,2.90645e-02,2.25086e-02,2.80101e-02,9.27029e-03,-1.99680e-02,
