// Neural Network File Format by Kyle Julian, Stanford 2016
4,15,7,20,
15,10,20,10,7,
0,
0.0,16.0,1.456346,0.0,0.0,1.0,1.0,0.0,0.0,1.0,0.0,0.0,0.0,1.0,0.0,
1.0,47.7061,1.93,1.0,1.0,3.0,4.0,3.0,1.0,3.0,1.0,3.0,2.0,3.0,4.0,
0,0,0,0,0,0,0,0,0,0,0,0,0,0,0,0,
1,1,1,1,1,1,1,1,1,1,1,1,1,1,1,1,
2.11771e-01,4.34438e-01,2.14752e-02,3.95712e-01,-4.77974e-01,-6.54504e-01,-6.01906e-01,4.16686e-01,1.23874e-01,4.37262e-01,5.15289e-01,-1.95942e-02,2.82088e-01,1.66578e-01,-3.14408e-01,
-5.24124e-01,8.87952e-02,-1.75155e-01,-1.00470e+00,5.96099e-01,-1.08034e-01,6.54626e-01,2.15041e-01,-4.20245e-01,1.58998e-01,-1.12640e+00,-4.69030e-01,6.09350e-01,-4.39297e-01,-5.02971e-01,
-3.65529e-01,2.52358e-01,1.82384e-01,7.69147e-01,8.06566e-01,6.04057e-01,-1.81895e-01,9.64369e-01,-5.00585e-01,5.99844e-02,-1.03469e-01,1.20761e-01,-1.21865e-01,-7.51453e-01,-6.09489e-01,
4.05744e-01,-2.89620e-01,-2.21236e-01,4.60398e-01,-9.61441e-02,-3.87044e-01,-2.78424e-01,7.11223e-02,4.70576e-01,-7.02113e-03,1.55910e-01,1.47481e-01,4.52923e-01,-3.25426e-01,-1.04473e-01,
5.73865e-01,3.81645e-01,2.29814e-01,-1.01171e+00,-1.74472e-02,7.13880e-02,-1.55453e-01,-6.21740e-01,2.59609e-01,2.03754e-01,8.66302e-03,2.12259e-01,-4.02368e-01,7.66333e-01,4.72776e-01,
7.77012e-01,-1.60359e-01,4.86460e-01,-5.12584e-01,2.17876e-01,-3.05741e-01,4.34509e-01,4.94964e-01,4.19114e-01,6.58918e-02,6.57477e-01,2.35401e-01,4.52063e-01,4.11820e-01,-1.81955e-01,
4.53316e-01,-4.15907e-01,-8.02773e-02,4.63349e-01,-4.39908e-01,4.75134e-01,1.60637e-01,4.28949e-01,-1.94178e-01,3.28711e-01,-1.79228e-01,3.38944e-01,6.24920e-01,3.38552e-01,5.47161e-01,
-4.42306e-01,-4.61122e-01,-3.94653e-01,4.59607e-01,4.64338e-01,-7.00906e-02,4.62398e-01,-4.85438e-01,-3.92211e-01,3.34318e-01,-1.04929e-01,-2.51874e-01,-3.39911e-01,-1.44384e-01,3.39724e-01,
-3.92719e-01,-3.44309e-02,6.08726e-02,-1.43990e-01,2.54495e-01,-3.11364e-01,-1.13977e-02,-1.81642e-01,-4.88900e-01,-3.20131e-01,5.89124e-02,-2.62090e-01,-3.74999e-01,1.05920e-02,3.97070e-02,
-1.46508e+00,6.72301e-02,-1.11268e-01,-6.65461e-01,2.20571e-01,6.00966e-01,-1.86139e-01,-2.73078e-01,-6.76915e-02,3.45313e-01,1.14044e+00,3.58691e-02,-4.18792e-01,-7.51910e-02,2.85855e-01,
-9.51545e-02,
2.13682e-01,
-2.31610e-01,
0.00000e+00,
1.93324e-01,
2.94683e-01,
8.76245e-02,
0.00000e+00,
0.00000e+00,
1.76599e-01,
-3.43775e-01,-2.54651e-01,-1.14421e-01,-2.98082e-01,-4.33927e-01,-3.83059e-01,-1.66014e-01,-5.17515e-02,-2.89174e-01,-3.03120e-01,
3.75046e-01,-3.61407e-01,-3.92903e-01,-2.94664e-01,2.19638e-01,-2.87473e-01,-7.31791e-01,4.39058e-01,1.34514e-01,-5.08505e-01,
-3.39793e-01,-7.18836e-02,1.42429e-02,-3.53299e-01,-5.14105e-02,-3.69638e-01,-1.40416e-02,-2.56936e-01,-3.13875e-01,1.43301e-01,
-2.70698e-02,-4.10996e-01,-3.82421e-02,-4.20906e-01,2.01984e-01,5.32083e-01,6.44077e-01,3.49109e-01,4.34213e-01,2.17922e-01,
2.12687e-01,2.17370e-01,4.29022e-01,2.09330e-02,-2.79451e-01,-7.28751e-01,4.15503e-01,2.22208e-01,-2.18339e-01,-6.04272e-01,
-3.87260e-01,3.72237e-01,2.18875e-01,-1.00225e-01,-7.38373e-02,-1.72714e-01,2.40438e-01,-1.74267e-01,-2.88637e-01,-4.13932e-01,
-3.63426e-01,8.24899e-01,5.38084e-01,3.19851e-01,-1.31771e-01,8.58550e-01,-3.91639e-01,4.04617e-01,-3.95564e-01,-5.87375e-01,
2.71985e-01,-5.67609e-01,-5.46286e-01,5.73312e-02,4.43848e-01,-7.45591e-02,2.77481e-01,-3.57646e-01,-1.85957e-01,-1.39078e-01,
-1.70479e-01,4.21937e-01,-6.87098e-01,1.87844e-01,4.77389e-01,-3.98060e-01,3.26160e-01,-2.10691e-01,-2.12871e-01,1.67850e-01,
-8.63967e-02,-1.28783e-01,-3.38000e-01,-1.01483e-01,6.39997e-02,-4.47307e-02,3.28745e-01,3.49606e-01,-3.05104e-01,-4.10186e-01,
-1.06543e-01,-7.36268e-02,-2.19926e-01,1.83481e-01,-4.44970e-01,1.73103e-01,8.23618e-02,1.71603e-01,6.41034e-02,-3.65928e-01,
-3.35678e-01,3.23626e-02,-2.87753e-01,-3.36625e-01,4.84585e-02,-3.07868e-01,3.56148e-01,3.37571e-01,1.41197e-01,2.15373e-01,
4.81721e-01,-1.86844e-01,4.20573e-01,-2.09482e-01,-3.41833e-01,-3.91325e-03,6.61709e-01,-3.22138e-01,1.17066e-01,-5.09136e-01,
-3.14152e-02,-3.71657e-01,3.35456e-01,2.65856e-01,8.58162e-02,-1.35427e+00,-1.26394e-01,4.26346e-01,1.47431e-01,-8.91157e-01,
-4.40490e-01,-1.90042e-01,2.48630e-01,-3.97530e-01,3.46701e-01,-1.16401e-01,-1.98207e-02,3.74542e-01,2.96874e-01,5.10740e-01,
4.08079e-02,-4.51580e-01,4.98471e-01,3.02891e-01,4.39321e-01,9.95180e-02,-6.10260e-01,5.10454e-02,2.25302e-01,-4.02125e-01,
5.21152e-02,5.54528e-01,5.22012e-01,4.18938e-01,1.07991e-01,-2.49459e-01,2.99311e-01,8.65505e-02,-4.27184e-01,3.36358e-01,
-3.34401e-01,4.85197e-02,-8.15608e-02,-3.78910e-01,-2.71348e-01,2.79734e-02,-3.91475e-01,-2.72256e-01,-2.55817e-01,-4.26862e-01,
5.21279e-01,4.02745e-02,-3.21081e-01,2.75447e-01,1.26497e-01,3.46141e-01,2.78466e-01,1.56407e-01,-2.61646e-01,-4.19666e-02,
2.24856e-01,-2.97958e-01,-1.08777e-01,2.70814e-01,-3.66468e-01,-4.13042e-02,-7.91540e-02,1.26103e-01,-3.56602e-01,-7.08842e-02,
0.00000e+00,
-2.79435e-02,
0.00000e+00,
1.17786e-01,
-2.34306e-01,
0.00000e+00,
1.00502e-01,
9.53090e-02,
2.30264e-01,
-3.09773e-02,
0.00000e+00,
-2.00886e-02,
-1.07884e-01,
-7.03511e-02,
-7.45958e-02,
-5.79444e-02,
-2.17382e-02,
0.00000e+00,
1.38920e-01,
0.00000e+00,
3.50469e-01,-3.57532e-01,-3.76115e-01,-7.36483e-02,-2.86274e-01,-5.69299e-02,1.82136e-02,1.76192e-01,-3.69810e-01,-3.61930e-01,-1.26031e-01,-3.24486e-02,2.46347e-01,-2.33113e-01,-1.74369e-02,-3.46496e-01,1.08044e-02,2.67654e-01,-3.18708e-01,-3.51783e-01,
4.07608e-01,4.32197e-01,-4.17802e-01,-2.63160e-01,-7.69849e-02,8.86377e-02,-2.19878e-01,4.13831e-01,-1.80796e-01,-4.23508e-01,1.19901e-01,-2.27082e-01,2.94416e-01,-3.01288e-01,2.97340e-01,-3.74676e-01,-1.98614e-01,8.00365e-02,-4.24329e-01,1.11869e-01,
3.75196e-01,-1.44676e-01,3.42905e-01,4.34442e-01,-3.29454e-01,-1.41092e-01,1.39316e+00,4.38909e-01,1.37367e+00,-2.72132e-01,4.08906e-01,-2.24620e-01,-2.03190e-01,-4.63996e-01,4.80894e-02,-2.75896e-01,-7.95685e-02,3.70947e-01,3.72680e-01,-1.55618e-01,
-3.99582e-01,8.30805e-01,-2.27779e-02,5.73016e-02,-2.60814e-01,3.29408e-01,6.72436e-01,5.97510e-01,1.96247e-01,-1.54803e-01,6.24176e-02,-4.04266e-01,-3.63063e-01,8.80706e-01,-1.33483e-01,2.45371e-01,-3.20111e-01,3.95043e-01,2.28532e-01,-3.84119e-01,
3.03908e-01,-2.92840e-01,2.37973e-01,-1.51838e-01,1.89185e-01,-1.52400e-01,-1.24939e-01,-8.20611e-02,-3.00357e-01,8.28530e-02,3.11482e-01,2.73874e-01,-3.55617e-01,3.14794e-01,-9.19051e-02,-3.19772e-01,1.89239e-01,-4.36923e-01,-1.83852e-01,4.25386e-01,
-3.09155e-01,5.85158e-01,-2.35318e-01,3.93170e-01,6.46619e-01,-2.96063e-02,-7.73664e-01,4.57331e-02,2.20912e-01,-6.58454e-02,-3.31606e-02,1.95809e-01,6.57180e-01,-7.46507e-02,-5.22834e-01,1.79872e-01,-2.63643e-01,-1.71676e-01,3.03468e-01,-2.68311e-01,
2.35447e-01,-4.24772e-01,2.54403e-01,5.23673e-02,-3.18505e-01,-2.56399e-01,-3.83146e-02,-7.49989e-02,2.10210e-02,1.20368e-01,3.38896e-01,-3.68662e-01,-2.33927e-01,-3.28219e-01,-3.82734e-01,-2.89436e-01,2.20301e-01,4.38997e-01,-4.22786e-01,4.17033e-01,
2.35082e-01,4.39436e-02,-3.78408e-01,-3.17810e-01,2.77845e-01,-2.48894e-01,1.29089e+00,1.35086e-01,-6.42780e-01,1.48282e-01,-2.57851e-01,-1.19059e-01,6.93732e-02,3.92468e-01,-5.46318e-02,2.83896e-01,-1.58558e-01,-3.39799e-01,-1.26037e-01,-1.79201e-02,
3.20071e-01,-1.80390e-01,4.02479e-01,-1.16721e-01,3.51603e-01,-2.85028e-01,1.92022e-01,-1.97309e-01,-2.90996e-01,-4.21669e-01,-3.41096e-01,-1.04431e-01,4.03827e-01,-4.20679e-01,4.02245e-01,-1.40256e-01,-4.20629e-01,-2.90444e-01,1.79459e-01,4.05777e-01,
-4.24517e-01,-4.59016e-01,-4.01009e-01,1.28036e-01,-5.66825e-01,3.91945e-01,-5.96161e-01,-4.33176e-01,-1.60806e+00,-1.08479e-01,1.55165e-02,-3.72890e-01,-2.53433e-01,-8.95928e-01,-1.45912e-01,3.21454e-01,4.52402e-01,-3.01805e-01,-8.41992e-02,-1.85348e-01,
0.00000e+00,
0.00000e+00,
2.03764e-01,
7.45412e-02,
0.00000e+00,
-5.43116e-03,
0.00000e+00,
1.22882e-01,
-3.20035e-02,
8.31840e-02,
3.32126e-01,7.57483e-02,8.27255e-01,1.98210e-02,-8.25841e-02,-9.26740e-01,3.62774e-01,2.15228e-01,-5.69166e-01,-5.83960e-01,
3.71170e-03,4.28619e-01,7.81295e-01,-3.41931e-01,-2.61400e-02,2.32558e-01,4.69739e-02,-1.22521e-01,-3.58659e-01,-1.43001e-01,
-8.04726e-02,-3.76097e-01,1.78386e-01,-3.16541e-01,-3.72521e-01,5.79981e-01,-6.80292e-03,-1.42939e-01,-3.36632e-01,-1.01060e-01,
-2.97002e-01,5.72069e-01,-1.52236e+00,5.14220e-01,5.21787e-01,-6.18044e-03,-5.93051e-01,4.33427e-01,1.49377e-01,-5.35953e-01,
-4.95629e-01,-3.89096e-01,-1.77518e+00,-2.06034e+00,4.01351e-01,-9.88417e-01,3.56317e-01,-1.19620e+00,-2.00733e-01,1.45457e+00,
9.93047e-02,-5.51505e-01,2.01712e-01,-1.95182e-01,-4.46172e-01,9.79991e-02,2.76407e-01,1.19007e-01,-7.66288e-02,3.17050e-01,
3.43825e-01,4.16343e-01,-1.55064e-01,-7.60426e-02,4.24285e-01,5.58033e-01,2.19279e-01,-1.56664e-01,4.92155e-01,-2.81930e-01,
-1.12410e-02,
-2.19750e-01,
1.60629e-01,
-1.98453e-01,
1.63535e-01,
2.08978e-01,
-9.11007e-02,
