// Neural Network File Format by Kyle Julian, Stanford 2016
4,15,7,20,
15,10,20,10,7,
0,
-1.0,-1.38,-2.62,-2.07,-2.54,-2.63,-2.19,-3.87,-0.14,-1.66,-0.24,-1.16,-1.08,-2.46,-1.98,
1.0,4.16,2.45,0.49,0.4,1.12,1.71,2.39,7.6,1.63,4.31,2.27,2.15,1.46,1.31,
0,0,0,0,0,0,0,0,0,0,0,0,0,0,0,0,
1,1,1,1,1,1,1,1,1,1,1,1,1,1,1,1,
-5.73440e-01,5.03337e-01,-1.15439e-01,6.84319e-01,2.05684e-01,5.11826e-02,-1.95045e-01,9.14759e-01,-4.27644e-02,2.78562e-02,-2.69408e-01,1.51804e-01,-3.23085e-01,-2.65104e-01,1.69618e-01,
5.33897e-02,-1.39950e-02,4.42872e-01,2.37525e-01,-3.07767e-01,-5.50908e-01,1.06512e-01,4.40539e-01,2.61454e-01,1.31138e-01,1.71614e-01,2.90956e-01,-8.35262e-01,-1.72192e-01,7.42291e-01,
1.34530e-01,8.82868e-02,-5.55232e-01,-3.25142e-01,2.45679e-01,-2.48077e-01,6.80682e-01,-2.97286e-01,-2.72353e-01,5.53802e-02,1.76000e-01,-8.62591e-02,-3.56082e-02,-5.91122e-01,-4.12980e-01,
2.44629e-01,2.69564e-02,2.83323e-01,-3.92678e-02,5.56847e-02,5.13845e-01,-5.93337e-01,7.41237e-01,-1.39713e-01,-7.36707e-02,4.25428e-02,-1.94838e-01,3.45230e-01,9.91420e-01,5.48724e-01,
1.52060e-01,-7.78621e-01,1.58123e-01,-4.47375e-01,-1.38368e-01,1.63042e-01,3.47335e-01,-4.57957e-01,-1.68457e-01,-2.06989e-01,-1.81689e-01,-6.45386e-02,-2.49817e-03,-1.53629e-03,-9.64945e-02,
-3.35083e-01,2.52363e-01,1.97226e-01,-2.38273e-01,-1.88193e-01,-1.91050e-01,-1.15252e+00,6.16137e-01,-2.86692e-01,-7.27858e-02,-1.10566e-01,3.05043e-01,-9.04108e-02,2.91310e-02,-2.34532e-01,
5.82698e-01,3.98791e-01,-3.28655e-01,-2.39090e-01,-3.90015e-01,7.99922e-02,-2.91586e-01,-5.54112e-01,-5.21570e-02,-4.13532e-01,-1.63578e-01,-5.32281e-02,-2.41486e-02,6.24761e-02,-6.67926e-02,
-3.83929e-01,4.15965e-01,-6.91555e-01,-2.87123e-02,8.70828e-02,-3.40921e-01,-2.35366e-01,1.11672e-01,1.66996e-01,4.53909e-01,1.55629e-01,-1.88339e-01,-6.50059e-01,5.31183e-02,6.13029e-01,
-1.88474e-01,1.62349e-01,-6.76450e-01,3.57564e-01,-2.58093e-01,-6.24112e-01,-1.02364e-01,1.52029e-01,-8.91570e-02,6.04287e-01,-2.92917e-01,6.31116e-02,-1.44829e-01,3.41100e-01,2.08146e-02,
6.48771e-01,5.27204e-01,3.48489e-01,6.62514e-02,1.74022e-01,-4.05162e-01,-3.92109e-02,-1.92289e-01,1.27576e-01,1.84945e-01,-2.75389e-01,-1.57284e-01,-3.36596e-01,-8.04202e-02,-1.45857e-01,
9.74768e-01,
-2.77116e-02,
6.19389e-01,
-1.53588e-01,
4.80100e-01,
2.53929e-01,
7.53021e-01,
4.17120e-01,
1.03525e+00,
5.63101e-02,
1.93476e-01,7.13867e-01,1.12564e-01,6.31275e-01,2.45848e-01,5.27420e-02,1.68087e-01,-9.22270e-02,-6.69120e-03,2.02371e-01,
-4.06540e-01,-4.50860e-01,-2.42271e-01,-7.42299e-02,5.52068e-01,-6.94848e-03,2.64160e-01,-5.56986e-02,7.31551e-01,6.19835e-01,
1.01120e-01,-2.93448e-01,7.17309e-02,-1.80716e-01,2.24162e-01,7.61586e-01,-3.56279e-01,5.78352e-01,1.76968e-01,-3.93439e-01,
-1.03046e-03,1.34924e-01,3.74777e-01,7.48456e-01,1.54442e-01,9.00600e-02,2.52770e-01,-1.48893e-01,4.90890e-01,5.00149e-01,
3.59241e-01,-2.68408e-02,-9.83682e-01,3.11837e-01,-5.13182e-01,1.45032e-01,5.71151e-01,-3.62219e-01,4.63958e-01,9.36232e-02,
-6.41247e-01,2.00941e-01,1.66608e-02,3.39344e-01,6.15126e-01,1.81680e-01,8.75111e-02,5.74092e-01,-5.13227e-01,3.07545e-01,
6.63968e-01,6.39941e-01,-2.37305e-01,7.07466e-01,-6.38009e-01,3.21109e-01,-1.65288e-02,-3.39269e-01,1.56632e-01,-2.89415e-02,
8.51391e-01,5.29909e-02,-1.34410e-01,-4.58943e-01,-1.52072e+00,-9.06590e-01,-2.71855e-01,7.34693e-02,-4.71843e-01,9.65622e-02,
-3.06431e-01,-4.52749e-01,-5.72786e-01,5.74599e-02,5.72917e-01,7.07266e-01,-7.27550e-01,2.34849e-01,4.63900e-01,2.02138e-01,
-1.02993e-01,2.07582e-01,-4.03635e-01,-2.80010e-01,4.53676e-01,-2.17541e-01,2.29889e-01,5.55738e-01,5.93006e-01,-1.87658e-01,
9.02220e-01,-5.12873e-01,2.21538e-01,-8.43617e-01,-8.55584e-04,2.49595e-01,-4.49471e-01,7.51290e-01,-1.34699e-01,-2.09073e-01,
4.58492e-01,-1.78752e-01,4.80078e-01,1.83868e-02,5.11971e-01,6.70754e-01,-6.89375e-01,2.28199e-01,1.82926e-01,-5.57378e-01,
-2.39300e-01,1.92404e-01,6.57864e-01,1.48195e-01,7.95082e-02,-3.13083e-01,-6.88047e-01,3.30591e-01,1.75111e-01,-6.90581e-01,
-2.81927e-01,7.55640e-01,4.51452e-01,1.27124e-01,-7.69329e-02,6.06372e-01,-1.81483e-02,5.28600e-01,2.76533e-01,1.56098e-01,
5.53930e-01,-2.70739e-01,8.04604e-02,-1.78185e-02,-1.96412e-01,3.52077e-01,-3.36582e-01,2.08341e-01,3.93225e-01,7.46970e-01,
-4.32307e-01,-1.53908e-02,-1.18111e+00,7.02745e-01,1.31869e-01,-1.99226e-01,-9.78044e-01,4.47561e-01,3.81188e-01,3.03878e-01,
-2.29641e-02,3.62072e-01,3.74365e-01,3.95571e-01,9.24848e-02,6.33904e-01,2.73521e-01,5.81458e-01,2.35800e-01,-2.99270e-01,
-6.38462e-03,2.53720e-01,5.66853e-01,-3.90063e-02,-3.95950e-01,6.52441e-01,-4.78925e-01,-1.47103e-01,1.15002e-02,-4.17628e-01,
1.37830e-01,9.71093e-02,3.26825e-01,5.86689e-01,3.25023e-04,-1.40603e-01,3.99182e-01,-3.74653e-01,2.61618e-01,5.16420e-01,
-4.78144e-02,7.46708e-01,7.06570e-01,9.41101e-01,-1.04790e-01,3.97305e-01,-5.03207e-03,-5.94655e-01,4.23913e-01,5.81447e-01,
-3.82641e-01,
2.90284e-01,
4.85381e-01,
-1.57905e-01,
1.17490e-01,
3.00938e-01,
6.05338e-01,
3.53890e-01,
7.38352e-01,
3.82770e-01,
1.03223e-01,
2.08495e-02,
1.41868e-01,
2.08851e-01,
5.41318e-01,
2.20846e-01,
-1.57973e-01,
2.57162e-01,
-1.89820e-01,
6.75995e-02,
-2.57039e-01,5.56050e-01,4.19093e-02,2.47400e-01,4.17518e-01,-6.28979e-01,1.72637e-01,1.66472e-01,4.17647e-01,-1.82380e-01,1.88947e-01,-3.00152e-01,-7.66899e-01,-2.15754e-01,5.49206e-01,-1.71238e-01,-3.02334e-01,-8.36010e-01,6.07907e-02,5.62328e-02,
3.90161e-01,2.04797e-01,-5.54629e-01,5.09019e-01,8.55195e-02,-4.35338e-01,6.32256e-01,1.83802e-01,-2.25085e-01,-2.77272e-01,-4.31970e-02,-5.70891e-02,2.98615e-01,1.65718e-01,1.52816e-01,-2.99324e-01,2.90725e-01,2.08046e-01,6.47515e-01,4.53178e-01,
1.32328e-01,1.38710e-01,-3.66932e-01,3.01580e-01,2.52794e-01,-3.22325e-01,8.69782e-01,1.07222e+00,-3.69097e-01,-1.07049e-01,-6.24269e-01,-4.47626e-01,-5.07951e-01,1.30269e-01,8.14288e-02,-7.48743e-01,8.46098e-02,-1.03426e-01,4.16604e-01,5.82570e-01,
2.45301e-01,-4.27938e-01,-7.45211e-03,3.26094e-03,-3.38187e-01,1.04158e-02,3.24405e-01,-1.23947e+00,-4.84784e-02,-2.33878e-01,1.82663e-01,2.61333e-02,-6.71914e-02,3.56207e-01,4.70039e-01,5.00812e-01,2.25643e-01,4.81400e-01,1.85268e-01,2.71825e-01,
-3.36583e-01,4.92592e-02,2.20215e-01,-2.32580e-01,5.69164e-02,6.70270e-02,1.64427e-01,-6.30051e-01,6.66241e-01,5.17876e-01,8.21534e-01,2.11229e-01,-6.79102e-01,6.15938e-02,5.56454e-01,8.96805e-01,-9.71742e-02,-4.51448e-01,-4.46280e-01,-3.16668e-01,
-9.57103e-02,2.28101e-01,2.24476e-01,3.35788e-02,8.48300e-01,-6.36772e-01,4.67399e-01,9.59968e-01,-4.45340e-02,4.85285e-01,1.91098e-01,2.92014e-01,4.99723e-01,-1.86099e-01,1.38941e-01,-6.49723e-01,1.46678e-02,-8.25509e-01,-2.31227e-02,-2.74495e-01,
-7.29851e-02,1.97222e-01,6.59420e-01,1.52071e-02,2.88761e-01,4.48790e-01,-1.85206e-01,3.52819e-01,5.26176e-01,2.58603e-01,-6.85267e-01,7.70781e-01,7.24179e-01,5.20032e-01,-1.57209e-01,-6.33006e-01,4.50435e-01,8.78004e-01,-9.41985e-02,8.39913e-02,
-2.88321e-01,-3.86087e-01,2.21115e-01,-2.96834e-01,1.49299e-01,-2.63231e-01,3.18680e-01,-2.65473e-01,-1.43302e-01,-4.80827e-02,9.83167e-01,4.75153e-01,-2.65246e-01,-6.61270e-02,4.43495e-01,4.78741e-01,2.20672e-01,2.86113e-01,-2.79440e-01,-1.87243e-01,
3.53587e-01,-7.21213e-01,-1.71883e-01,6.91145e-02,2.34769e-01,-1.84843e-01,4.22361e-01,-3.92808e-01,-4.54898e-01,-8.76386e-02,1.68423e-01,2.34591e-01,-6.06622e-01,-2.12707e-01,-1.42822e-01,1.27443e-01,1.58312e-01,-2.26710e-02,1.85338e-01,-1.68579e-01,
3.55628e-01,1.68664e-01,4.08442e-01,3.58018e-01,-4.30959e-01,4.48771e-01,-4.01064e-01,-1.81863e+00,5.64577e-01,4.58131e-01,1.93140e-01,5.44935e-01,-4.84912e-01,5.16096e-01,1.38093e-01,1.79567e+00,4.89605e-01,-1.17133e-02,2.36828e-01,2.72090e-01,
5.02653e-01,
-3.87707e-01,
1.88183e-01,
1.09792e-01,
5.07147e-01,
-1.41499e-01,
2.82642e-01,
1.80454e-01,
-1.10758e-01,
-5.14820e-01,
5.74774e-01,-7.17982e-01,-1.33668e+00,-2.86795e-01,2.02763e-01,-1.10201e+00,4.40052e-01,-1.11994e+00,-1.46528e+00,1.89165e-01,
-1.05403e+00,-8.57385e-02,-1.47381e-01,-4.27586e-01,-3.94667e-01,1.08671e-01,1.48944e-01,1.28007e-02,1.32050e+00,3.90380e-01,
1.90295e-01,-6.79964e-02,-1.15252e-01,3.57791e-01,2.25855e-01,-4.99463e-01,-8.25528e-01,3.14589e-01,-6.98705e-01,3.13516e-01,
4.16057e-01,3.16171e-01,6.01014e-01,-1.35462e-01,-1.72614e+00,-2.17794e-01,-5.16617e-01,-1.21295e+00,7.94406e-01,-8.21580e-01,
9.54855e-01,-1.42615e+00,-1.76108e-01,-1.97138e+00,9.12048e-01,6.02886e-01,-5.94353e-01,4.23461e-01,1.17727e+00,-1.12197e+00,
-5.96960e-01,-2.15441e-01,2.16217e-02,4.63900e-01,-3.26560e-01,-4.88784e-01,-4.80073e-03,4.92669e-01,-4.85057e-01,-4.67496e-02,
2.81686e-01,2.40134e-02,8.68153e-02,-1.10331e-01,-1.13624e-01,5.89436e-01,2.46824e-01,-3.59533e-01,-7.36206e-01,-3.92525e-01,
5.81960e-01,
-1.60822e-01,
-8.16210e-02,
2.89751e-01,
5.39809e-01,
4.92082e-01,
-3.25381e-01,
