// Neural Network File Format by Kyle Julian, Stanford 2016
3,13,1,20,
13,20,10,1,
0,
-1000000,-1000000,-1000000,-1000000,-1000000,-1000000,-1000000,-1000000,-1000000,-1000000,-1000000,-1000000,-1000000,
1000000,1000000,1000000,1000000,1000000,1000000,1000000,1000000,1000000,1000000,1000000,1000000,1000000,
0,0,0,0,0,0,0,0,0,0,0,0,0,0,
1,1,1,1,1,1,1,1,1,1,1,1,1,1,
1.14396e-01,3.67860e-01,2.85125e-01,-9.11656e-02,-9.24598e-02,4.17307e-02,-2.17225e-02,-1.61889e-01,-1.04205e-01,2.31584e-01,-7.47072e-02,2.25618e-02,3.54264e-01,
1.82039e-01,-1.92194e-01,-2.44820e-01,1.77264e-01,-3.72227e-01,3.13794e-01,-2.06593e-01,-8.07253e-02,-5.28121e-02,-4.73956e-02,-3.11737e-01,-3.00208e-01,-2.71811e-02,
2.35329e-01,6.73575e-02,8.89983e-02,-1.69791e-01,1.36727e-01,1.08733e-01,3.43932e-02,-2.54857e-01,1.77821e-01,4.66038e-01,-9.91403e-02,1.89302e-01,-1.20281e-01,
-1.00632e-01,8.88985e-02,-2.01399e-01,-2.30831e-01,1.76788e-01,1.50175e-01,8.40857e-02,1.70302e-01,4.89586e-01,4.32267e-01,-8.13261e-02,5.02903e-01,4.24751e-01,
3.38993e-01,-2.20924e-01,-8.69969e-02,-3.54219e-01,-3.83738e-01,2.63874e-02,-2.20137e-01,-2.67191e-01,-2.73245e-01,1.37505e-01,3.49574e-01,2.70007e-01,5.37353e-02,
-2.50125e-02,1.79456e-01,3.79655e-01,-1.07571e-01,-3.93506e-01,-7.92853e-02,2.42092e-01,-1.84884e-01,3.16339e-01,-2.56108e-01,-2.59676e-01,-3.09574e-01,3.54268e-01,
3.91864e-02,-2.86839e-01,1.13169e-01,-1.12949e-01,1.82166e-01,1.59315e-01,4.23690e-01,2.12799e-01,-7.54814e-01,-9.97497e-02,-1.17389e-01,-4.34220e-01,6.12033e-02,
1.24210e-03,-5.40690e-02,2.07291e-01,-1.68152e-01,-3.33502e-01,3.64177e-01,3.30548e-01,5.59970e-02,-2.13477e-01,3.22004e-01,2.66647e-01,3.59715e-01,4.12063e-01,
-2.36696e-01,-7.12722e-02,-2.58821e-01,7.98211e-02,-3.72462e-01,3.37728e-01,-1.39566e-02,-3.84201e-02,-1.68071e-01,-1.35499e-01,4.08397e-01,1.46868e-01,-2.08378e-01,
2.06620e-01,-1.32003e-01,7.86565e-01,-2.74190e-02,1.91734e-01,2.82786e-01,3.36462e-01,-2.68714e-01,-8.67650e-01,-7.22649e-01,-1.21560e-02,-3.52322e-01,-1.95033e-01,
-3.30929e-01,-3.53437e-01,6.99208e-01,-4.70842e-02,1.37772e-01,2.47463e-01,-1.28317e-02,4.04752e-02,-2.42015e-01,-4.99427e-01,1.83380e-01,-1.16660e-02,3.84298e-02,
-5.86742e-02,-4.04515e-02,2.57025e-01,-2.90727e-01,-2.72783e-01,-2.09980e-01,2.73028e-01,-2.67929e-01,-2.47159e-01,1.77863e-01,-2.45947e-01,2.12799e-01,2.50116e-01,
1.00059e-01,-4.01978e-01,-4.93166e-02,2.83271e-01,-4.23168e-01,2.22604e-01,-1.86526e-01,-2.92684e-01,-1.60659e-01,1.80517e-01,-3.02205e-01,-2.51036e-01,1.67950e-01,
-1.60802e-01,5.34640e-01,-2.64255e-01,3.56161e-02,1.76968e-01,-1.42314e-01,-3.01287e-01,-3.64271e-01,1.71802e-01,3.93594e-01,2.74877e-01,-2.30520e-01,-1.79658e-01,
1.74429e-01,-4.50615e-01,5.36694e-01,1.28818e-01,-6.83185e-02,-1.58080e-01,2.93546e-01,-4.53929e-03,-3.41244e-01,-2.57193e-01,3.72269e-01,-1.76173e-01,1.02092e-01,
-1.52286e-01,2.74260e-01,-2.90147e-01,-1.43556e-02,-2.32353e-02,-3.53207e-01,-1.01076e-01,5.49582e-02,6.89295e-02,-2.05554e-01,-8.53902e-02,2.37797e-01,-8.66337e-02,
1.51161e-02,-8.59416e-02,-1.80254e-01,-6.37657e-02,-8.06878e-02,1.65289e-01,2.94009e-01,1.02020e-01,-1.14530e-01,-3.30661e-01,-2.81546e-01,-3.75254e-01,1.33369e-01,
-9.14369e-03,3.54535e-01,4.16766e-03,1.05358e-01,1.42702e-01,2.95288e-01,-4.69041e-01,6.97210e-02,2.15787e-01,4.30144e-01,-1.51839e-02,-4.17411e-02,3.97559e-01,
1.82422e-01,6.65700e-01,-4.48687e-01,-5.49664e-02,1.00256e-01,-1.51252e-01,1.23832e-01,-1.22599e-01,1.67136e-01,2.87853e-01,-4.79009e-01,6.23199e-01,3.61005e-01,
-1.08759e-01,-5.78987e-01,6.15298e-01,-2.02470e-02,-1.25987e-01,4.34071e-01,2.71734e-01,4.38478e-01,-4.56387e-01,-1.82610e-01,9.80724e-02,-5.19345e-01,-4.55792e-01,
0.00000e+00,
0.00000e+00,
-7.79468e-03,
1.27277e-03,
0.00000e+00,
0.00000e+00,
1.02916e-02,
0.00000e+00,
0.00000e+00,
7.42137e-02,
7.69557e-03,
0.00000e+00,
0.00000e+00,
4.08849e-02,
6.73069e-03,
-1.47045e-02,
-2.14013e-02,
-1.70945e-02,
2.22605e-02,
2.22900e-02,
-1.46270e-01,-3.28251e-01,2.20439e-01,-3.39210e-01,-2.78692e-01,-7.66531e-03,-3.27736e-01,3.20898e-01,2.29528e-01,1.62262e-02,-3.13780e-01,3.93916e-01,3.50635e-01,-2.92272e-01,3.19699e-01,3.12453e-01,-1.58694e-01,3.10251e-01,-1.47788e-01,7.21449e-02,
1.74427e-01,4.57286e-02,4.19583e-01,-3.36113e-01,-8.11484e-02,-1.88366e-01,-1.68778e-01,3.35476e-01,2.25831e-01,-1.44606e-01,3.89699e-01,-1.19308e-01,-2.89456e-01,-4.43710e-01,2.81418e-01,3.41380e-01,3.73084e-01,-3.90503e-01,2.08109e-01,-2.08529e-01,
8.12967e-02,2.40318e-01,2.68006e-01,3.17452e-01,4.00086e-01,1.99190e-01,3.47274e-01,-8.93468e-02,9.13534e-02,-5.02751e-03,1.10813e-01,1.00063e-01,1.78493e-01,3.27137e-01,4.61561e-01,-2.13649e-01,-2.68076e-01,-2.52820e-02,-4.34835e-02,-1.02340e-01,
3.12478e-01,-4.52747e-02,7.06403e-02,2.08685e-01,1.73551e-01,-1.27596e-01,1.40237e-01,-4.20456e-01,-1.98426e-01,-2.80760e-01,-5.83142e-02,-3.17779e-01,9.54914e-02,3.04888e-02,-3.95851e-01,-4.54920e-02,2.89872e-01,3.50312e-01,3.58659e-01,-3.43536e-01,
-3.12481e-01,-5.80201e-02,-2.28669e-01,-1.37834e-01,1.93084e-01,2.18324e-01,4.46065e-01,-4.23189e-01,-1.64768e-01,4.61771e-01,3.83324e-01,-1.32930e-01,-3.72336e-01,-1.05368e-01,-2.03684e-01,-2.76109e-01,-1.31176e-01,-3.17573e-01,-5.82335e-02,6.88850e-02,
-3.16377e-01,-4.22165e-01,4.37716e-01,-3.11657e-01,1.22836e-01,-7.05091e-02,-1.80828e-02,-2.36976e-01,3.32107e-01,4.41817e-01,8.33949e-02,1.96796e-01,-4.29890e-01,2.85400e-02,4.23632e-01,-9.97100e-02,-8.80402e-02,-3.91887e-01,3.84745e-01,1.78315e-01,
7.48428e-02,-4.12623e-01,-4.24456e-01,-3.71398e-01,4.17212e-02,-2.49696e-01,2.31835e-01,3.65206e-01,2.00474e-01,-5.08935e-02,8.95754e-02,-4.23132e-01,8.76736e-02,4.35237e-01,2.84322e-01,3.30713e-01,2.87568e-02,-3.34768e-01,-2.22559e-01,8.23049e-02,
-1.64572e-01,1.71537e-01,-4.72322e-01,-7.35255e-02,8.05448e-02,1.41971e-01,-4.60498e-01,3.42632e-01,-1.34348e-02,2.41679e-01,-1.10244e-01,-1.88654e-01,-1.44495e-01,4.28128e-01,2.74867e-02,-1.31619e-01,-1.83100e-01,3.60879e-01,3.43369e-01,-2.93083e-01,
-3.83179e-01,-7.84012e-02,3.40992e-01,3.70437e-02,-3.73273e-02,-1.79009e-01,1.26909e-01,9.91028e-02,2.42077e-01,-2.25746e-01,-4.85547e-03,-3.87528e-02,2.55255e-01,-4.07391e-01,6.58574e-02,3.95868e-01,1.63865e-01,-1.50799e-01,-1.10754e-01,-3.24132e-01,
2.88041e-01,3.09627e-01,1.08663e-01,-3.71348e-01,1.54225e-01,-2.44991e-01,2.54461e-01,-1.52844e-01,-2.54678e-01,-3.54212e-01,-4.27508e-01,-1.53826e-01,-2.08403e-02,1.57844e-01,-1.33454e-01,-6.57627e-02,-3.56670e-01,-2.89338e-01,-2.46857e-01,-3.01821e-01,
-1.57225e-02,
0.00000e+00,
1.52561e-02,
-1.80818e-02,
7.63885e-03,
0.00000e+00,
-1.75668e-02,
-1.91311e-02,
-2.46980e-02,
0.00000e+00,
-5.78645e-01,5.45370e-01,9.28716e-02,-3.06810e-01,2.50675e-01,-6.61936e-02,6.25348e-01,-5.84759e-01,-6.41364e-01,3.28610e-01,
1.74902e-02,
