// Neural Network File Format by Kyle Julian, Stanford 2016
4,13,1,20,
13,13,20,20,1,
0,
-1000000,-1000000,-1000000,-1000000,-1000000,-1000000,-1000000,-1000000,-1000000,-1000000,-1000000,-1000000,-1000000,
1000000,1000000,1000000,1000000,1000000,1000000,1000000,1000000,1000000,1000000,1000000,1000000,1000000,
0,0,0,0,0,0,0,0,0,0,0,0,0,0,
1,1,1,1,1,1,1,1,1,1,1,1,1,1,
-1.92042e-01,1.70631e-01,2.39993e-01,-3.70387e-01,-3.93583e-01,-1.19345e-01,-3.39293e-01,3.06488e-01,-3.16669e-01,4.62903e-01,-2.45557e-01,-4.79041e-01,2.76902e-02,
-2.88493e-01,3.25936e-01,2.15397e-01,4.17795e-01,7.72010e-02,3.05132e-03,2.81144e-01,-1.82888e-01,-4.13543e-01,-3.68913e-01,-1.11492e-01,5.66468e-03,-3.31592e-01,
-3.80916e-01,-3.25848e-01,9.72237e-02,2.19690e-01,2.83169e-01,-1.60192e-02,-1.74939e-01,-3.85339e-01,1.54459e-01,-2.61519e-01,8.67056e-02,-2.44862e-01,1.57361e-01,
-5.02788e-02,3.16909e-01,-2.94574e-01,2.62949e-01,3.07291e-01,-2.30481e-01,1.28542e-01,2.34121e-01,1.83042e-01,-2.57661e-03,8.52062e-02,4.51711e-02,-1.19502e-01,
-1.91301e-02,2.78249e-01,1.35818e-01,-2.31237e-01,1.26044e-02,-2.42208e-01,-3.06558e-01,1.12177e-01,2.86881e-01,-1.12902e-01,-3.54970e-01,-4.41409e-01,3.21049e-01,
3.40174e-01,-1.10335e-01,1.99247e-01,1.52738e-02,-1.78221e-02,-3.36672e-01,-3.77444e-01,-1.10501e-01,1.64037e-01,-2.14974e-01,-2.53120e-01,-5.54854e-01,4.21919e-01,
8.04079e-02,3.79781e-01,-4.08112e-01,-3.85358e-01,-1.05076e-01,-2.28326e-01,-3.70963e-01,2.18021e-02,-3.89759e-01,-3.09882e-01,-7.99719e-02,-4.49766e-01,2.41729e-01,
-4.68223e-01,-1.45165e-02,1.24604e-01,-4.03173e-01,-7.34234e-03,-3.99874e-01,-5.15704e-02,1.38293e-01,-2.59495e-01,-2.22706e-01,3.82248e-01,-2.79389e-01,-1.71320e-01,
-3.95641e-01,-8.14022e-01,8.79863e-02,3.79281e-01,2.60812e-01,4.07865e-01,5.11974e-01,3.08264e-01,-2.43444e-01,-5.36890e-01,5.99761e-01,-4.99044e-01,1.17412e-01,
3.97850e-01,1.21468e-01,-3.29703e-01,2.59522e-01,1.00619e-02,2.77590e-02,-1.37993e-01,1.86019e-01,6.64703e-01,5.44933e-01,-6.01882e-01,7.48106e-01,2.77528e-01,
-2.89135e-01,5.20372e-01,6.44913e-02,1.30558e-01,3.70882e-01,-1.57123e-01,-3.81818e-02,-4.77545e-01,-2.07496e-02,-1.42745e-02,1.35436e-01,5.00271e-01,4.44995e-01,
-2.51850e-01,2.15198e-01,3.87923e-01,-1.86491e-01,-2.27935e-01,3.15872e-01,-4.09807e-01,-1.56293e-01,1.70048e-01,-1.56846e-01,1.48406e-01,1.84437e-01,-4.01664e-01,
7.99277e-03,4.71437e-01,-1.68459e-01,-2.72589e-01,-8.01099e-02,-2.69198e-02,-2.36478e-01,-2.88595e-01,3.14455e-01,1.38330e-01,1.53493e-01,-2.76219e-01,1.53351e-01,
0.00000e+00,
-3.52050e-02,
-3.09288e-02,
-2.99859e-02,
-1.31587e-02,
-1.35331e-02,
0.00000e+00,
0.00000e+00,
-5.91099e-03,
1.09886e-02,
-2.76504e-02,
0.00000e+00,
0.00000e+00,
-5.07579e-02,1.03272e-02,-2.55266e-01,5.19809e-03,2.80279e-02,-2.78194e-01,4.01999e-01,-6.01463e-02,-3.13517e-01,-1.89428e-01,-2.77975e-01,1.26258e-01,-2.96424e-01,
1.77252e-01,1.86729e-01,3.53175e-01,1.30676e-02,-5.75865e-02,7.15100e-02,-1.45724e-01,2.76241e-01,-3.58447e-01,1.27985e-01,-3.84510e-01,-4.23539e-01,2.64269e-01,
-3.01910e-01,4.19478e-01,3.99237e-01,2.47560e-01,-4.30038e-01,2.09237e-01,-4.57714e-02,9.31315e-02,2.24192e-01,2.36017e-01,3.20685e-01,1.24195e-01,7.99751e-02,
-3.12696e-01,-3.08140e-02,-1.74363e-01,-2.55168e-01,-9.41402e-03,-2.50936e-01,6.67962e-02,1.41283e-01,-3.32143e-01,-1.79068e-01,1.92840e-01,7.27525e-02,1.86963e-01,
-2.75443e-01,-1.30769e-01,-2.25248e-01,-2.99011e-01,3.52614e-02,-2.56790e-01,-9.97430e-02,-1.46116e-01,2.07826e-01,-2.85718e-01,1.28501e-01,1.07274e-02,-2.00093e-01,
-3.15898e-01,7.49260e-03,2.45650e-01,6.97295e-02,3.07073e-01,1.28506e-01,-4.21449e-01,3.53052e-01,-2.61382e-01,3.80033e-02,-3.85970e-01,-3.97549e-02,3.22894e-01,
1.56677e-01,3.03321e-01,1.79093e-01,-1.92650e-01,-2.52693e-01,1.86315e-01,-2.48289e-01,7.44223e-02,-2.74366e-01,-1.18521e-01,-1.75432e-01,-1.66030e-01,3.13500e-01,
-3.97819e-01,4.40360e-01,4.50294e-01,2.49574e-01,3.33057e-01,-2.81993e-01,1.46517e-01,2.46434e-01,-1.50468e-01,9.61313e-02,6.97111e-03,3.20267e-01,6.87227e-02,
-3.52023e-02,-2.54911e-01,2.77633e-01,1.12797e-01,-1.28774e-01,4.15473e-01,-1.45299e-01,-2.59652e-01,-2.30193e-01,-4.08943e-01,2.30330e-01,-2.16110e-01,2.71363e-01,
-2.35903e-01,1.16926e-01,3.43155e-01,2.58439e-01,3.36533e-01,3.53791e-01,1.13046e-01,-6.45582e-02,1.33742e-01,-4.01433e-02,7.51788e-02,1.98484e-01,1.21318e-01,
-2.80809e-01,1.55431e-01,-6.15164e-03,2.97975e-01,-4.16097e-01,3.31819e-01,-2.16000e-01,-3.98496e-03,-3.43705e-01,-2.88112e-01,3.02562e-01,2.13659e-01,-1.88268e-01,
3.44810e-01,-2.93079e-02,4.28024e-01,-2.68764e-01,9.58349e-02,4.19439e-01,-2.21975e-01,-1.68946e-01,2.25218e-01,-3.70179e-01,4.18715e-01,3.56014e-01,4.22081e-01,
-2.87528e-01,3.49954e-01,2.48973e-01,-1.47061e-01,-5.70303e-02,1.19096e-03,-2.38563e-01,1.19450e-01,-3.64743e-01,-3.24907e-01,7.61124e-02,6.42507e-02,-3.01937e-01,
-4.61425e-02,1.70083e-01,2.01183e-02,-3.96447e-02,-4.13798e-02,8.09098e-02,1.76402e-01,1.35526e-01,1.22004e-01,1.61668e-01,-1.29636e-01,-9.15813e-03,-7.97834e-02,
1.38739e-01,-2.72177e-01,9.72092e-04,-3.87562e-02,4.11298e-01,-1.53950e-01,3.65305e-01,-2.53363e-01,-1.23462e-01,-2.12688e-01,-3.10853e-01,-1.72416e-02,2.86596e-01,
-2.58077e-01,3.62179e-02,2.34250e-01,1.91850e-01,-2.39841e-01,2.28817e-01,-1.26109e-01,-2.15465e-01,-4.26332e-01,-3.65256e-01,1.07641e-01,2.76909e-01,-3.92865e-01,
8.64269e-02,2.10441e-01,3.16014e-01,-1.72605e-01,-2.13246e-01,1.86038e-01,-7.19448e-02,-1.97641e-01,3.63481e-01,-1.12022e-01,-1.32463e-02,-2.63307e-01,-2.26267e-01,
-2.00472e-01,9.01574e-02,3.80217e-01,3.89490e-01,2.22001e-01,3.78525e-01,1.92788e-01,3.67452e-02,2.32763e-02,-7.67080e-02,2.30727e-01,-1.65336e-01,2.86224e-01,
-4.12759e-01,3.80803e-01,9.23997e-03,-1.57787e-01,-1.72321e-01,7.13132e-02,1.86055e-01,4.04107e-01,-2.65278e-01,-4.45324e-02,-2.78486e-01,-3.38008e-01,2.30676e-01,
-2.73820e-02,1.31244e-01,-1.05010e-01,-4.08059e-01,-3.64867e-01,4.16846e-01,-1.60493e-02,3.39969e-01,-3.87505e-01,-3.67271e-01,-8.17730e-02,-2.40452e-01,-3.49111e-01,
0.00000e+00,
0.00000e+00,
6.63284e-03,
0.00000e+00,
0.00000e+00,
0.00000e+00,
0.00000e+00,
9.58628e-03,
0.00000e+00,
1.26914e-02,
-4.06881e-02,
5.39441e-02,
0.00000e+00,
-1.54901e-02,
0.00000e+00,
0.00000e+00,
-1.31659e-02,
-1.46761e-02,
0.00000e+00,
0.00000e+00,
-3.83411e-01,2.50226e-01,-5.33092e-03,-2.86644e-01,-1.06121e-01,2.57121e-01,3.66753e-01,-1.20652e-01,-3.17084e-01,1.46393e-01,3.66752e-01,1.44185e-02,8.06008e-02,1.35486e-01,2.02845e-01,-1.13759e-01,2.35809e-01,-3.12333e-01,4.62821e-02,-1.21165e-01,
-1.56629e-01,3.25199e-01,2.61982e-01,2.97875e-01,7.24218e-02,-1.33408e-01,-1.18658e-02,-3.39318e-01,1.69144e-01,2.53290e-01,1.16608e-01,-3.57294e-01,2.10191e-01,-9.39739e-02,2.61105e-01,8.39551e-02,-5.71738e-02,-1.75698e-01,-1.44748e-01,-1.83185e-01,
-1.90025e-01,2.32938e-01,2.44545e-01,4.14301e-02,-3.58689e-01,-2.02324e-01,2.83729e-01,-1.68041e-02,-3.70559e-01,-2.17331e-01,-2.34608e-01,-1.36732e-01,-3.47214e-01,1.64990e-01,3.40004e-01,1.82486e-01,3.93047e-02,-3.84895e-01,-2.85134e-01,8.36419e-02,
7.39076e-02,-3.04873e-01,-1.95696e-02,2.63678e-01,3.39532e-01,3.57578e-01,3.49137e-01,3.54437e-01,2.16460e-01,1.84271e-01,-1.29089e-01,-3.03778e-01,-1.68398e-01,-1.78080e-01,2.51932e-01,1.26645e-01,3.40619e-01,-2.80001e-01,-2.65728e-01,-2.73156e-01,
1.72450e-01,-1.42397e-01,3.22409e-01,-1.71961e-01,-1.88109e-01,2.15712e-01,2.37544e-01,1.99602e-01,-3.69408e-01,3.28395e-01,-1.07432e-01,3.41963e-02,3.11680e-02,-3.53280e-01,1.94113e-01,-3.60740e-01,-3.50610e-01,-3.07086e-01,2.40985e-01,7.80603e-02,
3.73517e-01,-2.36382e-01,-1.24313e-01,-3.59696e-01,-2.36296e-01,2.20616e-01,-9.61787e-03,9.15176e-02,8.30567e-02,-3.71322e-01,1.57767e-01,-2.44484e-01,1.88062e-02,3.58331e-01,1.75364e-01,-2.22164e-01,-3.86139e-01,1.51907e-01,-2.57667e-01,-6.91977e-02,
-1.87239e-01,2.58166e-01,1.29747e-01,-2.65015e-02,1.00763e-01,1.31503e-01,-4.37289e-03,5.96060e-02,-1.08143e-01,-1.04450e-01,2.59745e-01,7.30430e-02,-3.85506e-01,1.43701e-01,-3.80874e-01,5.69857e-02,-4.85300e-02,2.21402e-01,-1.00163e-01,-3.09960e-01,
2.37699e-01,1.95537e-02,-2.93957e-01,1.53511e-01,1.19941e-01,3.36050e-01,3.00370e-01,-4.41833e-02,2.64970e-01,2.51245e-01,-6.94895e-02,4.12396e-02,1.51944e-01,5.83435e-02,2.28382e-01,-2.31093e-01,8.28638e-02,-4.33119e-02,9.57552e-02,3.08575e-01,
-6.43399e-03,-2.26507e-01,3.19124e-01,7.45578e-02,-6.28451e-03,2.46509e-01,-3.51268e-01,1.15578e-01,1.75974e-01,2.74392e-01,3.12345e-01,1.24771e-01,-2.85918e-01,2.64997e-01,2.68184e-01,-1.51515e-01,-1.20335e-01,6.15973e-02,-3.09018e-01,3.85760e-01,
-1.97643e-01,-1.36059e-01,2.45221e-01,-2.77920e-02,-2.88837e-02,9.13178e-02,2.53743e-01,-8.40824e-02,2.56761e-01,-1.97110e-02,-7.28689e-02,-5.01759e-02,2.94206e-01,-1.92650e-01,-2.92336e-01,1.30320e-01,-3.22855e-01,7.96979e-03,-3.64919e-01,1.86740e-01,
4.52696e-02,-2.82569e-01,3.45127e-01,-2.91706e-01,8.11216e-02,1.41228e-01,-9.69906e-02,1.96258e-01,1.89951e-03,-3.64601e-01,-3.49848e-01,-3.07407e-01,-3.01565e-01,-1.33269e-01,-3.47464e-01,2.30516e-01,-1.05829e-01,-3.81181e-01,3.53438e-01,-3.11500e-01,
2.42527e-01,-2.60456e-01,-6.16931e-02,-8.82304e-02,-3.80821e-01,1.14003e-01,-1.95777e-02,-2.64242e-01,3.40610e-01,8.20405e-02,-1.52558e-01,-3.47240e-01,3.27983e-01,-2.84352e-01,1.79359e-01,3.74324e-01,2.70673e-01,-3.08607e-01,2.54361e-01,-3.71556e-02,
2.74853e-01,-3.19319e-01,-2.08445e-01,2.12533e-01,-1.44663e-01,-2.21211e-01,-3.41801e-01,-3.39337e-01,1.34223e-01,8.90782e-02,-3.86365e-01,-2.57957e-01,-2.32548e-01,3.00287e-01,-2.57096e-01,2.97103e-01,-3.42834e-01,1.00843e-01,-1.66330e-01,-2.93610e-01,
3.81828e-01,4.22674e-02,-3.40043e-01,-2.50576e-01,-1.55796e-01,-1.29243e-01,-2.62077e-01,-3.51878e-01,1.29630e-01,-3.19693e-01,-1.19099e-01,-4.30284e-02,1.57699e-01,-1.26744e-01,3.55949e-01,2.87376e-01,-6.02530e-02,3.42431e-01,-1.81081e-01,-2.64670e-01,
2.27769e-01,-3.75009e-02,1.85496e-01,9.78099e-02,1.02912e-01,-2.37660e-01,2.32702e-01,4.59048e-02,-5.25604e-02,-1.99641e-01,2.03966e-01,2.46339e-01,2.44270e-01,-1.71016e-01,1.24651e-01,2.51263e-01,-1.63998e-01,-3.42589e-01,2.83241e-01,-1.70026e-02,
2.46122e-01,1.98669e-01,3.48001e-01,-2.15637e-02,1.66230e-01,6.21349e-04,5.48450e-02,3.36635e-01,-2.61361e-01,-3.80888e-01,-1.90942e-01,2.98158e-01,3.62396e-01,2.77106e-01,3.84486e-01,-3.25095e-01,-1.26002e-01,1.44149e-01,-3.74808e-01,-5.26797e-02,
3.09713e-01,3.55002e-01,2.47469e-01,-2.88332e-01,-2.10593e-01,-1.59256e-01,-2.65668e-02,-1.86123e-02,1.98562e-01,3.68581e-01,2.20605e-01,3.37562e-01,3.32506e-01,2.29843e-01,-1.04107e-01,1.59343e-01,9.01062e-02,1.99476e-01,-1.05831e-01,1.28557e-01,
-3.05709e-01,3.06041e-01,4.50797e-02,-3.45668e-01,2.59649e-02,-4.37401e-02,4.29586e-02,4.17288e-02,-2.86213e-01,-3.64949e-01,1.66384e-01,1.16875e-01,-5.36330e-02,4.13083e-02,2.59965e-01,-2.56355e-01,-2.35469e-01,3.04143e-01,-3.05694e-01,1.19688e-01,
1.47009e-01,1.14430e-02,7.61487e-02,-2.15089e-01,-1.30976e-01,-1.73869e-02,-1.22282e-01,6.66390e-02,1.55411e-01,9.99828e-02,-4.17194e-02,-2.17168e-01,3.80019e-01,3.19152e-01,2.16953e-01,-7.89795e-02,8.83097e-02,2.01111e-01,-2.63627e-01,3.07519e-01,
2.21840e-01,2.78998e-01,-2.90343e-01,9.75131e-02,2.30228e-01,-3.39455e-01,2.85317e-02,1.88211e-01,2.22114e-01,-1.70758e-01,-1.89696e-01,-2.51799e-02,-3.75784e-01,3.49896e-01,-7.25080e-02,4.77112e-02,1.40854e-01,-2.80887e-01,-1.19373e-01,1.75337e-01,
0.00000e+00,
-1.45347e-02,
-2.27952e-02,
-1.46838e-02,
1.29603e-02,
0.00000e+00,
-1.53217e-02,
0.00000e+00,
1.14440e-02,
1.25159e-02,
0.00000e+00,
0.00000e+00,
0.00000e+00,
0.00000e+00,
0.00000e+00,
1.19081e-02,
-1.41248e-02,
-1.62697e-02,
-1.52872e-02,
0.00000e+00,
-1.04785e-01,1.85216e-01,2.08797e-01,5.41125e-02,-5.03416e-01,-2.53900e-01,8.89345e-02,-1.78626e-01,-1.01212e-01,-2.88151e-01,-4.80445e-01,2.49555e-01,3.74148e-01,-4.28439e-01,-1.74330e-01,-1.28627e-01,2.55462e-01,3.28494e-01,8.83118e-02,1.23504e-01,
-1.33796e-02,
