// Neural Network File Format by Kyle Julian, Stanford 2016
4,13,1,20,
13,10,20,10,1,
0,
29,0,0,94,126,0,0,71,0,0,0,0,0,
77,1,3,200,594,1,2,202,1,6.2,2,4,3,
0,0,0,0,0,0,0,0,0,0,0,0,0,0,
1,1,1,1,1,1,1,1,1,1,1,1,1,1,
4.10816e-01,-3.49220e-01,1.56319e-01,-3.69410e-01,2.82861e-01,1.57178e-01,4.66017e-01,1.61200e-01,-9.27916e-01,-5.72626e-01,4.92470e-01,-7.36871e-01,3.04653e-02,
6.07770e-02,-3.82614e-01,-5.91564e-01,1.20572e-01,2.24323e-01,-2.62104e-01,2.71933e-01,-2.00460e-02,7.85576e-01,3.93377e-02,-3.97918e-01,-2.80058e-01,-3.28786e-01,
-2.33912e-01,4.48988e-01,-1.66558e-01,4.35742e-02,-2.73039e-01,1.31647e-01,-4.26525e-01,-1.36221e-01,7.09262e-02,2.30624e-01,-9.43598e-02,4.76000e-01,-5.13633e-02,
1.69532e-01,9.45162e-02,-3.18649e-02,1.36157e-01,-4.58573e-01,1.70910e-01,-1.60888e-01,-3.74924e-02,2.62141e-03,-5.08641e-01,6.41115e-02,2.82804e-02,-6.89143e-02,
-1.04627e-01,1.53883e+00,-1.45311e+00,-9.27139e-02,1.45661e-01,2.15825e-01,1.80262e-01,-7.25860e-02,1.66711e+00,1.37110e+00,-1.09413e+00,1.38705e+00,4.72697e-01,
-2.13185e-01,-9.99860e-01,8.14177e-01,-4.16801e-01,3.69185e-01,6.79994e-02,3.02446e-01,-1.56194e-01,-7.63152e-01,-8.82848e-01,2.77130e-01,-8.00259e-01,-7.24916e-01,
1.10306e-01,-1.12252e-01,-5.01886e-01,1.72728e-02,-1.92485e-01,-1.37346e-01,4.02995e-01,-3.02080e-01,4.57199e-01,4.35382e-01,-1.02327e-01,-4.42295e-01,3.87659e-01,
-2.44849e-01,-1.06277e+00,6.69649e-01,-4.11532e-01,9.22136e-03,3.38598e-01,-2.80691e-01,4.64033e-01,-9.04855e-01,-8.71881e-01,2.38823e-01,-1.07950e+00,-7.01594e-01,
-4.43745e-02,6.63270e-02,-4.76443e-01,2.35883e-01,-2.37211e-01,-1.58389e-01,-3.13709e-01,-2.72079e-01,3.78101e-01,-4.48416e-01,2.34818e-01,3.91695e-01,-3.02305e-01,
-3.01244e-02,-3.99064e-02,3.89218e-01,-2.88863e-01,3.55486e-01,6.72792e-01,-4.82872e-01,-5.33777e-02,1.24817e-01,-3.41221e-01,1.03633e-01,5.70348e-01,-2.49853e-02,
-8.67287e-02,
4.48999e-02,
0.00000e+00,
0.00000e+00,
1.79933e-01,
-2.71163e-02,
0.00000e+00,
-3.16337e-02,
0.00000e+00,
1.14754e-03,
2.27367e-01,2.77219e-02,-2.96744e-01,2.01048e-01,-2.44114e-01,2.33567e-01,4.39134e-01,1.79151e-01,3.17050e-01,-3.00834e-01,
3.36919e-01,-2.95810e-01,1.79207e-02,-4.24076e-02,-2.79645e-01,-3.54640e-01,3.34399e-01,-3.49260e-01,1.50754e-01,-3.36098e-01,
1.34241e-01,-1.56508e-01,1.02453e-01,1.90686e-01,-5.09406e-01,1.61628e-01,-2.64128e-01,-2.92243e-01,-4.13743e-01,2.77068e-01,
1.21606e-01,-2.88990e-01,1.98326e-01,1.95558e-01,-2.67507e-01,-3.98882e-01,5.41180e-02,3.62281e-02,-1.05345e-01,-3.40602e-01,
2.65088e-01,3.84718e-01,2.29595e-01,2.92858e-01,-2.08769e-01,3.67548e-01,2.84552e-01,-3.57650e-01,-4.20556e-01,-3.65310e-01,
-1.38951e-01,-4.08615e-01,3.15949e-03,4.32689e-01,2.74611e-01,-1.24036e-02,4.27930e-01,-3.73930e-01,-4.43058e-01,-2.96617e-01,
3.71573e-01,-1.57746e-01,-2.09904e-01,-2.78484e-01,-6.99077e-01,-2.13014e-01,-1.10965e-01,2.26619e-01,-1.61103e-01,3.59898e-01,
-2.19970e-02,-2.71781e-01,4.25731e-01,-4.44019e-01,3.97601e-01,4.18019e-01,4.15689e-01,4.36212e-02,7.04576e-02,-4.04104e-01,
-3.57973e-01,1.83223e-01,-2.37070e-01,-1.13191e-01,-1.12312e-01,-3.19380e-01,1.10263e-01,6.42045e-02,-5.97804e-02,1.74659e-01,
-6.26572e-02,4.28593e-01,2.41865e-01,-9.11079e-02,-2.07467e-01,-5.58042e-02,-1.14499e-01,-2.38392e-01,1.64538e-01,-1.36030e-01,
-3.78658e-01,-2.82203e-01,-3.87234e-02,8.36678e-02,4.46835e-01,3.74693e-02,-3.69656e-01,4.07363e-01,-2.56593e-01,2.56061e-01,
-3.71115e-01,2.45753e-01,-3.98355e-01,3.91939e-01,1.12974e-01,1.24745e-02,1.46876e-01,1.86144e-01,-4.11370e-01,-1.18085e-01,
1.25983e-01,1.72381e-01,-4.81351e-02,8.50856e-04,-4.53440e-02,6.94812e-02,-3.46302e-01,-3.09323e-01,-1.14895e-01,2.37817e-01,
2.50328e-01,-1.18137e-01,3.23609e-02,-1.02530e-01,-9.29301e-03,-3.35249e-01,8.35809e-02,1.54094e-01,-9.39720e-02,2.19134e-01,
1.48203e-01,-4.35599e-01,3.75765e-01,-3.50251e-01,3.69622e-01,1.77172e-01,-3.59917e-01,3.87152e-01,-3.99201e-01,-3.32466e-01,
-9.88559e-02,4.72496e-02,1.22350e-03,-4.23067e-01,-4.82662e-02,3.64194e-02,-9.82453e-02,-5.82355e-02,2.27240e-01,-2.76483e-01,
-2.41472e-01,1.08776e-01,-2.85406e-01,2.86893e-01,4.30784e-01,-1.51944e-01,3.75773e-01,-3.89378e-01,2.97318e-01,-2.45762e-01,
4.42282e-01,-2.31882e-01,-1.72089e-01,3.83742e-01,3.28074e-01,-5.73409e-02,3.60703e-01,-2.94697e-01,2.29072e-01,1.17684e-01,
-2.79558e-01,-1.25878e-01,-3.55004e-01,4.75472e-02,6.69544e-02,-3.41646e-01,-4.29352e-01,-4.24342e-01,1.47453e-01,3.61703e-01,
-2.88161e-01,-3.98898e-01,6.03698e-02,-4.91455e-02,-1.15751e-01,-4.99374e-03,-1.27455e-01,-3.56937e-01,-2.87516e-01,6.76646e-02,
-7.34542e-02,
-4.25190e-02,
-7.57359e-02,
0.00000e+00,
-9.49926e-02,
0.00000e+00,
-1.08198e-01,
0.00000e+00,
-7.69833e-02,
1.08528e-01,
0.00000e+00,
-2.87113e-03,
-6.65796e-02,
1.13349e-01,
-8.68381e-04,
0.00000e+00,
0.00000e+00,
6.39786e-02,
0.00000e+00,
0.00000e+00,
3.17849e-01,-3.36749e-01,4.45998e-01,-1.83294e-01,-3.55712e-01,-2.91557e-01,-7.74872e-02,1.48015e-01,2.36697e-01,-2.19168e-01,-2.29649e-01,-4.56483e-02,-1.30327e-01,-2.51598e-01,-5.54298e-02,-2.22332e-01,-9.81273e-02,1.95285e-01,3.11591e-01,4.02109e-01,
-2.66748e-01,2.39340e-01,3.28854e-01,2.79232e-01,-3.65730e-01,1.30973e-01,-3.92288e-01,-1.91458e-01,1.55221e-01,2.64460e-01,7.92000e-02,-1.06796e-01,-3.59766e-01,2.90733e-01,-3.44764e-01,-1.25011e-01,3.47218e-01,-2.64224e-02,2.33879e-01,2.47906e-01,
2.92667e-01,3.14257e-01,3.09322e-01,-3.93578e-01,2.81225e-01,-4.28254e-01,3.97039e-01,-3.37967e-01,2.79296e-01,2.84893e-02,8.17512e-02,-2.09954e-01,5.03459e-02,-1.80983e-01,-1.38627e-02,1.16773e-01,8.88644e-02,-2.47679e-01,2.81335e-01,-2.79284e-01,
1.48590e-01,-5.90046e-01,2.48458e-01,2.94491e-01,1.69618e-01,-4.35188e-01,-3.38179e-01,2.17329e-01,4.49151e-01,2.26715e-01,-3.18434e-01,-1.05477e-01,-1.16461e-01,1.76566e-02,2.69267e-01,-4.29085e-01,1.18978e-01,-6.44755e-02,-1.51081e-01,1.26082e-01,
3.39681e-01,-2.62530e-01,8.12425e-02,3.66074e-01,3.31589e-01,-9.66507e-02,-4.72437e-01,-2.45520e-01,9.85803e-03,-3.90873e-01,-9.52321e-02,-3.73692e-01,-1.52564e-01,-3.00706e-01,-9.88993e-02,-1.22804e-01,-4.22768e-01,3.01043e-01,4.23497e-01,3.56445e-01,
2.57764e-01,-3.64512e-02,2.70312e-01,-2.98710e-01,-4.52526e-01,2.92778e-03,-2.72478e-02,1.76722e-01,-1.15325e-01,-1.37008e-01,-2.40063e-01,-3.65743e-01,-4.51897e-02,2.08066e-01,-3.04614e-01,3.94977e-01,1.91562e-01,2.96762e-01,-3.38626e-01,2.11176e-01,
4.79841e-01,1.44106e-01,3.41435e-01,9.91965e-02,4.41787e-01,2.69684e-01,-2.17270e-01,4.35673e-01,2.10409e-01,-3.39438e-01,1.68341e-01,1.32670e-01,-1.14149e-01,-6.35209e-03,-3.19856e-01,3.32591e-03,-2.20078e-01,4.89614e-01,2.09354e-01,-4.34022e-01,
3.36027e-01,-3.33051e-01,3.46343e-01,-1.67418e-01,-4.10603e-01,-9.55274e-02,-3.08624e-01,5.08833e-02,-2.33405e-01,-5.72996e-02,-3.27998e-02,-5.72259e-02,-1.84807e-01,-3.16634e-02,1.02154e-01,2.21078e-02,4.05263e-01,-3.27661e-01,3.47164e-01,-3.06924e-01,
-1.11582e-03,-3.56532e-01,2.05334e-01,-1.71638e-01,1.10017e-01,1.53217e-01,4.20568e-01,2.51659e-01,8.61056e-02,3.58202e-01,5.77133e-02,6.12158e-01,-2.58511e-01,2.25318e-01,4.14402e-01,-1.96831e-01,2.41392e-01,2.28761e-01,4.29122e-01,2.77852e-01,
-3.19117e-02,1.48353e-01,-4.35321e-01,-1.52882e-01,1.07399e-01,-2.93413e-01,-4.35856e-01,-3.73638e-01,9.64434e-02,2.89112e-02,-3.37333e-01,2.16902e-01,4.23697e-01,1.24593e-01,2.88703e-01,-4.63264e-02,-4.16442e-01,-1.46856e-01,-4.08249e-01,6.25818e-02,
0.00000e+00,
0.00000e+00,
-9.69473e-02,
8.57183e-02,
-1.07311e-01,
-4.51909e-02,
9.99396e-02,
0.00000e+00,
9.65861e-02,
1.55768e-01,
-4.61490e-01,-6.22832e-01,6.69221e-01,-6.00628e-01,3.58772e-01,2.55645e-01,-1.02768e-01,5.43990e-01,-3.28788e-01,-2.43834e-01,
-9.67921e-02,
