// Neural Network File Format
2,13,1,40,
13,20,1,
0,
-100000.0,-100000.0,-100000.0,-100000.0,-100000.0,-100000.0,-100000.0,-100000.0,-100000.0,-100000.0,-100000.0,-100000.0,-100000.0,
100000.0,100000.0,100000.0,100000.0,100000.0,100000.0,100000.0,100000.0,100000.0,100000.0,100000.0,100000.0,100000.0,
0.0,0.0,0.0,0.0,0.0,0.0,0.0,0.0,0.0,0.0,0.0,0.0,0.0,0.0,
1.0,1.0,1.0,1.0,1.0,1.0,1.0,1.0,1.0,1.0,1.0,1.0,1.0,1.0,
-0.17094642,0.08675578,0.2904772,0.03839967,-0.14432317,-0.39753023,0.3382151,0.21945834,0.35322967,0.008814812,-0.2784557,0.44381675,-0.3536793,0.28777894,0.1913687,-0.16570097,0.21750468,0.11226172,0.28898203,-0.0792912,
-0.1290642,-0.4132819,-0.09400621,0.20760278,0.031022072,-0.001257658,0.37251794,0.11774245,0.05234439,-0.30896044,0.13684432,-0.120488875,-0.10770048,0.00043792874,0.20662953,0.19123936,0.34458965,0.12892617,0.28878063,0.14981079,
0.16632581,0.17529671,0.13416842,-0.121686414,0.39462262,-0.36670876,0.42067057,-0.5291736,0.20915961,0.3352883,-0.35250762,0.46222138,0.4524152,-0.24460226,-0.09650499,0.17920119,-0.13050243,0.07135599,-0.015330136,-0.38163742,
-0.29869014,0.46207973,0.061208557,0.24442765,-0.18005352,-0.1652751,-0.27469444,-0.3088352,-0.212354,-0.31079403,-0.0812085,-0.26933694,0.03229575,0.22416133,0.25652817,-0.120131284,-0.38642132,-0.13366783,0.002921462,0.1033719,
-0.38819736,0.32145745,-0.22515301,0.016804477,-0.015876055,-0.16136152,-0.40363178,0.14534476,0.10415103,-0.27930158,0.120010525,0.3943404,0.17866619,0.1450354,0.2272529,-0.052612424,-0.03416738,-0.09776072,-0.31624606,0.2166028,
0.23022562,0.39521456,0.12864806,-0.15035345,0.2706473,0.39127284,-0.21951261,0.0015762973,0.12179497,0.032763243,0.19567366,0.30792886,-0.18053122,0.051635716,-0.38421583,-0.22038314,-0.22313157,-0.11900484,-0.03750515,-0.23563449,
-0.36640316,-0.0898916,-0.038427815,-0.13218217,0.021370769,0.16955376,0.119944334,0.15506475,0.13823833,-0.39402726,0.2817439,0.038858097,0.3554833,-0.23248155,0.07105738,0.083961844,-0.39946496,-0.18618168,-0.23604254,-0.4434965,
0.2169596,-0.17318262,0.2949171,0.08297559,0.08186215,0.1368562,0.39148927,-0.19475627,-0.12621146,0.12034416,0.41581455,0.28299627,0.2535801,-0.36375168,-0.35052538,0.04311222,-0.065290004,0.39202124,-0.08025059,-0.20065065,
0.22502512,-0.5756591,0.05975679,-0.10998338,-0.248053,0.30301696,0.3011046,0.15841964,-0.22158913,0.4098338,0.18371107,0.009062352,-0.5419235,-0.011771114,0.6640318,0.3619396,-0.3220473,0.5612046,-0.20643145,0.109868795,
0.21744788,0.16671202,-0.15274352,0.2105855,0.05348164,-0.40651166,0.093667924,0.21372259,0.20047075,-0.21164112,0.3426625,0.20384021,-0.43781698,0.35915288,-0.18307751,0.28502476,0.3072753,0.27712727,0.39239222,0.26090494,
0.37340808,-0.12227063,0.3735789,-0.49494398,0.11464405,0.2853883,0.25327313,-0.33186045,-0.27831537,0.34344125,-0.21513425,0.301978,0.43475696,0.1713609,0.07746767,-0.32122394,0.33556765,0.041450065,-0.19798863,0.19026661,
-0.34508106,-0.05891358,-0.45765656,0.6036882,-0.26125473,0.027570754,0.30020255,-0.16297498,0.045305133,-0.39891568,0.5218421,-0.19106469,-0.36334005,-0.0973777,-0.05883871,0.03200504,0.14895397,0.008014163,0.2839588,0.06417733,
0.00043663383,-0.34633595,-0.11229507,0.2845029,-0.27040738,-0.11003846,0.089568794,0.24000943,0.4476648,0.29689926,-0.12700933,0.111653864,0.29749662,-0.0675624,0.40552875,0.10559392,0.31363374,-0.2759731,0.1433472,0.47764206,
0.0,0.0077072056,0.026496515,-0.008795069,0.0,0.0,0.0,-0.0052937837,-0.019641872,0.0,-0.008993633,0.006993229,0.0076964344,0.012384482,-0.008967937,0.0,0.0,-0.010566401,0.0,-0.008824681,
0.30249357,
0.25642338,
0.18910278,
-0.30265647,
0.36478996,
-0.27878705,
0.31109375,
-0.035197105,
-0.12782279,
-0.10667193,
-0.45767757,
0.16288881,
0.38068956,
-0.25503808,
-0.1199234,
-0.41417798,
0.16842955,
-0.32332957,
0.12083918,
-0.38175738,
0.0083653135,
